svm_type c_svc
kernel_type rbf
gamma 0.5
nr_class 15
total_sv 307
rho -0.194981 0.409316 3.37769 -0.0834795 -0.0926984 3.068 4.80002 0.663257 0.387305 -0.396832 1.86704 0.579457 0.556428 0.964651 0 0.356364 0 0 0.00377156 0.324669 0.377848 0.359656 0.420667 0.442471 0.405741 0.385259 0.450604 -2.05492 -1.50099 -12.2555 -3.66198 -1.17569 0.245438 0.204249 0.304621 0.684355 0.243975 0.263959 0.438465 -0.27811 -0.265122 -1.49347 -1.10817 -0.353067 0.336909 0.0295157 0.0143559 0.188505 -0.286456 0.0597372 -1.19598 0.246377 -0.00324694 0.370546 0.354418 0.413691 0.390798 0.395524 0.385813 0.453253 0.534276 0.182025 0.364144 0.339636 0.411994 0.460126 0.394722 0.391055 0.473152 -1.91599 0.349586 0.314583 0.31582 0.824525 0.270013 0.308296 0.43086 0.324812 0.350803 0.322307 0.909615 -0.207251 0.0161292 0.845153 -1.47691 3.65168 0.60455 3.65096 2.38508 10.4733 1.70669 -0.78688 -0.101696 0.167804 0.305699 -1.99596 1.96722 -3.71768 8.9715 3.30255 -1.08948 3.41583 -2.75092 4.56012 3.29322
label 1 2 3 4 5 6 7 8 -1 -2 -3 -4 -5 -6 -7
nr_sv 21 3 9 20 7 8 18 23 27 22 30 30 30 29 30
SV
0 0 15.98897615456557 0 4.18087198504729 0 0 0 0 0 2.293539200826581 0.7270763673237159 0 0 1:-0.0080947625 2:-0.019841396 3:0.0048411525 4:-0.19112617 5:-0.51914517 6:-0.23189341 7:0.1649623 8:0.33509149 9:0.23173127 10:-0.64391153 11:-0.14576333 12:-0.53637532 
0 0 0 0 0 0 2715.286500474676 0 0 0 0 0 0 0 1:-0.008530924 2:-0.018198099 3:0.005374006 4:-0.21712307 5:-0.55108013 6:-0.23168233 7:0.1722265 8:0.43156939 9:0.27893827 10:-0.61065043 11:-0.017350471 12:-0.4893794 
1.753729333285448 14.95445703905939 0 5.278423728452107 1.972284086082444 44.16846893231742 0 0 0 0 1.124971776980903 0 0 1.384059638133518 1:-0.0046728594 2:-0.014011249 3:-0.0084801477 4:-0.32164909 5:-0.34199497 6:-0.20622333 7:0.1079752 8:0.28342757 9:0.36685056 10:-0.57037571 11:-0.37457746 12:-0.42692612 
0 0 0 0 0 0 2583.604680788815 0 0 0 0 0 0 0 1:-0.0036523106 2:-0.016944358 3:-0.0097819418 4:-0.37265274 5:-0.39376596 6:-0.26788455 7:0.13579663 8:0.33106616 9:0.32350752 10:-0.49155063 11:-0.27516787 12:-0.40860793 
0 0 0 0 0 0 658.6829160223118 0 0 0 0 0 0 0 1:-0.0035897321 2:-0.022256534 3:-0.0098252383 4:-0.33667715 5:-0.44884339 6:-0.18422677 7:0.11516879 8:0.31775632 9:0.28937507 10:-0.54815406 11:-0.23340029 12:-0.52639816 
0 0 0 0 0 0 786.0144844811315 0 0 0 0 0 0 0 1:-0.00056277671 2:-0.025303617 3:-0.0054286664 4:-0.2676908 5:-0.51002636 6:-0.3091856 7:0.12492773 8:0.43206141 9:0.18157908 10:-0.60738147 11:-0.057912233 12:-0.50923531 
0.01171573682079978 0 0 2.334541389110175 0 0 543.9308580400292 0 0 0 0 0 0 0 1:-0.0013435637 2:-0.024544198 3:-0.0052162077 4:-0.20931638 5:-0.48187709 6:-0.26141445 7:0.10552763 8:0.42954016 9:0.17479007 10:-0.68515599 11:-0.088582747 12:-0.56379549 
0 0.3598641178840916 0 0 0 0 174.512043297614 0 0 0 0 0 0 0 1:-0.0020383763 2:-0.030329034 3:-0.0055125438 4:-0.54595861 5:-0.71727093 6:-0.47804041 7:0.21448175 8:0.35921033 9:0.45276929 10:-0.23955964 11:0.076481265 12:-0.069190294 
0 0 0 0 0 21.80807158067633 0 0 0 0 9.357470826097366 0 0 0 1:-0.0087702746 2:-0.024841431 3:-0.0049851253 4:-0.71644241 5:-0.52806004 6:-0.36877527 7:0.25371253 8:0.46975012 9:0.4838324 10:-0.029845054 11:-0.0021898406 12:-0.14739233 
0 0 0 0 0 0 0 7.448443413405599 3.56123720965359 15.4652095085989 7.402454317379993 4.750721181047316 8.084725047784877 10.05895448767426 1:-0.011604442 2:-0.027541976 3:-0.0013840002 4:-0.66533424 5:-0.60441129 6:-0.47256708 7:0.28763645 8:0.51468901 9:0.46517924 10:-0.047029312 11:0.1191003 12:-0.062253675 
0.3336551605297578 1.463221072118504 4.023795055637413 0 0 0 0 2.938603111537591 0.8807561458589958 2.994991281229915 4.230236532225344 0 0 1.940607916777944 1:-0.0048588813 2:-0.036883609 3:-0.0056278283 4:-0.29725747 5:-1 6:-0.78018742 7:0.1496301 8:0.60132155 9:0.5098683 10:-0.55311243 11:0.60132155 12:0.29005573 
0 0 0 0 0 0 0 1.814205217711884 0.3275444040397538 0.9644619288007311 0 0.9508368434303077 3.425916058952498 0 1:-0.0062618208 2:-0.026739233 3:-0.0018205892 4:-0.34095741 5:-0.96795542 6:-0.56981997 7:0.1602795 8:0.70707632 9:0.39047993 10:-0.49876308 11:0.67503174 12:-0.039700101 
0 0 0 0 0 0 275.8069909413393 0 0 0 0 0 0 0 1:-0.0038025443 2:-0.026944088 3:-0.00038219164 4:-0.23415871 5:-0.65226657 6:-0.2084249 7:0.12069769 8:0.44016305 9:0.25962994 10:-0.6451436 11:0.092429627 12:-0.53194516 
0 0 0 0 0 0 236.1183380281326 0 0 0 0 0 0 0 1:-0.0037278035 2:-0.029015102 3:-0.0024393794 4:-0.25085478 5:-0.56960838 6:-0.17469906 7:0.11920814 8:0.45075535 9:0.20730525 10:-0.62993708 11:0.020363733 12:-0.6179957 
0 0 63.86934433179216 0 0 74.96158412547671 0 0 0 0 0 0 0 0 1:0.0018003358 2:-0.034839789 3:-0.0045744074 4:-0.30288376 5:-0.58600541 6:-0.23420816 7:0.10012262 8:0.24467632 9:0.24266059 10:-0.59699362 11:-0.16931827 12:-0.52313124 
0 2.346426502278276 31.07720564160113 0 0 0 0 0 0 0 0 0 0 0 1:0.00055099986 2:-0.039502343 3:-0.005475248 4:-0.24556296 5:-0.611042 6:-0.28114341 7:0.099703008 8:0.24281406 9:0.25291843 10:-0.65473403 11:-0.14614394 12:-0.46593816 
0 0 0 0 0 0 673.5109522585692 0 0 0 0 0 0 0 1:0.0017048307 2:-0.038893453 3:-0.010905884 4:-0.52497285 5:-0.68893302 6:-0.3260925 7:0.17416014 8:0.52276262 9:0.28045255 10:-0.30086701 11:0.21169564 12:-0.39345495 
0 0.5120185136833272 0 0 0 0 0 0 0 0 0 0 0 0 1:0.0029605791 2:-0.046221547 3:-0.0050974689 4:-0.41419853 5:-0.42286867 6:-0.48811521 7:0.14308836 8:0.44750756 9:0.44845335 10:-0.44271311 11:-0.12962378 12:-0.063431447 
0 0 0 0 0 0 113.1178418615547 0 0 0 0 0 0 0 1:-0.0067474226 2:-0.037181134 3:-0.0057240108 4:-0.51881376 5:-0.48726884 6:-0.51918086 7:0.14782163 8:0.54410782 9:0.49809568 10:-0.3333646 11:0.031376668 12:0.017276542 
0 0 0 0 0 0 25.70787308155284 0 0 0 0 0 0 0 1:-0.0070149431 2:-0.026524519 3:-0.0094822744 4:-0.2640912 5:-0.62109385 6:-0.39435995 7:0.14188408 8:0.49843983 9:0.2978693 10:-0.59402472 11:0.11953368 12:-0.30777075 
0 0 0 0 0 0 480.9754147800832 0 0 0 0 0 0 0 1:-0.0055014209 2:-0.026535404 3:-0.0087717965 4:-0.27604228 5:-0.54366935 6:-0.48844152 7:0.12962327 8:0.42685066 9:0.31784299 10:-0.59433446 11:-0.029479996 12:-0.19371549 
-0 281.3836039178783 0.3819736022294351 0 0 4.866493517372363 0 1.406937261500214 0.005829773730126498 0.4345590320569819 1.650685820012853 1.640422909767004 1.450784469237563 0 1:0.002631138 2:0.00057503578 3:1.7521976e-05 4:0.00065926693 5:-0.0038026237 6:-0.0031929864 7:0.0050822656 8:0.004358471 9:0.0028990022 10:-0.995577 11:-0.99183891 12:-0.99390801 
-2.099100230636005 0 0 21.80147489750435 0 0 2.961964841002277 0 1.380005709555452 0 0 0 0 0.4472683717912054 1:0.0025534388 2:0.0011449386 3:0.00059170352 4:0.00037875574 5:-0.0020572341 6:-0.002472279 7:0.0040539583 8:0.0058759872 9:0.0048170884 10:-0.9963248 11:-0.99206678 12:-0.99271063 
-0 0 3.566048988125356 0 65.90724314301653 0 0 0 0 1.021198970463409 0 0 0 1.096230817575863 1:0.0031772203 2:-0.00037790241 3:0.00055774933 4:0.0015526072 5:-0.0049511301 6:-0.0024358089 7:0.0042579525 8:0.00470882 9:0.0032197284 10:-0.99729465 11:-0.99034005 12:-0.99434446 
-0 -0 0 0 1.6933742879073 27.53531471529192 3.410143587423469 0 0 0 0 0 0 0 1:0.056105191 2:-0.055906598 3:0.013817967 4:-0.12959165 5:-0.23514656 6:-0.45927253 7:0.189475 8:0.086521901 9:0.16168059 10:-0.68093335 11:-0.67833154 12:-0.37904687 
-0 -0 0 0 212.6882201170405 10.5688856500359 0 0 0 0 0 0 0 0 1:0.06201071 2:-0.055748851 3:0.017953964 4:-0.06902765 5:-0.23274487 6:-0.063285883 7:0.20300816 8:0.075085529 9:0.083999123 10:-0.72796419 11:-0.6921696 12:-0.85271499 
-0 -281.3836039178783 0 31.69273374752614 398.6958353994112 8.10756072829169 0 0.6292586935090171 0.7843828474123836 0.6507833771957917 0.2793628330238699 0 0.5893410344219363 0.4448048311097551 1:0.0026643461 2:-0.0026950262 3:5.9912439e-06 4:-0.022807763 5:-0.025233337 6:-0.018753601 7:0.037867926 8:0.0084657095 9:0.015467693 10:-0.93932431 11:-0.96630095 12:-0.96577871 
-0 -0 0 0 210.1962168358953 0 0 0 0 0 0 0 0 0 1:0.058982823 2:-0.048836431 3:0.02360796 4:-0.031546196 5:-0.14566519 6:-0.035871067 7:0.14384346 8:0.054363111 9:0.090882462 10:-0.82461034 11:-0.7999717 12:-0.87324647 
-12.78706870223369 -0 34.96351327195357 0 0 0 12.25251679523552 1.86237810286083 1.230858843377664 2.049576709171918 7.93224891240114 1.893114381066009 2.348961632449035 4.022963322177634 1:0.077404338 2:-0.13728825 3:-0.0035394588 4:-0.21945593 5:-0.49856985 6:-0.42934131 7:0.25376097 8:0.13267655 9:0.44303865 10:-0.5267831 11:-0.3687536 12:-0.12762003 
-6.8489185427899 -0 62.02196320341515 16.78551531213787 7.292183020451367 88.44323748406671 21.0853737987336 0 0 0 0 0 0 0 1:0.061895777 2:-0.043888048 3:-0.0015997865 4:-0.11883798 5:-0.23879918 6:-0.10331204 7:0.28041686 8:0.16398949 9:0.062121367 10:-0.60074516 11:-0.59721133 12:-0.8345666 
-0 -0 0 0 0 0 0 0 0 0 0 1.928345402364149 0 0 1:0.064638857 2:-0.03936079 3:0.0034218162 4:-0.037939052 5:-0.20730193 6:-0.061524068 7:0.35989864 8:0.10927916 9:0.11751159 10:-0.60216231 11:-0.6834189 12:-0.82096435 
-0 -0 94.76281149621765 0 0 0 0 0 0 0 0 0 0 0 1:0.065631334 2:-0.043178418 3:-0.00071271541 4:-0.052929645 5:-0.3223068 6:-0.11946409 7:0.27243248 8:0.095452066 9:0.11362392 10:-0.67463787 11:-0.58224113 12:-0.76691199 
-0 -0 86.30277215067309 0 0 0 0 0 0 0 0 0 0 0 1:0.053660544 2:-0.051538262 3:-0.0087382192 4:-0.089182341 5:-0.27715632 6:-0.095546135 7:0.33195332 8:0.087650217 9:0.13219168 10:-0.57886434 11:-0.63519347 12:-0.77226219 
-0 -0 -6.894736386599329 0 0 0 0 0 0 0 0 0 0 0 1:0.068691868 2:-0.035324697 3:0.025077743 4:-0.11487868 5:-0.20356136 6:-0.12833919 7:0.38652853 8:0.16867126 9:0.17768733 10:-0.49859279 11:-0.62776738 12:-0.69397348 
-0 -0 -124.0214315332756 0 9.313065291150705 84.4006494386753 0 0 0 0 0 0 0 0 1:0.029833422 2:-0.12295288 3:0.021683793 4:-0.12976475 5:-0.46037383 6:-0.14968975 7:0.25209246 8:0.08542953 9:0.1393534 10:-0.61814279 11:-0.45419664 12:-0.71095685 
-0 -0 -0 0 0 54.98295876275031 0 0 0 0 0 0 0 0 1:0.046763177 2:-0.011654506 3:0.0013778744 4:-0.42550973 5:-0.74259304 6:-0.19069178 7:0.38475422 8:0.27346494 9:0.16072665 10:-0.18973605 11:0.016057981 12:-0.64858157 
-0 -0 -0 0 0 0 0 13.47811211077684 0 4.291640709763872 0 14.29396243381832 25.43575292829101 30.70497272174422 1:0.062018994 2:-0.034653789 3:-0.0065820427 4:-0.41343884 5:-1 6:-0.36771986 7:0.66539032 8:0.35425451 9:0.10044715 10:0.078829162 11:0.35425451 12:-0.53183299 
-0 -0.4001408431015248 -2.096546883035116 0.1441738118194619 0 0 0.7947470012015566 9.927924449729376 8.857134574566539 7.075017282850692 11.1849352701499 13.01968361830857 10.51337620557939 28.99845097506692 1:-0.074545813 2:0.08789925 3:0.031665687 4:-1 5:-0.59652889 6:-0.28288457 7:0.7948382 8:0.76498091 9:0.53370672 10:0.7948382 11:0.36150979 12:-0.18340871 
-0 -0 -0 0 10.83536525709717 0 0 0 0 0 0 0 0 0 1:0.10401904 2:-0.022097187 3:0.024410213 4:-0.049686437 5:-0.39980523 6:-0.13301663 7:0.25469707 8:0.19133063 9:0.15291562 10:-0.69561649 11:-0.40886414 12:-0.71406775 
-0 -0 -0 0 0 0 0 0 0.1089924835950267 0.148214313960343 2.888717657978253 3.61790274145298 0 0.1337942428633164 1:0.053480044 2:0.010832296 3:-0.054286309 4:-0.25656825 5:-0.20715637 6:-0.33717172 7:0.53136647 8:0.22793742 9:0.10046601 10:-0.21206528 11:-0.56490621 12:-0.56236227 
-0 -0 -0 0 0 0 0 0 0 0.4311189165477851 0 1.292835016610693 0.4130659778470242 0.2527251405481892 1:0.080992306 2:-0.011712301 3:-0.0016031727 4:-0.082381088 5:-0.19235366 6:-0.084059796 7:0.51700377 8:0.15012695 9:0.19104613 10:-0.40061514 11:-0.65751939 12:-0.72489408 
-0 -2.275551411770448 -102.3348606169886 0 0 0 0 0 0.5170101742775388 0 0 0 0 0 1:0.099617764 2:-0.024983601 3:-0.0014103569 4:-0.024938613 5:-0.14308148 6:-0.09446702 7:0.39042639 8:0.19433497 9:0.20117242 10:-0.58463499 11:-0.66258355 12:-0.70436056 
-17.38591030155659 -0 -0 0 0 187.342270472269 41.70770118027554 0 0 0 0 0 0 0 1:0.05742974 2:-0.036875145 3:0.0066833194 4:-0.27954245 5:-0.39284822 6:-0.19237558 7:0.26454243 8:0.20401513 9:0.24902362 10:-0.45591512 11:-0.40313665 12:-0.5586008 
-0 -0 -0 0 0 0 0 0 0 0 1.874922634676493 2.718060443569609 0.6089331601103927 0 1:0.06401053 2:-0.010409733 3:0.029245296 4:-0.30924679 5:-0.48670035 6:-0.074505565 7:0.52614807 8:0.16524042 9:0.28653516 10:-0.16460514 11:-0.34805923 12:-0.63895928 
-0 -0 -0 0 0 12.37612579033572 0 0 0 0 3.019647155276723 0 0 0 1:0.055278157 2:-0.10081811 3:0.0052654337 4:-0.80911422 5:-0.77343435 6:-0.21099433 7:0.35384153 8:0.16406138 9:0.18059786 10:0.16295575 11:-0.06250427 12:-0.60840782 
-6.583858619353603 -0 -0 0 0 0 0 0 1.456395449572298 4.369517298443406 11.47495011818208 0 3.617644305581721 5.000289642891032 1:0.060280332 2:-0.021682804 3:-0.038029467 4:-0.29880744 5:-0.98642248 6:-0.49554384 7:0.40222451 8:0.42880851 9:0.21840001 10:-0.29896805 11:0.41523099 12:-0.28605615 
-4.231510103141579 -0 -0 0 0 0 32.19035049229611 0 0.686128224952467 0 0 0 0 0 1:0.075661981 2:-0.029436337 3:-0.012779335 4:-0.22152927 5:-0.29569986 6:-0.14834679 7:0.41655917 8:0.46284919 9:0.19352021 10:-0.36191156 11:-0.24145095 12:-0.658133 
-0 -1.272330335482818 -36.4706721960888 28.93208161532518 14.02141711027777 44.35955255661639 15.81082074297921 0 0 0 0 0 0 0 1:0.099759551 2:-0.0069742793 3:0.0087556582 4:-0.12352511 5:-0.25570149 6:-0.10459561 7:0.26127679 8:0.2281434 9:0.11999026 10:-0.61519811 11:-0.51615511 12:-0.77541413 
-0 -0 -1.555196451156189 0 0 0 0 0 0 0 4.458793762001076 0 0 0 1:0.054615796 2:-0.10059318 3:-0.054758789 4:-0.10542667 5:-0.5425706 6:-0.6068943 7:0.44820861 8:0.18595519 9:0.1065346 10:-0.44636471 11:-0.2714742 12:-0.2865711 
-0 -0 -4.677616055115828 0 0 0 0 0 0 0 0 0 0 0 1:0.083891187 2:-0.018432221 3:-0.025974825 4:-0.064530956 5:-0.31120464 6:-0.38813203 7:0.30763564 8:0.20576955 9:0.18329399 10:-0.62783341 11:-0.4830258 12:-0.42857398 
-0 -0 -0 0 0 0 0 0 0.07878656104539908 0 0 0 0 0 1:0.071507499 2:0.025237929 3:-0.060332611 4:-0.076544743 5:-0.28105163 6:-0.54512499 7:0.37008051 8:0.33932587 9:0.068209072 10:-0.55337475 11:-0.3796225 12:-0.38666594 
-63.18580133342781 -0 -0 1.606130491563509 0 225.7378018948841 58.50055392275723 0 0 0 0 0 0 0 1:-0.037699486 2:-0.018235779 3:-0.0023213961 4:-0.25713674 5:-0.67813423 6:-0.38953414 7:0.042969821 8:0.19280259 9:0.12497871 10:-0.69989344 11:-0.12906319 12:-0.48548714 
-23.57224082611671 -0 -0 0 0 0 0 0 0 0 0 0 0 0 1:0.05424758 2:-0.10767043 3:0.040659856 4:-0.1975616 5:-0.52369311 6:-0.13334166 7:0.22786986 8:0.20568925 9:0.19720623 10:-0.57456853 11:-0.27061764 12:-0.66945211 
-6.826439197635804 -0 -0 -11.62591646811575 0 14.1552679830719 2.231021396647352 0.8982136370622156 0.6734003588853481 0.899003274578781 0.903531853969085 0.06377858107757328 0.9592637034732062 1.123576365089487 1:-0.02229363 2:0.044722393 3:-0.014409868 4:-0.15719206 5:-0.16809716 6:-0.16932082 7:0.075227779 8:0.30308005 9:0.079523334 10:-0.76758016 11:-0.52882279 12:-0.75115585 
-0 -21.80147489750435 -40.03117670896857 -0 40.81335538266316 0 0 0.02515061713916393 0.03923806430480043 0 0 0 0 0 1:-0.053310031 2:0.050176213 3:0.0053637572 4:-0.14135841 5:-0.034561751 6:-0.017600123 7:0.0019063722 8:0.1342877 9:0.047238863 10:-0.85673521 11:-0.83115055 12:-0.93516101 
-0 -0 -0 -0 25.93673863805412 0 0 0 0 0 0 0 0 0 1:-0.051146835 2:0.048090278 3:-0.011768738 4:-0.18363101 5:-0.19027395 6:-0.12686187 7:0.027939205 8:0.16325274 9:0.037272922 10:-0.78842979 11:-0.64647331 12:-0.8358652 
-0 -0 -0 -0 0 3.631109238078901 0 0 0 0 0 0 0 0 1:-0.056866408 2:0.040730737 3:0.0049974865 4:-0.25123513 5:-0.098356982 6:-0.15403272 7:0.092077825 8:0.19105862 9:0.141169 10:-0.65668704 11:-0.7105844 12:-0.70479827 
-0.7865259199264797 -0 -0 -0 0 0 9.334390388913411 0.6969521723524805 0.8920274916903744 0.8108350129481821 1.116202955351039 0.6470948232561727 0.7531020707824777 0.8867115421659011 1:-0.06059612 2:0.043963866 3:0.0050572977 4:-0.43745316 5:-0.078407254 6:-0.086686075 7:0.059478517 8:0.18317468 9:0.13137463 10:-0.50306833 11:-0.73841806 12:-0.7819393 
-0 -0 -1.655702638216999 -0 31.4213797939237 0 0 0 0 0 0 0 0 0 1:-0.04633764 2:0.047532726 3:0.014205527 4:-0.1797622 5:-0.19026961 6:-0.086835719 7:0.11998108 8:0.21353826 9:0.050278128 10:-0.70025671 11:-0.59619212 12:-0.86288615 
-0 -0 -6.791369712478436 -19.0564694505924 0 112.9295401183339 12.9529702436251 0 0 0 0.5743015160303299 1.689929063216933 0.06647013250673199 0 1:-0.044868126 2:0.048504938 3:0.0099479231 4:-0.24590227 5:-0.22284878 6:-0.1004785 7:0.12157949 8:0.16828249 9:0.077342416 10:-0.63251824 11:-0.60886873 12:-0.82217908 
-0 -65.90724314301653 -268.7348160365017 -0 -0 0 0 0.4510061462887409 0.5661601153499953 0.4724246724325235 0 0 0.2485315172584584 0 1:0.0072794346 2:-0.016037383 3:-0.0044015905 4:-0.022821631 5:-0.078082475 6:-0.038938628 7:0.046725181 8:0.043294856 9:0.017446656 10:-0.93045319 11:-0.87862267 12:-0.94361472 
-6.153156071129732 -0 -12.63803390661048 -24.28625374280772 -0 0 1.610919040391325 1.135197340020715 0.9549914389583951 1.18038480286458 2.428192541736142 1.780529888081228 1.501666058968527 1.801580430901064 1:0.0077727943 2:-0.022701497 3:0.0076221006 4:-0.06430101 5:-0.39730693 6:-0.044294433 7:0.16027135 8:0.10656264 9:0.1070312 10:-0.77542764 11:-0.49613043 12:-0.84867437 
-0 -0 -0 -9.883593915717929 -0 65.57065130699874 12.01570323268482 0 0 0 0 0 0 0 1:0.003686144 2:-0.010340618 3:0.0012074415 4:-0.10471287 5:-0.2854772 6:-0.072340708 7:0.13268318 8:0.13301 9:0.090974237 10:-0.76260395 11:-0.5815128 12:-0.83668506 
-0 -0 -0 -0 -56.8132882651347 0 0 0 0 0 0 0 0 0 1:0.0053053411 2:-0.0065235188 3:-0.00085562879 4:-0.084886786 5:-0.18919738 6:-0.063783759 7:0.11609597 8:0.14209185 9:0.042577486 10:-0.79901725 11:-0.66871077 12:-0.89363876 
-0 -0 -0 -0 -41.35818554950628 0 0 0 0 0 0 0 0 0 1:0.0064599487 2:-0.0087208362 3:-0.0016002421 4:-0.069048809 5:-0.12675174 6:-0.066209154 7:0.068245017 8:0.11632056 9:0.053877981 10:-0.86270617 11:-0.7569277 12:-0.87991287 
-0 -0 -311.9982553605375 -0 -0 0 0 0 0 0 0 0 0 0 1:0.015637354 2:-0.024910337 3:0.0013590516 4:-0.055431263 5:-0.11183585 6:-0.04978535 7:0.081625988 8:0.043850346 9:0.062018885 10:-0.86294275 11:-0.84431381 12:-0.88819577 
-0 -0 -0 -0 -0 0 0 0 0 0 0 0 0 0.1516355136413189 1:0.0073444799 2:-0.012292158 3:0.00023284548 4:-0.030063783 5:-0.070538869 6:-0.038259242 7:0.042908639 8:0.055753749 9:0.052689247 10:-0.92702758 11:-0.87370738 12:-0.90905151 
-0 -0 -237.1947243570555 -0 -0 0 0 0 0 0 0 0.4923234786548442 0 0 1:0.0067393522 2:-0.010517251 3:-0.00063873204 4:-0.06442618 5:-0.13265769 6:-0.052608179 7:0.16499595 8:0.074784712 9:0.050749491 10:-0.77057787 11:-0.7925576 12:-0.89664233 
-0 -0 -0 -0 -0 -0 0 0.5831205927263967 1.194276612329345 0.7478682830173611 10.33864873926821 3.127720081943293 0.5201207921052993 0.7849384477540653 1:-0.045235785 2:0.043308081 3:-0.0044089326 4:-0.68797449 5:-0.38183783 6:-0.14092504 7:0.27823212 8:0.28010585 9:0.36414066 10:-0.033793395 11:-0.33805632 12:-0.4949343 
-25.27989245734239 -0 -0 -0 -0 -0 58.09775986271134 0 0 0 0 0 0 0 1:-0.02673034 2:0.057194627 3:-0.0015186067 4:-0.52827928 5:-0.35621746 6:-0.14040702 7:0.21146314 8:0.31394768 9:0.4692938 10:-0.26025758 11:-0.32983486 12:-0.39029918 
-25.37111871229135 -0 -0.192170032783095 -27.94630987709305 -0 -0 18.46124650025668 0.2169465507490269 0 0.6845950137628776 3.867941755632159 0.837903777551004 0.709826602986819 5.275760063404807 1:0.0029468959 2:-0.012138164 3:0.0086059035 4:-0.26926881 5:-0.53608266 6:-0.1762944 7:0.23773893 8:0.19947867 9:0.65462467 10:-0.49299226 11:-0.26443867 12:-0.16908093 
-0 -0 -0 -0 -0 -19.0731623742603 0 0 0 0 0 0 0 0 1:-0.0024603056 2:0.0023770894 3:-0.00013026601 4:-0.17842994 5:-0.4099718 6:-0.11925734 7:0.16136729 8:0.1366588 9:0.15836065 10:-0.66020277 11:-0.4533694 12:-0.72238201 
-0 -0 -0 -0 -36.86299679391185 -0 0 0 0 0 0 0 0 0 1:-0.012340877 2:-0.013807287 3:-0.0015458261 4:-0.24960486 5:-0.32732126 6:-0.12013838 7:0.15263852 8:0.16144453 9:0.10082495 10:-0.59775662 11:-0.51123421 12:-0.77903667 
-0 -2.70659165268696 -76.98205085342336 -0 -89.04461577408065 -22.47727915702327 0 0 0 0 0 0 0 0 1:-0.0069892378 2:-0.017584373 3:-0.0015315196 4:-0.1725704 5:-0.21591471 6:-0.14236844 7:0.1826944 8:0.15235401 9:0.092901246 10:-0.64473521 11:-0.63173127 12:-0.76473031 
-0 -2.159901864685404 -53.95253985754931 -22.40156161901328 -0 -24.02020977571518 0 0 0.3179331171779954 0 0 0.05859143758908836 0 0 1:-0.01170737 2:-0.022453996 3:0.0049556339 4:-0.13117094 5:-0.21471349 6:-0.16731937 7:0.18147023 8:0.16490086 9:0.10738198 10:-0.68735883 11:-0.62038566 12:-0.72529865 
-0 -0 -0 -0 -0 -0 339.7965908680828 0 0 0 0 0 0 0 1:0.0008238565 2:-0.01157047 3:-0.0017622483 4:-0.29310978 5:-0.33116814 6:-0.13387115 7:0.19113739 8:0.20719078 9:0.14953475 10:-0.51575283 11:-0.46164108 12:-0.7165941 
-0 -0 -0 -0 -4.808304771492199 -0 1053.96921566162 0 0 0 0 0 0 0 1:-0.016908184 2:0.003550531 3:-0.010848798 4:-0.356452 5:-0.22900022 6:-0.14789505 7:0.17991414 8:0.31949493 9:0.17251686 10:-0.46363386 11:-0.45150485 12:-0.67958809 
-0 -0 -0 -70.84183135154933 -0 -0 0 0 0 0 0 0 0 0 1:-0.0049384498 2:-0.0079307631 3:0.0052869223 4:-0.41131273 5:-0.30050527 6:-0.10223267 7:0.22464552 8:0.33783708 9:0.15263775 10:-0.36404175 11:-0.36165765 12:-0.74512958 
-16.96719421235852 -0 -2.017148402797892 -44.55028378461584 -0 -0 0 2.906839089296578 0.969096469880535 2.43522854247585 3.340301287227844 0 2.587933191028417 1.20734663057309 1:0.002242188 2:-0.019583541 3:-0.003904521 4:-0.59223078 5:-0.78835025 6:-0.45223139 7:0.17380451 8:0.18582416 9:0.24662092 10:-0.23396471 11:-0.025825588 12:-0.30114769 
-11.05818039758253 -0 -0 -0 -0 -0 131.9570529532686 0 0 0 0 0 0 0 1:0.0034638827 2:-0.015267141 3:-0.0020157052 4:-0.5537365 5:-0.63485237 6:-0.3451357 7:0.15539685 8:0.23401365 9:0.14148435 10:-0.29086666 11:-0.13113398 12:-0.51337995 
-0 -0 -0 -0 -0 -0 0.3975773435076877 0 0 0 0 0 0 0 1:0.0011718729 2:-0.030324127 3:0.0026606326 4:-0.57294795 5:-0.69505387 6:-0.14879673 7:0.23443709 8:0.21153503 9:0.11269929 10:-0.19261496 11:-0.093411104 12:-0.73850397 
-0 -0 -1.511089431132562 -106.9689339725973 -0 -0 0 0 0 0 0 0 0 0 1:0.0060588205 2:-0.021006377 3:0.004191551 4:-0.23320757 5:-0.80058175 6:-0.19467504 7:0.20584093 8:0.12189458 9:0.13734634 10:-0.5609515 11:-0.07752367 12:-0.66797862 
-0 -0 -0 -159.9286794285094 -0 -0 0 0 0 0 0 0 0 0 1:0.00032599571 2:-0.0098891652 3:-0.0064190164 4:-0.18813943 5:-0.48468896 6:-0.33171368 7:0.15989711 8:0.10147451 9:0.15229258 10:-0.65196346 11:-0.41383653 12:-0.51599374 
-62.26173885889566 -0 -0 -145.239421878101 -0 -0 508.6565729704606 0 0 0 0 0 0 0 1:-0.0048503528 2:-0.0036149674 3:-0.0016325135 4:-0.19147007 5:-0.48746259 6:-0.22162436 7:0.16446926 8:0.22119072 9:0.13444882 10:-0.64406066 11:-0.29134669 12:-0.64392683 
-0 -0 -0 -28.54144108390777 -0 -0 0 0 0 0 0 0 0 0 1:-0.0018648401 2:-0.016482351 3:-0.0045503319 4:-0.53187633 5:-0.55393279 6:-0.32755834 7:0.19441935 8:0.2775846 9:0.14736658 10:-0.27370432 11:-0.16848261 12:-0.52507508 
-0 -0 -0 -2.780895920143847 -0 -0 0 0 0.1038638014541879 0 0 1.626724669862064 0.9140170712491071 0 1:0.0021630481 2:-0.0090420546 3:-0.0027417645 4:-0.59249081 5:-0.72979305 6:-0.29408616 7:0.23965421 8:0.23621318 9:0.10267777 10:-0.16785498 11:-0.03399377 12:-0.60323607 
-986.5498139434008 -0 -0 -0 -0 -0 -2.53435601196724 2.442473398716613 0 1.377581667242156 6.006047724652262 0.4853704802061701 0.5437832071100335 1.0021328002084 1:-0.012424349 2:-0.0053229462 3:-0.0084404779 4:-0.3808997 5:-0.57169115 6:-0.41064737 7:0.16170583 8:0.38264086 9:0.36046458 10:-0.45739447 11:-0.045667991 12:-0.22888805 
-8.805793274688883 -0.412604450427435 -0 -0 -0 -0 -0 0 0 0 0 0 0 0 1:-0.0035029209 2:-0.0027467712 3:-0.0023306411 4:-1 5:-1 6:-0.64184507 7:0.20238104 8:0.78155639 9:0.4168294 10:0.20238104 11:0.78155639 12:0.058674471 
-409.0645649302051 -2.031816813796228 -33.1778642687984 -0.599183594771236 -0 -6.760886275005564 -248.38449250181 0 0 0 0 0 0 0 1:-0.00198003 2:-0.020172107 3:-0.0084841959 4:-0.25001428 5:-0.2711247 6:-0.19958701 7:0.16019614 8:0.23842316 9:0.21614032 10:-0.58978958 11:-0.49045214 12:-0.58427266 
-975.7149226649702 -0 -0 -0 -0 -0 -0 0 0 0 0 0 0 0 1:0.0021334339 2:-0.01638712 3:-0.010601648 4:-0.48721531 5:-0.50742863 6:-0.23425609 7:0.15073802 8:0.40964804 9:0.31071263 10:-0.36204667 11:-0.082923322 12:-0.45503128 
-29.37918575331141 -0 -0 -0 -0 -0 -0 0 0 0 0 0 0 0 1:-0.0066561544 2:0.0024486004 3:-0.01131275 4:-0.5893093 5:-1 6:-0.29244441 7:0.14600883 8:0.66197682 9:0.16328359 10:-0.26468187 11:0.66197682 12:-0.544272 
-1565.510733650293 -0 -0 -2.177527244132945 -0 -0 -0 0 0 0 0 0 0 0 1:-0.0033112733 2:-0.0053965241 3:-0.0062794041 4:-0.22056309 5:-0.62178216 6:-0.21304854 7:0.12917051 8:0.44236819 9:0.15875758 10:-0.6502664 11:0.064150347 12:-0.62819388 
-0 -0 -0 -34.50441593103005 -4.436285962382583 -5.742486829071675 -544.3057465826764 0 0 0 0 0 0 0 1:-0.006816238 2:-0.0077120397 3:-0.0042346775 4:-0.19571872 5:-0.35796883 6:-0.17961842 7:0.17427307 8:0.35364268 9:0.10523114 10:-0.63000821 11:-0.28838849 12:-0.71515043 
-0 -0 -0 -2.167080731380227 -0 -0 -0 1.300586775978048 0 0 0.6198604801877692 0 0 0.305961648722845 1:-0.014413287 2:0.0030214281 3:-0.0081778168 4:-0.91236559 5:-0.9238272 6:-0.21414474 7:0.2334964 8:0.48307781 9:0.11820397 10:0.14586199 11:0.40690501 12:-0.66765129 
-0 -0 -0 -0 -0 -0 -0 1.313405240864442 0.2790863921776539 0 0 2.292220926968679 1.385411878124363 0.463627543236263 1:-0.00036294607 2:-0.003339768 3:-0.0055924963 4:-1 5:-1 6:-0.24540592 7:0.2915802 8:0.68597584 9:0.22286204 10:0.2915802 11:0.68597584 12:-0.53173204 
-235.793579353471 -0 -0 -0 -0 -0 -0 0 0 0 0 0.4058291794831677 0.4791258451184758 2.064797110015184 1:-0.0072212648 2:0.0038473552 3:0.0032885964 4:-0.35718874 5:-0.27101508 6:-0.14572917 7:0.17869991 8:0.33316933 9:0.35691087 10:-0.46411134 11:-0.39581559 12:-0.49735995 
-4.440492425832029 -0.5175435767786136 -0 -15.94040672694558 -20.08209606680328 -1.123249168998904 -642.4985156605036 0.3144702234788519 0.9568997019461847 0 1.558450849230716 0.4254106829891349 0.05805099582264778 0 1:0.0068298385 2:-0.01532472 3:0.0002397943 4:-0.39467351 5:-0.24666757 6:-0.13089485 7:0.16362494 8:0.18357976 9:0.21320176 10:-0.44170155 11:-0.56975267 12:-0.65590339 
-0 -0 -0 -21.9943098561474 -0 -0 -405.9990701865785 0 0 0 0 0 0 0 1:-0.0019832413 2:-0.011190422 3:-0.0061926306 4:-0.39196107 5:-0.42641983 6:-0.1475045 7:0.16519224 8:0.28497754 9:0.16570032 10:-0.44284669 11:-0.28860263 12:-0.68679518 
-179.429181650025 -0 -0 -5.503515442668534 -0 -0 -57.04120918236671 0 0 0 0 1.234164166131289 0 0 1:0.0061644911 2:-0.011024061 3:-0.01642632 4:-0.4696507 5:-0.56547088 6:-0.29139156 7:0.19075678 8:0.34011615 9:0.2399795 10:-0.33959252 11:-0.094412975 12:-0.46862894 
-717.8297883499685 -0 -0 -0 -0 -0 -0 0 0 0 0 0 0 0 1:0.0027726602 2:-0.0086832887 3:-0.012096677 4:-0.25610937 5:-0.34526316 6:-0.28508971 7:0.12925948 8:0.31682583 9:0.20659298 10:-0.61463114 11:-0.33791101 12:-0.50831732 
-4096 -0 -0 -0 -0 -0 -0 0 0 0 0 0 0 0 1:0.0013287969 2:-0.013968375 3:-0.0058051199 4:-0.27856353 5:-0.50239633 6:-0.27624877 7:0.14292062 8:0.42257805 9:0.31929609 10:-0.57851585 11:-0.07502562 12:-0.40445514 
-0 -0 -0 -0 -0 -0 -0 0 0 0.4235368975768155 0 0.2965178327923229 2.268361785294922 0 1:0.00017732005 2:-0.025513061 3:-0.014624218 4:-0.4072823 5:-0.9496872 6:-0.29578653 7:0.11690129 8:0.49474591 9:0.33649615 10:-0.47581641 11:0.44443311 12:-0.36771731 
-0 -0 -1.759027126298931 -28.88444466058141 -0 -0 -0 0 0 0 0 0 0 0.4957934348824137 1:0.0035814596 2:-0.015361267 3:-0.0075796395 4:-0.23065318 5:-0.65602933 6:-0.37223466 7:0.12105994 8:0.3251875 9:0.37880163 10:-0.64828688 11:-0.018783173 12:-0.24896371 
-11.0924066212035 -0 -0 -0 -0 -0 -0 0.07561299835031182 0.5659701004584022 2.60887742393071 0 0 0 0 1:-0.0029985739 2:-0.01582564 3:-0.0071289401 4:-0.35957998 5:-0.37845493 6:-0.31105423 7:0.16120107 8:0.60824033 9:0.29883803 10:-0.47921895 11:-0.013304747 12:-0.39010773 
-0 -0 -0 -0 -0 -0 -203.8113470812168 0 0 0 0 0 0 0 1:0.0063943824 2:-0.0044227335 3:-0.0035067468 4:-0.37273177 5:-0.37995646 6:-0.25840883 7:0.1782905 8:0.35187857 9:0.16340417 10:-0.44897773 11:-0.26816497 12:-0.578187 
-0 -0 -0 -37.23328915185227 -0 -0 -0 0 0 0 0 0 0 0 1:0.0074206944 2:-0.013820013 3:-0.0079763428 4:-0.24772323 5:-0.36562435 6:-0.30270021 7:0.14938001 8:0.30621058 9:0.1479751 10:-0.60289676 11:-0.32816507 12:-0.54932469 
-47.65843143843929 -0 -0 -0 -0 -0 -6.761278952787892 6.292525720335792 0 0 0 3.851194197631963 0 6.400297042589673 1:-0.00081384516 2:-0.015599968 3:-0.016136412 4:-1 5:-1 6:-0.58610994 7:0.20877823 8:0.63262684 9:0.42337597 10:0.20877823 11:0.63262684 12:0.0094859101 
-0 -0 -1.811142786295264 -0 -0 -0 -0 2.722298684008476 8.381547585021764 0 12.82625546023197 0.05899628452228371 0 6.359750970240307 1:-0.010907656 2:-0.0035476591 3:-0.016253087 4:-1 5:-1 6:-0.61555169 7:0.22947133 8:0.75846237 9:0.43687447 10:0.22947133 11:0.75846237 12:0.05242616 
-0 -0 -0 -0 -0 -0 -0 0 0 15.61584385261941 0 0 11.42646465011973 0 1:-0.0055052213 2:-0.010799937 3:-0.017506753 4:-0.94156006 5:-1 6:-0.57976985 7:0.1896068 8:0.73766271 9:0.49343813 10:0.13116686 11:0.73766271 12:0.073207976 
-0 -0.320859935444226 -0.293426674560369 -0.4735004979864497 -0.3230391062663733 -0.3264665580420026 -0.001382293473580578 -0 7.571438126457415 136.6529960273694 14.38979938660416 4.899086218118536 7.82682677624326 25.00864780956048 1:0.0078783262 2:-0.11818017 3:-0.027052794 4:-1 5:-1 6:-1 7:1 8:0.49196209 9:1 10:1 11:0.49196209 12:1 
-0 -0 -0 -0 -0 -0 -0 -0 0 0 0 68.24653900125088 0 0 1:0.073199815 2:-0.053849625 3:0.0037712455 4:-0.62254185 5:-1 6:-0.41542474 7:1 8:0.50913666 9:0.30351343 10:0.62254185 11:0.50913666 12:-0.28106183 
-0 -0 -0 -0 -0 -0 -0 -0 65.15898083626888 79.13740465142394 0 0 12.75210638480677 20.31075223729476 1:0.026294895 2:-0.056615033 3:-0.024340745 4:-0.78535739 5:-1 6:-1 7:1 8:1 9:0.68661571 10:0.78535739 11:1 12:0.68661571 
-0 -0 -0 -0 -0 -0 -0 -0 1.97285870859757 0 71.35557535619783 103.6557297530147 85.65325908555469 613.131079023551 1:0.064086401 2:-0.045924349 3:-0.0048326717 4:-0.5167157 5:-1 6:-0.52969923 7:1 8:0.48006455 9:0.56535871 10:0.5167157 11:0.48006455 12:0.095057945 
-0 -0 -0 -0 -0 -0 -0 -0 1.082358426228067 26.82439831121386 0 0 31.84443082403329 0 1:0.079507809 2:-0.078378368 3:-0.023252436 4:-0.76825165 5:-1 6:-0.38799692 7:0.96517414 8:0.98209633 9:1 10:0.73342579 11:0.98209633 12:0.38799692 
-0 -0.2509957497490213 -0.5136388810141014 -8.846814677944272 -0.4016957604868937 -0.4173548019023376 -0.2553823368859658 -0 0 62.73307117591008 31.9278293978687 100.8758159130858 63.38980199573392 154.1392888159795 1:0.11241688 2:-0.027497342 3:-0.014322064 4:-0.28862303 5:-0.76121305 6:-0.42818139 7:1 8:0.5738402 9:0.23499972 10:0.28862303 11:0.33505325 12:-0.33681889 
-0 -0.04333861589596503 -0 -5.174239588381425 -0.10768125511165 -0.08843900913919417 -0 -0 0 0 7.651874461684281 42.14939735808943 0.04084132030540229 0 1:0.15718542 2:-0.18471098 3:0.013855279 4:-0.76202883 5:-1 6:-0.32883554 7:0.72037342 8:0.41679626 9:0.29020359 10:0.48240225 11:0.41679626 12:-0.38096088 
-0 -0 -0 -0 -0 -0 -0 -0 14.44554692844261 29.2256733161773 15.93756313682451 0 0 0 1:0.1040493 2:-0.0147206 3:-0.0069708983 4:-0.72360337 5:-1 6:-0.43575788 7:0.81895448 8:1 9:0.47106045 10:0.54255786 11:1 12:-0.093181668 
-0 -0 -0 -0 -0 -0 -0 -0 44.89199433294587 66.70150731158205 0 0 0 90.12782772487262 1:-0.019321923 2:-0.058305248 3:0.078483308 4:-1 5:-1 6:-0.68075745 7:0.6519938 8:0.77304431 9:1 10:0.6519938 11:0.77304431 12:0.68075745 
-0 -0 -0 -0 -0 -0 -0 -0 0 0 9.312426331728641 0 0 41.9699974649925 1:0.028673453 2:-0.092358839 3:-0.035885514 4:-0.51648626 5:-1 6:-1 7:0.61122045 8:0.51998644 9:0.5747452 10:0.12770671 11:0.51998644 12:0.5747452 
-0 -0 -0 -0 -0 -0 -0 -0 0 68.33079891198783 0 0 0 0 1:0.019515479 2:-0.13826352 3:-0.065011554 4:-1 5:-0.96150061 6:-1 7:0.76112638 8:0.78490106 9:0.96506452 10:0.76112638 11:0.74640168 12:0.96506452 
-0 -0 -0 -0 -0 -0 -0 -0 0 0 0 0 21.21598351203926 121.221079927293 1:0.064955975 2:-0.11066244 3:-0.014252066 4:-1 5:-1 6:-0.75898243 7:0.81086304 8:0.38790005 9:0.99431253 10:0.81086304 11:0.38790005 12:0.75329496 
-0 -0 -0 -1.998026229987405 -0 -0 -0 -2.620418394582732 0 0 0 37.62047461380615 21.40026424308521 9.770845260787263 1:0.055400161 2:-0.11199629 3:-0.033896342 4:-1 5:-1 6:-0.36003885 7:0.60804403 8:0.59621787 9:0.38035925 10:0.60804403 11:0.59621787 12:-0.2596019 
-0 -0 -0 -0 -0 -0 -0 -0 0 2.647652433495535 0 0 0 0 1:0.054327115 2:-0.12499629 3:-0.043365857 4:-1 5:-1 6:-0.79760163 7:0.66700402 8:0.55939337 9:0.41038479 10:0.66700402 11:0.55939337 12:0.20798642 
-0 -0 -0 -0 -0 -0 -0 -0 0 25.06520922282836 0 70.62257863888199 80.2349503416429 41.35621981733438 1:0.044957724 2:-0.081841548 3:0.014403635 4:-0.53887158 5:-1 6:-0.37221936 7:0.82201108 8:0.77698551 9:0.41495822 10:0.36088267 11:0.77698551 12:-0.21282242 
-0 -0 -0 -0 -0 -0 -0 -0 0 0 0 27.48630252635608 0 0 1:0.040086498 2:-0.07370706 3:0.0025392712 4:-0.57824283 5:-1 6:-0.23445774 7:1 8:0.57409768 9:0.38591415 10:0.57824283 11:0.57409768 12:-0.37962811 
-0 -0 -0 -0 -0 -0 -0 -0 2.166248070741588 7.979178390130223 0 16.49961782317999 39.7827632999288 0 1:0.035560958 2:-0.10788697 3:-0.022497374 4:-0.3352572 5:-1 6:-0.81275716 7:0.61286219 8:0.75611447 9:0.55972223 10:-0.051880612 11:0.75611447 12:0.37247939 
-0 -0 -0 -0 -0 -0 -0 -0 0 0 11.10801122157073 30.01342095921302 0 0 1:0.066127889 2:-0.076742407 3:-0.039537344 4:-0.3943421 5:-0.74521881 6:-0.75424074 7:0.97819592 8:0.498009 9:0.35545013 10:0.37253802 11:0.24322781 12:0.10969087 
-0 -0.1813548271933783 -0 -1.359782910080334 -0.06935539620750936 -0.08245119215840852 -0 -0 0 0 0 0 0 8.692974956514988 1:0.062638305 2:-0.066249995 3:0.017146702 4:-0.96210735 5:-1 6:-0.44221013 7:1 8:0.85072629 9:0.39461488 10:0.96210735 11:0.85072629 12:-0.16317499 
-0.383704209149249 -0 -0 -1.194337132920376 -0 -0 -0 -1.084770946788658 9.359616037160503 83.44269442935803 0.5157767494320443 4.474392128014352 4.950247879449287 41.32423353800287 1:-0.059193229 2:-0.023794189 3:0.048318497 4:-1 5:-0.70696925 6:-0.5905661 7:0.40869971 8:0.51373303 9:0.82662785 10:0.40869971 11:0.22070228 12:0.41719394 
-2.267847722752622 -0.1837168177467065 -0.8297465157016921 -0 -0.2278392950435451 -0.2070849645299387 -0.7433730663847551 -0 0 19.77542595638948 50.19878842117738 38.06209878571867 25.49741363445589 60.69716425295373 1:0.091159015 2:-0.043512259 3:0.097862223 4:-0.50242438 5:-0.75185971 6:-0.39816604 7:0.68048212 8:0.32929951 9:1 10:0.1829065 11:0.081159213 12:0.39816604 
-0 -0 -0 -0 -0 -0 -0 -0 0 0 0 0 0 494.3192872903511 1:0.098799374 2:-0.089809458 3:0.00080664354 4:-0.47453514 5:-1 6:-0.51653215 7:1 8:0.48297329 9:0.28377682 10:0.47453514 11:0.48297329 12:-0.19969103 
-0 -0 -0 -0 -0 -0 -0 -0 1.87491621684342 491.9805841305464 72.6427396234581 52.26261470602279 0 75.04442301212522 1:0.045710223 2:-0.063755764 3:-0.063886636 4:-0.76775708 5:-1 6:-1 7:0.91504744 8:0.61242371 9:0.35008387 10:0.68280453 11:0.61242371 12:0.35008387 
-3.502151645970131 -0 -0.1483563452620742 -4.223044742825872 -0 -0 -1.99747889697906 -6.14718209268002 0 0 50.96997840340679 69.72305310643738 0 0 1:0.0036212509 2:-0.17913186 3:-0.065277792 4:-0.81092167 5:-0.92371758 6:-0.46588794 7:0.51994055 8:0.44256194 9:0.33781923 10:0.33086222 11:0.36627951 12:-0.19629282 
-6.047548164783072 -0.2737333005780534 -0.6774394030283129 -0.1362907803800827 -0.3689836259332506 -0.3219722285016505 -0.7092896390486396 -3.316521973228725 7.479202762695084 31.1972565920413 1.304413227252515 9.836602365985877 1.073533384192658 6.893728742640549 1:0.091082464 2:-0.12222916 3:-0.060623429 4:-0.37644354 5:-0.66616531 6:-0.82480256 7:0.4116161 8:0.93078166 9:0.31581886 10:-0.21194037 11:0.59694697 12:0.14062142 
-0 -0 -0 -0 -0 -0 -0 -0 111.5810420661891 363.4633346421998 89.9551429414845 0 0 124.8964465299371 1:0.079129046 2:-0.09055689 3:-0.056810993 4:-1 5:-1 6:-1 7:0.69573708 8:1 9:0.45232317 10:0.69573708 11:1 12:0.45232317 
-0 -0.1529380148928631 -0.02902897680329801 -0 -0.1217219875046383 -0.1424347320359244 -0 -1.292479634452402 40.23172332313508 0 0 0 0 0 1:0.022465644 2:-0.064895423 3:-0.054750332 4:-1 5:-1 6:-1 7:0.52007056 8:1 9:0.82526653 10:0.52007056 11:1 12:0.82526653 
-0.9114853853115785 -0.2751989239561935 -0.4365006538081679 -0 -0.2928600334302277 -0.3122367107742455 -0.3737971279553364 -0 -6.632602564545477 18.87485500598159 16.2571803289704 2.367570214748526 15.46846574128844 3.022426556604409 1:0.039246881 2:0.028399861 3:0.072869469 4:-0.42304712 5:-0.86320762 6:-0.34670606 7:0.74248597 8:1 9:1 10:0.16553308 11:0.86320762 12:0.34670606 
-0 -0.03730319710599729 -0 -0 -0.03846079501908236 -0.03119197683084895 -0 -0 -2.378200529572521 0 0 0 6.236996082981825 0 1:0.086930188 2:0.040678037 3:-0.050502283 4:-0.42942799 5:-0.75175009 6:-1 7:1 8:1 9:0.75455941 10:0.42942799 11:0.75175009 12:0.75455941 
-0.3389026627768291 -0 -0 -0 -0 -0 -0 -1.559994803860518 -1.332303993190025 56.05555149447451 0 0 0 34.42217718045706 1:0.069206864 2:0.045394024 3:0.044492814 4:-0.8273442 5:-0.7786655 6:-0.47420883 7:0.37392229 8:1 9:1 10:0.20126649 11:0.7786655 12:0.47420883 
-0 -0 -0 -3.330292029341191 -0 -0 -0 -0 -10.61070691941152 0 74.72417759732107 4.246898661726759 20.01179649090614 111.7401959392206 1:0.037700073 2:0.024407763 3:0.052532369 4:-1 5:-1 6:-0.39360026 7:0.72562496 8:0.89608582 9:0.67657151 10:0.72562496 11:0.89608582 12:0.070171771 
-0 -0 -0 -0 -0 -0 -0 -0.686572431749937 -0 0 19.90998046640285 0 0 53.36432527430157 1:0.036343107 2:0.016114015 3:-0.069366396 4:-1 5:-0.74111955 6:-1 7:0.51103078 8:1 9:0.20493594 10:0.51103078 11:0.74111955 12:0.20493594 
-0 -0 -0 -0 -0 -0 -0 -3.822434461835298 -2.443957534927187 4.310764827364133 0 0 0 63.88203087068265 1:0.060191216 2:0.040693921 3:0.022328689 4:-1 5:-1 6:-0.38632204 7:0.56242703 8:1 9:0.60132665 10:0.56242703 11:1 12:-0.012351313 
-0 -0 -0 -0 -0 -0 -0 -0 -0 0 39.84058107738815 2.756988140379347 0 0 1:0.091036656 2:0.00097229538 3:-0.069587402 4:-0.81343017 5:-0.57586689 6:-1 7:0.7139849 8:0.9935452 9:0.26298226 10:0.52741507 11:0.56941208 12:0.26298226 
-0.1177492671321404 -0.02775186227022409 -0.04982854423076634 -0.4374878984005175 -0.01341092514186915 -0.01837199846412586 -0.1736716184858548 -0.06933289837561393 -32.72248611755117 82.68969710889186 0 5.43486851363259 66.1119323826609 180.5128851088635 1:0.047904708 2:0.03498409 3:0.041261881 4:-1 5:-1 6:-0.62422948 7:0.68824471 8:0.55165882 9:1 10:0.68824471 11:0.55165882 12:0.62422948 
-2.350110539859199 -0 -0.3042203850069513 -0.1715210835699361 -0 -0 -0.3513702968180384 -2.829246702831113 -2.15123931176923 14.75713000769263 28.32248147314406 0.5682361953792394 0 0 1:0.10306401 2:-0.019831551 3:-0.074848158 4:-0.79117487 5:-0.50796908 6:-0.85623276 7:0.4718023 8:0.92374052 9:0.29747416 10:0.26297716 11:0.43170961 12:0.15370692 
-0 -0 -0 -1.104423831771 -0 -0 -0 -0 -0 14.56173474266826 8.670845205025072 0 0 174.8762007268433 1:0.029461594 2:0.03927442 3:0.0079123879 4:-1 5:-0.64535545 6:-0.26947021 7:0.57907899 8:1 9:0.99768779 10:0.57907899 11:0.64535545 12:0.267158 
-0 -0 -0 -0 -0 -0 -0 -0 -20.8527364242423 0 0 0 0 0 1:0.09536838 2:-0.0026913789 3:-0.066264162 4:-0.76043807 5:-0.93139094 6:-0.84878118 7:0.71990945 8:1 9:0.58292332 10:0.48034752 11:0.93139094 12:0.43170451 
-0 -0 -0 -0 -0 -0 -0 -0 -23.29544187962407 0 0 0 0 0 1:0.085250957 2:0.007893625 3:-0.069849247 4:-0.71530798 5:-1 6:-1 7:0.70453213 8:1 9:0.57201236 10:0.41984011 11:1 12:0.57201236 
-0 -0 -0 -0 -0 -0 -0 -0 -0 2.158702497106724 0 0 0 0 1:0.082136607 2:-0.0022326132 3:-0.09440495 4:-0.91367592 5:-0.85633473 6:-1 7:0.66829906 8:1 9:0.40919427 10:0.58197499 11:0.85633473 12:0.40919427 
-0 -0 -0 -0 -0 -0 -0 -0 -11.03158313356767 31.69421633660019 99.4434523031001 3.358341659404352 14.10419803603908 14.10998463456166 1:0.062073037 2:0.010533017 3:-0.067888988 4:-0.60868645 5:-0.89090821 6:-1 7:0.74758965 8:0.96028205 9:0.35820081 10:0.3562761 11:0.85119026 12:0.35820081 
-0 -0 -0 -0.4406368900153089 -0 -0 -0 -0 -0 0 0 0 0 0 1:0.061713683 2:0.040231721 3:-0.10813124 4:-1 5:-0.68417604 6:-1 7:1 8:1 9:0.41119292 10:1 11:0.68417604 12:0.41119292 
-0 -0.07550930750889136 -0 -0 -0.002146388347920916 -0.04753129900190842 -0 -0.3439378406521009 -0 131.5173656441865 353.4704854681842 0 0 215.0037469777197 1:0.063618637 2:0.037450368 3:-0.064623417 4:-1 5:-1 6:-1 7:0.60700137 8:1 9:0.31595652 10:0.60700137 11:1 12:0.31595652 
-0 -0 -0 -0 -0 -0 -0 -0 -26.17988647629842 194.2368173244935 188.1345583731648 0 0.7743313696438127 50.32096568350021 1:0.067990186 2:0.012917188 3:-0.076781433 4:-1 5:-1 6:-1 7:0.98717962 8:0.88959787 9:0.49437881 10:0.98717962 11:0.88959787 12:0.49437881 
-0 -0 -0 -0 -0 -0 -0 -0 -132.5089793571312 0 0 0 0 48.34126006919146 1:0.049655857 2:0.00024535978 3:-0.037760106 4:-1 5:-1 6:-1 7:0.65822427 8:1 9:0.58279076 10:0.65822427 11:1 12:0.58279076 
-0 -0 -0 -0 -0 -0 -0 -0 -0 177.5582700825939 0 0 0 0 1:0.072930173 2:-0.0036832217 3:-0.057043745 4:-0.95534153 5:-0.62442832 6:-1 7:0.90992082 8:1 9:0.46554379 10:0.86526235 11:0.62442832 12:0.46554379 
-0 -0 -0 -0.7665187792489163 -0 -0 -0 -0 -0 0 0 0.197430781988955 4.013438232188662 0 1:0.029770228 2:0.037503767 3:0.022734098 4:-1 5:-0.72321078 6:-0.45393942 7:1 8:1 9:1 10:1 11:0.72321078 12:0.45393942 
-0 -0.4130067679536936 -0.4834391405720221 -0 -0.4403918325508908 -0.4357670122778852 -0.293507627165967 -0 -32.47250796509351 77.5296207309687 0 0 0 45.41000749278464 1:0.0090252058 2:-0.022964476 3:0.041129224 4:-1 5:-1 6:-1 7:1 8:1 9:1 10:1 11:1 12:1 
-1.051289904472593 -0.5570654244905787 -0.7412529671721405 -5.453566955662396 -0.8173959403905322 -0.6760525569593766 -1.392823330416867 -0.8719846402994244 -3.203293628780957 5.037605132170007 13.05570992531584 3.058404020328198 0.5221195696328809 31.71385401343117 1:0.043588167 2:0.046011909 3:-0.046101418 4:-1 5:-0.23396573 6:-0.37046545 7:0.46123294 8:1 9:0.1552523 10:0.46123294 11:0.23396573 12:-0.47428225 
-0 -0 -0 -0 -0 -0 -0 -0 -52.840503675251 -0 78.53141374951089 219.9473006752128 149.2750461425935 0 1:0.10401696 2:-0.0076572495 3:0.0097343593 4:-0.39962933 5:-0.7903234 6:-0.30254215 7:1 8:0.65987621 9:0.57052612 10:0.39962933 11:0.45019961 12:-0.12693172 
-0 -0 -0 -0 -0 -0 -0 -0 -0 -0 34.54107470693915 0 50.76791363325445 0 1:0.070811952 2:-0.11887916 3:0.068082157 4:-0.56911127 5:-1 6:-0.18569797 7:0.64395589 8:0.70634722 9:0.89992505 10:0.21306715 11:0.70634722 12:0.085623021 
-0 -0.2053493403291165 -0.5392531204841135 -0 -0 -0.08238361592427614 -0 -0 -0 -0 196.5934633741665 41.86042811698823 0 49.94624192084353 1:0.080026687 2:-0.016181544 3:0.038180582 4:-0.37856455 5:-0.60445973 6:-0.24192538 7:1 8:0.31661679 9:0.87111807 10:0.37856455 11:-0.078923486 12:0.11304345 
-0 -0 -0 -0 -0 -0 -0 -0 -0 -24.64013228088351 0 0 0 0 1:0.06981168 2:-0.018861168 3:0.019335313 4:-1 5:-1 6:-1 7:1 8:0.47824435 9:0.85946526 10:1 11:0.47824435 12:0.85946526 
-0 -0.09902096260164756 -0 -0 -0.03755457333294842 -0.06656049016434322 -0 -0 -26.93047725683697 -0 0 14.69998575368615 37.57916970288343 1.674511413915774 1:0.070070859 2:-0.0088096615 3:0.0073338456 4:-1 5:-1 6:-1 7:1 8:0.35821356 9:0.7711043 10:1 11:0.35821356 12:0.7711043 
-0 -0.310258476145709 -0.1096397184356562 -2.907671130077614 -0.3382608244564769 -0.3323218800323314 -0 -6.508316081720007 -0 -9.629642664417444 0 20.83910524140785 77.5410772389541 8.81515414044449 1:0.02895407 2:-0.0274622 3:-0.0087035108 4:-0.55955398 5:-0.90735368 6:-0.37531165 7:0.35684714 8:1 9:0.51571893 10:-0.083598884 11:0.90735368 12:-0.10896942 
-0 -0.087287619707398 -0.1611144887414532 -6.432796670175972 -0.01756057643445026 -0.1708653041063714 -0.4892515369518291 -0 -26.8051130642301 -0 113.73630528512 40.42825483249177 180.2582705971699 74.59979973945362 1:0.085664565 2:-0.0049338982 3:0.026822188 4:-0.36232302 5:-1 6:-0.23283129 7:0.92108161 8:0.36260344 9:0.48320018 10:0.28340463 11:0.36260344 12:-0.28396853 
-0 -0 -0 -0 -0 -0 -0 -0 -223.198123491355 -0 49.68374880609211 109.1644036556562 42.46775551817318 1.432632074356692 1:0.09359895 2:-0.035320758 3:-0.051973197 4:-0.53451739 5:-1 6:-1 7:0.93177334 8:0.68189443 9:0.22607644 10:0.46629073 11:0.68189443 12:0.22607644 
-0 -0.008427906939298256 -0 -0 -0 -0 -0 -1.323322585791657 -76.1885021190627 -14.31771000013493 0 0 8.264204684421523 172.8228853053725 1:0.0071007625 2:-0.11841013 3:0.074777008 4:-1 5:-1 6:-0.44451724 7:0.47475183 8:1 9:1 10:0.47475183 11:1 12:0.44451724 
-0 -0 -0 -0 -0 -0 -0 -0 -59.19823591198899 -60.9894683398877 0.1683281111427168 0 27.6843971229465 260.1124459873427 1:0.028527765 2:0.022905448 3:0.031071478 4:-1 5:-1 6:-0.70947775 7:0.54009014 8:0.51606563 9:0.89324336 10:0.54009014 11:0.51606563 12:0.60272111 
-0 -0 -0 -0 -0 -0 -0 -0 -329.4396809317424 -0 0 0 12.4219328380981 133.745323796038 1:0.093609232 2:-0.15130654 3:-0.021669491 4:-0.8778176 5:-1 6:-1 7:0.94079783 8:0.89366399 9:0.45678188 10:0.81861543 11:0.89366399 12:0.45678188 
-0 -0 -0 -0 -0 -0 -0 -0 -34.80452619915523 -0 0 7.723438446799825 0 26.61402094527562 1:0.075925972 2:-0.046263729 3:-0.0212394 4:-0.71340876 5:-0.60035027 6:-1 7:1 8:0.57410533 9:0.93868191 10:0.71340876 11:0.1744556 12:0.93868191 
-1.096701718083832 -0 -0 -1.678496671586553 -0.4557579339459731 -0.2041675635187987 -0.6930823572885432 -0 -12.7767846770798 -0 13.4964181995044 89.68717479287956 37.83286065075855 121.1537072019761 1:0.11948142 2:0.019107142 3:0.041035316 4:-0.48626442 5:-0.57287912 6:-0.25784289 7:0.94931246 8:0.4175483 9:0.57844932 10:0.43557688 11:-0.0095725859 12:-0.16370779 
-0 -0 -0 -0 -0 -0 -0 -0 -0 -53.48008490906451 25.10405624627906 0 0 0 1:0.049324724 2:-0.07480413 3:-0.080271532 4:-1 5:-0.77405383 6:-1 7:0.77030892 8:1 9:0.38056064 10:0.77030892 11:0.77405383 12:0.38056064 
-0 -0 -0 -0 -0 -0 -0 -0 -0 -0 61.6434362368187 0.6223194042124869 0 0 1:0.047916491 2:0.045880948 3:-0.059192913 4:-0.75388639 5:-0.38007373 6:-1 7:0.85373191 8:0.66156129 9:0.12428378 10:0.6076183 11:0.041635013 12:0.12428378 
-0 -0 -0 -0 -0 -0 -0 -0 -17.49723453009478 -98.51690582130422 1.712806113928624 7.91329839715134 0 33.38966724700366 1:0.0057769694 2:0.00098219287 3:0.068447479 4:-0.79383378 5:-0.70587815 6:-0.44192206 7:0.53067051 8:0.9303075 9:1 10:0.32450429 11:0.63618565 12:0.44192206 
-0 -0.3671627674881949 -0.3853095095467495 -0.3962767289785004 -0.3905327200625642 -0.3883936936833337 -0.2043048450288871 -0 -89.35243133916421 -51.54908610672661 0 0 0 163.8505726951358 1:0.030534978 2:-0.068818022 3:-0.080442466 4:-1 5:-1 6:-1 7:0.96578087 8:0.9931577 9:1 10:0.96578087 11:0.9931577 12:1 
-0 -0 -0 -0 -0 -0 -0 -0 -288.7941864428161 -0 111.0867158668704 0 0 0 1:-0.034839619 2:-0.066171571 3:-0.094291184 4:-1 5:-1 6:-1 7:0.79522569 8:0.56234035 9:0.69928314 10:0.79522569 11:0.56234035 12:0.69928314 
-16.49639189210279 -0 -0.6403290474404904 -1.375086938496603 -0 -0 -2.024097039953312 -7.605944461965849 -35.22339296584006 -0 91.24577912476637 6.555437342310683 43.0040294351016 0 1:0.056359934 2:0.0086203259 3:0.052447332 4:-0.63283588 5:-0.71671774 6:-0.53124665 7:0.38497601 8:0.65949126 9:0.54648631 10:0.017811893 11:0.376209 12:0.077732967 
-0 -0 -0 -0 -0 -0 -0 -0 -0 -197.5411136451847 0 0 0 0 1:0.065928969 2:-0.061311806 3:-0.065232617 4:-1 5:-0.86668995 6:-1 7:1 8:1 9:0.62215435 10:1 11:0.86668995 12:0.62215435 
-0 -0 -0 -0 -0 -0 -0 -0 -0 -0 0 19.37938020201103 6.816917159734045 0 1:0.023647234 2:-0.088264435 3:-0.043732819 4:-0.91762987 5:-0.5876803 6:-1 7:1 8:0.59703874 9:0.53831584 10:0.91762987 11:0.18471904 12:0.53831584 
-0 -0 -0 -0 -0 -0 -0 -0.1273106223627136 -181.6397486661971 -134.8930867439931 377.8956527997406 0 0 1095.730629676408 1:0.088769186 2:-0.019158478 3:-0.056241941 4:-1 5:-1 6:-1 7:0.6387018 8:0.95384 9:0.26281401 10:0.6387018 11:0.95384 12:0.26281401 
-0 -0 -0 -2.668615021817173 -0 -0 -0 -0 -25.80186835588516 -0 107.0815627284725 10.11397076261138 6.412200865967402 55.87938107264037 1:0.10342933 2:0.0023966638 3:-0.062007685 4:-1 5:-0.67537589 6:-0.89355947 7:0.60424559 8:0.53513177 9:0.25440721 10:0.60424559 11:0.21050767 12:0.14796669 
-0 -0 -0 -0 -0 -0 -0 -0 -0 -37.51532874125885 26.36200426374073 0 0 0 1:0.10510244 2:-0.020314303 3:-0.079800769 4:-0.91185828 5:-0.64696915 6:-1 7:1 8:0.82382873 9:0.52205646 10:0.91185828 11:0.47079788 12:0.52205646 
-0 -0 -0 -0 -0 -0 -0 -0 -0 -0 0 0 0 430.2699649274202 1:0.045945327 2:-0.10509957 3:-0.076474787 4:-1 5:-1 6:-1 7:1 8:0.89425798 9:0.66363896 10:1 11:0.89425798 12:0.66363896 
-0 -0 -0 -0 -0 -0 -0 -0 -0 -93.38379389229336 124.9378668275346 0 0 365.6843191424758 1:0.070969877 2:0.0089644886 3:-0.095654972 4:-0.85101436 5:-1 6:-1 7:0.92639943 8:0.99266059 9:0.34143668 10:0.7774138 11:0.99266059 12:0.34143668 
-0 -0 -0 -0 -0 -0 -0 -4.460946089528869 -9.934661681177452 -0 0 0 0 0 1:0.061989223 2:-0.049632724 3:-0.075913558 4:-0.98141057 5:-0.93830972 6:-1 7:0.43618871 8:0.65213911 9:0.43589299 10:0.41759928 11:0.59044883 12:0.43589299 
-1.831569108442928 -0 -0.2433541801873203 -0 -0.1962305939209824 -0.02096642964042231 -0.1831087732726536 -0 -4.731714194775479 -0 11.32838723974524 0 0 0 1:0.076719028 2:-0.034112279 3:-0.065138326 4:-0.42889264 5:-0.35854497 6:-1 7:0.62677622 8:0.69739412 9:0.23879281 10:0.055668857 11:0.055939082 12:0.23879281 
-0 -0.05569778815934996 -0 -0.8565653604336806 -0 -0 -0 -0 -0 -34.52597779004371 3.083072895317361 0 0 0 1:0.13688314 2:0.021969738 3:-0.070453811 4:-0.84685647 5:-0.3454926 6:-1 7:0.97130264 8:0.87837845 9:0.22870756 10:0.81815911 11:0.22387105 12:0.22870756 
-0 -0.3225531411496767 -0.6213600215319266 -0 -0.2739410653735679 -0.3871504982272261 -0.273847286760863 -0 -0 -0 3.761408077787945 33.07229633346262 10.80412091640178 39.57223478032739 1:0.083616775 2:-0.033982093 3:-0.065024072 4:-0.1263742 5:-0.40659654 6:-1 7:0.96689236 8:0.5581952 9:0.18966339 10:0.093266559 11:-0.035208252 12:0.18966339 
-0 -0 -0 -0 -0 -0 -0 -0 -0 -0 -0 0 0 28.98560585344129 1:0.086562859 2:-0.0019319657 3:0.018801738 4:-0.1681433 5:-0.90753468 6:-0.35142225 7:0.66973176 8:0.39784228 9:0.77330944 10:-0.16212494 11:0.30537696 12:0.12473169 
-0 -0 -0 -0 -0 -0 -0 -0 -8.128652726873604 -0 -0 14.90100517160005 2.879737093238198 74.43796985604332 1:0.065340678 2:0.015969167 3:0.038821164 4:-0.18434838 5:-0.40793492 6:-0.29246481 7:0.95195352 8:0.23015607 9:0.8160432 10:0.1363019 11:-0.36190901 12:0.108508 
-0 -0 -0 -0 -0 -0 -0 -0 -0 -0 -149.6990538182402 39.09732935152282 0 0 1:0.096820591 2:0.0038049152 3:0.018293501 4:-0.24004094 5:-0.56577934 6:-0.21218255 7:1 8:0.2539774 9:0.82142985 10:0.24004094 11:-0.18024325 12:0.033612396 
-0 -0 -0 -0 -0 -0 -0 -0 -0 -0 -0 131.5876051714721 0 37.96558300275039 1:0.070150151 2:-0.019324739 3:-0.040340761 4:-0.61555934 5:-1 6:-1 7:0.93167137 8:0.39282528 9:0.41381359 10:0.54723071 11:0.39282528 12:0.41381359 
-6.047103079298887 -0 -0 -4.436247545995676 -0.06648855616369677 -0 -5.452220893629646 -1.79717088845642 -1.463468048912964 -0 -14.52764370434615 28.11849046157779 5.701021104592594 26.11785760176006 1:0.045980245 2:0.045140244 3:0.016935763 4:-1 5:-0.42643512 6:-0.2375276 7:0.33968532 8:0.42955036 9:0.39984092 10:0.33968532 11:-0.14401452 12:-0.36263148 
-2.045490363806146 -0.2799120627152124 -0.7609242521544354 -5.142156121896612 -0.2008147793093117 -0.4493226879572174 -0.4854040518885171 -0.1733884607860314 -0 -0 -0 4.442514283342553 0 5.473122189671367 1:0.076052784 2:0.015225117 3:-0.0743422 4:-0.13520519 5:-0.94095333 6:-0.9903076 7:0.34867666 8:0.33518072 9:0.13563959 10:-0.51611814 11:0.27613405 12:0.12594719 
-0 -0.1785842122360532 -0 -0.3381342976746654 -0.3483342389517671 -0.300275764987317 -0 -0 -118.6605556007448 -505.7887299139094 -465.7514456803121 0 0 315.9612570226609 1:0.034949491 2:0.0037966792 3:-0.057860615 4:-1 5:-1 6:-1 7:0.75067684 8:0.93971438 9:0.37012894 10:0.75067684 11:0.93971438 12:0.37012894 
-0 -0 -0 -3.896688270435434 -0 -0 -0 -0 -118.1803725889924 -0 -109.6836931022497 612.8621890674741 103.5660275895915 1170.726549165651 1:0.085532722 2:-0.074609708 3:0.0035673602 4:-0.58186792 5:-1 6:-0.57173958 7:0.77090291 8:0.37666023 9:0.32165163 10:0.35277082 11:0.37666023 12:-0.10660878 
-0 -0.1314799766061759 -0 -0 -0 -0 -0 -0 -55.52446080757399 -0 -60.89074179740884 28.81371650010823 76.15079883739587 107.298929713649 1:0.065020484 2:-0.098228894 3:-0.018904436 4:-0.67204652 5:-1 6:-1 7:1 8:0.30061489 9:0.69885231 10:0.67204652 11:0.30061489 12:0.69885231 
-0 -0.02038523203552323 -0 -0 -0.01330730054238417 -0 -0 -0 -24.22158210158754 -102.5872534613002 -0 29.48419854367329 53.81610434263351 19.37596893953258 1:0.038850083 2:0.09019955 3:0.026867892 4:-0.72460269 5:-1 6:-0.75228034 7:0.9335298 8:1 9:0.60607853 10:0.65813249 11:1 12:0.35835887 
-0 -0 -0 -0 -0 -0 -0 -0 -0 -30.79441008038705 -10.70184391586623 0 0 0 1:0.055776513 2:0.049111705 3:-0.060372301 4:-0.93732569 5:-0.6063768 6:-0.90692285 7:0.41442032 8:0.88985535 9:0.12989782 10:0.35174601 11:0.49623215 12:0.036820678 
-0.2102708152788012 -0.09261479348724601 -0 -4.34544485201415 -0 -0 -0 -3.203650733981456 -0 -48.29917011098517 -0 16.69998362875088 22.67827380518416 50.31332730840305 1:0.021321259 2:0.029897756 3:0.084813035 4:-1 5:-0.61062136 6:-0.12617968 7:0.47641651 8:1 9:0.85583252 10:0.47641651 11:0.61062136 12:-0.017987794 
-3.984839093158699 -0 -3.812582193575377 -0 -0 -0 -1.282328823957535 -1.451779640047898 -0 -0 -0 0 0 71.38057823031389 1:0.080000295 2:0.058404707 3:0.071430914 4:-0.18023561 5:-0.56299297 6:-0.2580086 7:0.48159667 8:0.29769085 9:0.8142332 10:-0.33816772 11:-0.13931618 12:0.072241795 
-0.7367209782279708 -0 -0 -0 -0 -0 -0 -0.2343208911952889 -26.64418215695923 -0 -30.13752641856914 0 12.0762457219329 106.1634700801062 1:0.012811836 2:-0.021238078 3:0.090433578 4:-0.62161136 5:-1 6:-0.32568971 7:0.51754677 8:0.41764262 9:1 10:0.13915812 11:0.41764262 12:0.32568971 
-0 -0 -0 -0 -0 -0 -0 -0 -0 -6.454115688542967 -5.408819756047333 1.586683303546219 33.73744591324173 0 1:0.075665766 2:0.045025632 3:0.096190275 4:-0.40815671 5:-1 6:-0.2363511 7:0.78131931 8:0.73426705 9:1 10:0.18947602 11:0.73426705 12:0.2363511 
-0 -0 -0 -0 -0 -0 -0 -0 -0 -0 -0 3.509008918164156 0 18.28948238054584 1:0.056269908 2:0.040367512 3:-0.072119614 4:-0.78106183 5:-0.81991557 6:-0.7922991 7:0.47870068 8:0.45674109 9:0.086469131 10:0.25976251 11:0.27665666 12:-0.12123177 
-1.616695808668943 -0 -0 -0 -0 -0 -0 -0 -0 -0 -13.61665891338411 0 0 0 1:0.046466042 2:0.030687121 3:-0.062592747 4:-0.46511551 5:-0.58405266 6:-1 7:0.36980008 8:0.35154716 9:0.20079104 10:-0.16508441 11:-0.064400177 12:0.20079104 
-3.977606952584404 -0 -3.053126536677032 -4.849088747102718 -0.5285810166583265 -0.004568026413434757 -3.591278262974304 -2.955921692456245 -0 -0 -0 0 0 0 1:0.036525835 2:0.025532269 3:-0.061935139 4:-0.42413311 5:-0.46770049 6:-0.61275512 7:0.47498381 8:0.33686325 9:0.19238731 10:-0.10088307 11:-0.19543626 12:-0.19485757 
-4.468675325904664 -0 -0 -4.601119562752833 -0 -0 -0 -2.803634882687764 -0 -0 -11.1996272595273 44.6359819818363 115.8636652853579 239.2687879155507 1:0.074756865 2:0.030055845 3:0.017546746 4:-0.3947194 5:-0.90194409 6:-0.35230685 7:0.5772384 8:0.4888494 9:0.49863613 10:-0.028042196 11:0.39079349 12:-0.14905702 
-0 -0.7570298372285937 -0.5849787630181634 -5.358241295587057 -1.416669683046248 -1.619315616757362 -6.73565974967821 -0 -0 -0 -0 0 4.108062665804299 0 1:0.016880517 2:0.0038209073 3:0.076567586 4:-0.29424676 5:-0.45805397 6:-0.11314746 7:0.62510643 8:0.26998261 9:0.53554731 10:-0.080646806 11:-0.27196341 12:-0.35130524 
-0 -0 -0 -0 -0 -0 -0 -0 -54.89659095783073 -0 -226.0331109944945 146.6339328579183 220.0874076893324 58.63790196030771 1:0.069388576 2:0.0038061998 3:0.025180641 4:-0.48739886 5:-0.77257524 6:-0.24986718 7:0.88505759 8:0.60701667 9:0.67700999 10:0.37245645 11:0.37959191 12:-0.07312283 
-0 -0.05339590878768536 -0 -0.2067783102798271 -0 -0 -0 -0 -0 -60.54682059904665 -115.0784363255711 14.61175245762308 0 51.85649743118595 1:0.071126611 2:0.062296568 3:-0.06438444 4:-0.83596335 5:-1 6:-1 7:0.50048182 8:0.96236737 9:0.088208512 10:0.33644517 11:0.96236737 12:0.088208512 
-0 -0 -0 -0 -0 -0 -0 -0 -6.973711184689703 -0 -58.42691495608091 78.52116920763903 0 64.71817827304709 1:0.04906236 2:0.055687627 3:-0.072908004 4:-0.75607114 5:-0.6821774 6:-1 7:0.98378141 8:0.69584925 9:0.2371503 10:0.73985255 11:0.37802665 12:0.2371503 
-0 -0 -0 -0 -0 -0 -0 -0 -0 -0 -65.77353651662614 0 10.34137619739321 0 1:0.063549521 2:0.028138009 3:-0.092437356 4:-1 5:-0.8253532 6:-1 7:0.6836203 8:0.5682547 9:0.35567192 10:0.6836203 11:0.39360791 12:0.35567192 
-0 -0 -0 -0 -0 -0 -0 -0 -0 -0 -0 0 0 39.79087300493664 1:0.051921301 2:0.017641162 3:-0.087550091 4:-0.44781092 5:-0.70925341 6:-1 7:0.45993025 8:0.32023678 9:0.20356391 10:-0.092258824 11:0.029490193 12:0.20356391 
-0 -0 -0 -0 -0 -0 -0 -0 -0 -0 -0 0 41.63563918092675 0 1:0.070261916 2:0.043915164 3:-0.068012804 4:-0.29048656 5:-0.61237273 6:-1 7:0.63754697 8:0.3052291 9:0.13035032 10:-0.071966472 11:-0.082398169 12:0.13035032 
-1.321270236581668 -0 -0 -0 -0 -0 -0 -8.39074732469161 -3.406183144758792 -39.15227115006664 -0 0 0 64.2977524597087 1:0.052247465 2:0.038848543 3:-0.080456955 4:-0.83332738 5:-0.98313644 6:-1 7:0.36316938 8:0.81969888 9:0.20643645 10:0.19649676 11:0.80283532 12:0.20643645 
-0 -0 -0 -0 -0 -0 -0 -0 -0 -0 -80.05818463681216 0 0 8.835205366086679 1:0.07935634 2:0.065067112 3:-0.073775847 4:-1 5:-0.28938781 6:-1 7:0.64018804 8:0.79152412 9:0.25921441 10:0.64018804 11:0.080911932 12:0.25921441 
-0 -0 -0 -0 -0 -0 -0 -0 -9.170159339766341 -31.08723931983663 -15.00626285794203 0 8.805169833536944 2.882138269435843 1:0.037213452 2:0.048867566 3:-0.082438418 4:-0.3830258 5:-0.30419664 6:-1 7:0.75091647 8:1 9:0.42459963 10:0.13394227 11:0.30419664 12:0.42459963 
-0 -0.1372837969163628 -0 -1.728067594525558 -0.01984075067871901 -0.05471044562081124 -0 -0 -0 -17.11944189394188 -0 0 0 18.53858530489378 1:0.03862778 2:0.052215742 3:-0.073762429 4:-0.85975078 5:-0.33794925 6:-1 7:1 8:1 9:0.31903606 10:0.85975078 11:0.33794925 12:0.31903606 
-0 -0 -0 -0 -0 -0 -0 -0 -0 -0 -0 -0 113.4853828192478 0 1:0.075344274 2:-0.03715044 3:0.007941738 4:-0.25944895 5:-0.55956927 6:-0.2605171 7:1 8:0.24861421 9:0.23522967 10:0.25944895 11:-0.19181652 12:-0.50425324 
-0 -0 -0 -0 -0 -0 -0 -0 -0 -0 -0 -0 0 0.003870258053963003 1:0.11085902 2:0.0049672433 3:0.035715212 4:-0.093316015 5:-0.19416238 6:-0.14453916 7:1 8:0.50155252 9:0.38346173 10:0.093316015 11:-0.3042851 12:-0.4719991 
-0 -0 -0 -0 -0 -0 -0 -0 -8.131252869468236 -0 -0 -0 49.45075048905371 0 1:0.093080186 2:-0.039386399 3:0.010649547 4:-0.18586852 5:-0.67798382 6:-0.4392657 7:1 8:0.28712659 9:0.14638434 10:0.18586852 11:-0.03488959 12:-0.41434996 
-0.579070839697309 -0 -0 -1.429650426493366 -0 -0 -0 -0 -0 -0 -0 -188.604626767263 0 377.9397247749549 1:0.044036691 2:-0.0059088705 3:-0.0077267473 4:-0.45575961 5:-1 6:-0.60125017 7:0.76637792 8:0.24529732 9:0.240975 10:0.22213753 11:0.24529732 12:-0.15777483 
-0.0224278293398596 -0 -0 -0 -0 -0 -0 -0 -0 -0 -0 -0 0 0 1:0.064563686 2:-0.02143076 3:0.0050150078 4:-0.18194185 5:-0.66089082 6:-0.49073333 7:0.93899293 8:0.35970489 9:0.21818078 10:0.12093477 11:0.020595718 12:-0.2910859 
-1.491218240191617 -0.8937436594751942 -2.877669585313723 -9.348203550439751 -1.770775330671819 -1.620958240403278 -1.854827262042791 -1.561295880731114 -0 -0.04747297009008514 -0 -0 0 0 1:0.081894011 2:-0.022740088 3:0.007685843 4:-0.15443984 5:-0.35131518 6:-0.19812474 7:0.88718115 8:0.26172036 9:0.2319811 10:0.041620992 11:-0.38696446 12:-0.56989415 
-0 -0 -0 -2.065980078056358 -0 -0 -0 -0 -0 -0 -0 -0 0 0 1:0.040154691 2:-0.00035207566 3:-0.01127686 4:-0.83181566 5:-1 6:-0.27283527 7:1 8:0.3190692 9:0.19528101 10:0.83181566 11:0.3190692 12:-0.53188372 
-0 -0 -0 -3.368783815550994 -0 -0 -0 -0 -126.6317332633403 -0 -0 -0 88.41768196714882 231.0650710778246 1:0.058014861 2:-0.011312213 3:-0.0026977532 4:-0.61334656 5:-1 6:-0.31803674 7:1 8:0.47161365 9:0.19056584 10:0.61334656 11:0.47161365 12:-0.49139742 
-0 -0 -0 -0 -0 -0 -0 -0 -0 -0 -0 -294.1436083770563 0 902.1440991244781 1:0.050352223 2:-0.006399958 3:-0.003863881 4:-0.73469788 5:-1 6:-0.58651782 7:0.72483723 8:0.42858927 9:0.34753203 10:0.45953511 11:0.42858927 12:-0.065950146 
-0 -0 -0 -0 -0 -0 -0 -0 -0 -0 -9.236586574494933 -0 0.7749942057082891 0 1:0.018832481 2:0.052381149 3:0.019181114 4:-0.63467647 5:-0.73614333 6:-0.35849653 7:1 8:0.36978479 9:0.308844 10:0.63467647 11:0.10592812 12:-0.33265947 
-0 -0 -0 -2.535821653935905 -0 -0 -0 -0 -0 -0 -3.365958884335316 -0 38.26376549808673 0 1:0.020592427 2:0.013084029 3:0.045473449 4:-1 5:-1 6:-0.23925602 7:1 8:0.51601464 9:0.5397154 10:1 11:0.51601464 12:-0.22102859 
-0 -0 -0 -0 -0 -0 -0 -0 -0 -0 -0 -18.17986165374478 0 72.35831234956197 1:0.069697974 2:-0.059513396 3:-0.093275225 4:-0.56856317 5:-0.77058425 6:-0.86158117 7:1 8:0.27304686 9:0.11508211 10:0.56856317 11:0.043631107 12:-0.023336715 
-0.1972357543074498 -0 -0 -1.349764164672632 -0 -0 -2.570518960621072 -0 -0 -0 -19.54825038271707 -40.65005296794922 10.88240649268587 100.1333019918528 1:0.080514679 2:-0.013345754 3:-0.0012246307 4:-0.53156277 5:-0.54595351 6:-0.15290619 7:0.77275369 8:0.25723361 9:0.42827826 10:0.30431646 11:-0.19681288 12:-0.41881555 
-0 -0.3171625382009898 -0.2979763391423992 -0 -0.2962114734614565 -0.2941205981816643 -0 -0 -8.714777015588551 -1.974939251810194 -3.729257780695772 -0 184.8427086702121 54.13641551315771 1:0.075895019 2:0.0012243044 3:0.03513135 4:-0.89196362 5:-1 6:-0.48066618 7:1 8:0.38182764 9:0.97259258 10:0.89196362 11:0.38182764 12:0.45325876 
-0 -0 -0 -0 -0 -0 -0 -0 -26.52745585229802 -0 -13.93049921081176 -80.48529294228449 44.20717646267915 245.6355417837992 1:0.077581335 2:-0.019700145 3:-0.011298659 4:-0.2752418 5:-1 6:-0.57452596 7:1 8:0.33353898 9:0.69024336 10:0.2752418 11:0.33353898 12:0.26476931 
-0 -0 -0 -0 -0 -0 -0 -0 -0 -0 -15.76915939993184 -0 0 0 1:0.060513221 2:-0.0047888334 3:0.0044959327 4:-0.72458995 5:-1 6:-0.3552003 7:1 8:0.23778762 9:0.3952675 10:0.72458995 11:0.23778762 12:-0.24953221 
-0 -0 -0 -1.513519131052067 -0 -0 -0 -0 -0 -0 -0 -0 193.0608712071947 219.4344993109076 1:0.060538369 2:-0.020906415 3:0.0045859835 4:-0.51000087 5:-1 6:-0.30985607 7:0.75255057 8:0.30381935 9:0.37128122 10:0.26255143 11:0.30381935 12:-0.31886271 
-0 -0.03396206614242402 -0 -0 -0 -0 -0 -0 -0 -0 -0 -0 0 0 1:0.043546995 2:-0.0039377771 3:0.0056804007 4:-1 5:-1 6:-0.33435985 7:1 8:0.37245135 9:0.36905314 10:1 11:0.37245135 12:-0.29658701 
-0 -0.1534282131944263 -0.04383447461579927 -0 -0.1259487610105154 -0.14773704973127 -0 -0 -28.36409090140602 -3.569754961432083 -46.80514705786091 -8.196353675788219 139.9978428133064 1.145874861776791 1:0.11585384 2:0.034996017 3:0.028009536 4:-0.42833689 5:-1 6:-0.2055753 7:1 8:0.9908302 9:0.62573866 10:0.42833689 11:0.9908302 12:-0.16868604 
-0 -0 -0 -0 -0 -0 -0 -0.4713069989414729 -101.0773566047574 -3.503198518972507 -0 -0 0 62.26603969595315 1:0.061631714 2:-0.016927973 3:-0.014186005 4:-0.9279545 5:-1 6:-0.62675073 7:0.73431294 8:0.47328089 9:0.44636548 10:0.66226744 11:0.47328089 12:0.073116202 
-2.939113115564916 -0 -0.1268578941035113 -7.160952704789424 -0 -0 -0.9977256202938184 -5.702614879549685 -178.7156926199348 -0 -67.91655309019801 -187.7673643158047 416.7158579829214 543.8248031532939 1:0.063508892 2:-0.13623385 3:-0.0076082701 4:-0.6054616 5:-1 6:-0.36621068 7:0.6122835 8:0.54749838 9:0.42934896 10:0.2177451 11:0.54749838 12:-0.20444035 
-0 -0 -0 -1.608790563784377 -0 -0 -0 -0 -0 -0 -0 -0 153.9581565229006 198.2717507752911 1:0.1321644 2:-0.061313952 3:0.007331665 4:-0.055208455 5:-1 6:-0.25957131 7:1 8:0.6703079 9:0.28508206 10:0.055208455 11:0.6703079 12:-0.45534663 
-0 -0 -0 -0 -0 -0 -0 -0 -0 -0 -2.21277083807443 -0 0 270.3158227707328 1:0.11730544 2:0.02491612 3:0.0085855325 4:-0.26072104 5:-0.48506116 6:-0.38868523 7:1 8:0.44994468 9:0.40658125 10:0.26072104 11:-0.064994162 12:-0.20473352 
-0 -0 -0 -0 -0 -0 -0 -0 -0 -0 -57.49984297352312 -11.85540490203883 116.4223735968355 12.10396168463101 1:0.10323284 2:0.024582238 3:0.023315395 4:-0.15842592 5:-0.6665426 6:-0.10439804 7:1 8:0.59369153 9:0.45282028 10:0.15842592 11:0.26023413 12:-0.44278168 
-0.02606778380959184 -0.2421264327539697 -0.3123104092843491 -0.2819586286992784 -0.2078669024068883 -0.2100374784198604 -0 -0.2051785223320801 -35.7183427526614 -5.445389359157381 -47.25001568525674 -22.49032445774398 25.62916871536904 51.23215229479603 1:0.062398121 2:0.018712731 3:-0.067900454 4:-0.34552064 5:-0.78956117 6:-1 7:1 8:1 9:0.11122504 10:0.34552064 11:0.78956117 12:0.11122504 
-0 -0 -0 -0 -0 -0 -0 -0 -0 -0 -0 -0 0 54.96550261070777 1:0.063853126 2:0.075439531 3:0.065614022 4:-0.26856521 5:-0.43616067 6:-0.20946118 7:1 8:0.52546231 9:0.44509338 10:0.26856521 11:-0.03837702 12:-0.34544544 
-1.173500828890598 -0 -0.1628110809703766 -4.279019536286016 -0 -0 -0.2278681239877675 -1.109307469170658 -0 -6.714298395881087 -9.728765137281526 -21.1851332102706 51.6281014428975 44.47910923334369 1:0.014761593 2:0.056382574 3:0.086157773 4:-1 5:-0.6162247 6:-0.3765608 7:0.61977332 8:0.61438922 9:0.88168233 10:0.61977332 11:0.23061392 12:0.25824313 
-0 -0 -0 -0 -0 -0 -0 -0 -41.5458847127865 -0.7336847302446272 -85.71133855159374 -197.4061793304221 0 118.5562854844357 1:0.04965447 2:-0.0013461229 3:-0.081608898 4:-0.66012604 5:-0.97588371 6:-1 7:1 8:0.48644287 9:0.3623689 10:0.66012604 11:0.46232658 12:0.3623689 
-0 -0 -0 -0 -0 -0 -0 -0 -80.30762907247592 -0 -85.17072264847097 -14.63671331985295 240.0056835228555 0 1:0.069246576 2:0.013099528 3:-0.0055543344 4:-0.30071176 5:-0.81779201 6:-0.55816461 7:1 8:0.47510618 9:0.41741063 10:0.30071176 11:0.29289819 12:-0.024424753 
-0 -0 -0 -0 -0 -0 -0 -0 -40.69350823245846 -0 -154.1319257416361 -109.9046449860296 17.27105963485526 170.8371405361396 1:0.088120655 2:-0.018079296 3:0.013288292 4:-0.45487756 5:-0.51494904 6:-0.34373104 7:1 8:0.61671927 9:0.74448461 10:0.45487756 11:0.13166831 12:0.08821565 
-0 -0 -0 -0 -0 -0 -0 -0 -0 -0 -1.447742376781159 -0 -0 0 1:0.076116739 2:0.0055725907 3:0.098309669 4:-0.96939067 5:-0.9716111 6:-0.38334192 7:1 8:0.58823095 9:1 10:0.96939067 11:0.55984205 12:0.38334192 
-0 -0 -0 -0 -0 -0 -0 -0 -0 -0 -11.95130099948724 -0 -0 10.55498799243234 1:0.070091093 2:0.031054721 3:0.080090123 4:-0.87287198 5:-1 6:-0.26292618 7:0.84707316 8:0.45364625 9:1 10:0.71994514 11:0.45364625 12:0.26292618 
-0 -0 -0 -0 -0 -0 -0 -0 -17.2427034112652 -76.86337719759584 -0 -0 -0 230.972371418534 1:0.068281656 2:-0.042400995 3:0.096391785 4:-1 5:-1 6:-0.4994621 7:0.74746728 8:0.58370341 9:0.97091769 10:0.74746728 11:0.58370341 12:0.47037979 
-0 -0 -0 -0 -0 -0 -0 -0 -19.72223697387181 -0 -145.2975985362906 -101.678054572396 -92.45422925619222 133.891963496035 1:0.076901913 2:-0.048402761 3:0.031047778 4:-0.28083239 5:-0.87495985 6:-0.36592261 7:1 8:0.35701794 9:0.4978433 10:0.28083239 11:0.23197779 12:-0.13623409 
-0.002643227364973676 -0.06802481799899356 -0 -0 -0 -0 -0 -0 -9.944759950007731 -6.785339610725732 -35.59231421431519 -41.3592034987258 -26.85116764385483 2.949842021946856 1:0.054117571 2:-0.019451446 3:-0.054097196 4:-0.77264917 5:-0.70989839 6:-1 7:0.88471343 8:0.32007362 9:0.6737367 10:0.65736261 11:0.029972009 12:0.6737367 
-0 -0.2023857068647688 -0.2975206732819063 -0 -0.2868986118882242 -0.2710143369523048 -0 -0 -0 -3.034671722015273 -27.7334731417441 -26.01748674810424 -28.74069911528585 0 1:0.046455361 2:0.090105477 3:0.0036702217 4:-0.19313553 5:-0.68087726 6:-0.22460371 7:0.68293964 8:1 9:0.59792335 10:-0.12392484 11:0.68087726 12:-0.17747294 
-0 -0.4016590319866241 -0.5425972490558357 -7.366914163576757 -0.6445468156149332 -0.6911808247941529 -0.6412927909430964 -0 -0 -0 -1.494782711987373 -0 -124.6663367748664 19.93250029407197 1:0.13517595 2:-0.10494324 3:0.014204444 4:-0.27209088 5:-0.71724544 6:-0.18882569 7:1 8:0.30425018 9:0.2592399 10:0.27209088 11:0.021495618 12:-0.5519344 
-0 -0 -0 -14.6061961808353 -0 -0 -0 -0.5706428747206935 -52.39763730138628 -0 -0 -0.3895928404959771 -299.6033052683936 212.7316279557297 1:0.071699102 2:-0.052070207 3:0.0032528781 4:-0.55168177 5:-1 6:-0.37184462 7:0.63914793 8:0.59719425 9:0.25352898 10:0.19082969 11:0.59719425 12:-0.3746264 
-0 -0 -0 -0.9579113133433129 -0 -0 -0 -0 -0 -0 -0 -0 -26.34780775940887 0 1:0.13933254 2:-0.15090707 3:0.00074598268 4:-1 5:-1 6:-0.81779711 7:1 8:0.20716657 9:0.44271234 10:1 11:0.20716657 12:0.26050945 
-0 -0 -0 -0 -0 -0 -0 -0 -8.739618389821231 -0 -26.91547489592126 -0 -218.7879923321412 177.0842662644883 1:0.10003136 2:-0.018550841 3:0.030411205 4:-0.29641876 5:-0.86238165 6:-0.33731448 7:1 8:0.29226086 9:0.31428164 10:0.29641876 11:0.15464251 12:-0.34840389 
-0 -0 -0 -0 -0 -0 -0 -0 -14.19753176110975 -0 -52.02592199800116 -15.8365654622239 -79.22864421087262 70.980390372054 1:0.032527615 2:0.027826225 3:0.052777053 4:-0.35571525 5:-0.60055931 6:-0.16213921 7:1 8:0.68006914 9:0.3465633 10:0.35571525 11:0.28062845 12:-0.49129749 
-6.889522063991088 -0 -0.3743587032483825 -0 -0 -0 -2.16169385462792 -0 -0 -0 -59.11920727688158 -127.9702720671636 -0 0 1:0.053489918 2:0.021168276 3:0.078189449 4:-0.55835581 5:-0.8055911 6:-0.25967583 7:0.52898543 8:0.58824369 9:0.50189157 10:0.087341243 11:0.3938348 12:-0.23843259 
-0 -0.01787941708772032 -0 -2.858728593003237 -0 -0 -0 -0 -18.59139187285864 -0 -0 -0.8722548840577379 -34.24455724584301 4.440265864921416 1:0.1109913 2:-0.029566659 3:0.057993822 4:-1 5:-0.96184477 6:-0.33437769 7:1 8:0.7851305 9:0.63049563 10:1 11:0.74697527 12:-0.035126674 
-0 -0 -0 -0 -0 -0 -0 -0 -35.13265989507818 -0 -86.02158817641357 -225.5267149699954 -125.2403632386124 0 1:0.080968126 2:0.0022523145 3:0.035280736 4:-0.65913691 5:-0.94438723 6:-0.34281584 7:0.75310376 8:0.57913253 9:0.71400784 10:0.41224067 11:0.52351975 12:0.056823686 
-0 -0 -0 -0 -0 -0 -0 -0 -7.776399736043553 -0 -0 -0 -63.33540784019348 0 1:0.059434038 2:-0.071905421 3:0.06374267 4:-0.75655295 5:-1 6:-0.3667027 7:1 8:0.30724814 9:1 10:0.75655295 11:0.30724814 12:0.3667027 
-0 -0 -0 -0 -0 -0 -0 -0 -0 -0 -0 -0 -32.48102002447499 38.71675159156426 1:0.058337938 2:-0.093707453 3:0.046667014 4:-1 5:-1 6:-0.19049828 7:0.75024601 8:0.50434654 9:0.64240847 10:0.75024601 11:0.50434654 12:-0.16709325 
-2.790878600865137 -0.250982502810319 -1.274556019862867 -2.920806847978693 -0.4134221072930264 -0.3514524310175506 -1.36030108247881 -1.002738249629099 -11.00095776616568 -0 -0.3093100068267889 -64.22121670901092 -49.39134307231675 27.98210428963056 1:0.032981828 2:-0.077802477 3:-0.08023186 4:-0.22799835 5:-0.66198192 6:-1 7:0.76358899 8:0.32755834 9:0.15215237 10:-0.0084126588 11:-0.010459739 12:0.15215237 
-0 -0.2000806187458897 -0.2225037743138275 -0.0246226644780535 -0.1995596455465534 -0.1825894238018755 -0 -0 -0 -0 -0 -0 -78.48498459417625 231.3401607553625 1:0.080059326 2:-0.025066925 3:0.064678689 4:-1 5:-1 6:-0.37564306 7:1 8:0.48512744 9:1 10:1 11:0.48512744 12:0.37564306 
-0 -0 -0.2100973303236152 -0 -0 -0 -0 -0 -11.22010088848816 -0 -0 -10.14666980917074 -66.98572722590254 136.5256536731324 1:0.076419097 2:-0.097122622 3:-0.033052649 4:-0.45409493 5:-0.53603167 6:-0.45229513 7:0.92915012 8:0.27706964 9:0.57267772 10:0.38324504 11:-0.18689869 12:0.02497285 
-0 -0.1046616094565227 -0 -0 -0.1057107349764801 -0.1118422980389644 -0 -0.3437809518661071 -13.05655268806211 -0 -44.79117174995069 -32.8633438238754 -10.10940396692771 42.73129779881177 1:0.032426737 2:-0.11587024 3:-0.030438283 4:-1 5:-1 6:-1 7:1 8:0.49460825 9:0.45495913 10:1 11:0.49460825 12:0.45495913 
-0 -0 -0 -0 -0 -0 -0 -0 -63.67517075982234 -0 -50.2958315712384 -0 -329.1022374608094 112.0104428333195 1:0.071480503 2:-0.024704498 3:-0.0034072709 4:-0.26155721 5:-1 6:-0.37891635 7:1 8:0.73401212 9:0.44667139 10:0.26155721 11:0.73401212 12:-0.17441226 
-0 -0.177644232762152 -0.01666891678453735 -0 -0.1286979914431986 -0.1421182616221375 -0 -0 -5.960539746344002 -26.05759487254574 -18.65457397034916 -33.19405952429381 -0 0 1:0.12021279 2:0.0153166 3:0.033663211 4:-0.49486828 5:-1 6:-0.86360786 7:1 8:1 9:0.70204147 10:0.49486828 11:1 12:0.56564933 
-0 -0 -0 -0 -0 -0 -0 -0 -61.81634565720281 -0 -0 -31.37154035064885 -23.55358894921766 23.73493356390594 1:0.11929468 2:-0.061035424 3:0.029947123 4:-0.39749558 5:-1 6:-0.76259477 7:1 8:0.71548133 9:0.72812071 10:0.39749558 11:0.71548133 12:0.49071548 
-1.815618438396741 -0.02746653152457313 -0 -0 -0 -0 -0 -6.600960027361236 -19.95309972134087 -14.50229450245917 -76.66778977988855 -0 -0 0 1:0.042765013 2:-0.041079135 3:0.065014824 4:-0.60132155 5:-1 6:-0.55640305 7:0.41922828 8:0.91802246 9:0.52634692 10:0.020549831 11:0.91802246 12:0.082749971 
-0 -0 -0 -11.85359281419419 -0 -0 -0.5686099293198161 -0 -0 -0 -0 -0 -107.3112553087183 0 1:0.025422766 2:-0.050004706 3:0.074363652 4:-0.46134511 5:-0.96396068 6:-0.23908649 7:0.65911397 8:0.40682343 9:0.38175626 10:0.12045908 11:0.37078411 12:-0.37915726 
-0.0119787761194337 -0 -0 -0 -0 -0 -0 -5.670400803195085 -0 -0 -0 -0 -0 0 1:-0.035975653 2:-1.7166262e-05 3:0.085619987 4:-0.68896871 5:-1 6:-0.28000897 7:0.42598645 8:0.58858275 9:0.62909607 10:0.11495516 11:0.58858275 12:-0.090894954 
-0 -0 -0 -0 -0 -0 -0 -0 -25.23471616260308 -0 -0 -0 -0 0 1:0.075706251 2:-0.060574651 3:0.038893042 4:-1 5:-1 6:-0.4563536 7:0.80555796 8:0.62789536 9:0.75466138 10:0.80555796 11:0.62789536 12:0.21101497 
-0 -0 -0 -0 -0 -0 -0 -1.972675454817948 -0 -0 -0 -0 -68.09391075575 109.9281293168901 1:0.054116088 2:-0.070015592 3:0.055097362 4:-1 5:-1 6:-0.34336904 7:0.47265376 8:0.47191702 9:0.82017814 10:0.47265376 11:0.47191702 12:0.16354718 
-0 -0 -0 -0 -0 -0 -0 -0 -0 -0 -52.81181510038142 -0 -0 0 1:0.097661562 2:-0.046535472 3:0.044045904 4:-0.73998511 5:-1 6:-0.2496329 7:0.69185451 8:0.64133267 9:0.72227264 10:0.43183962 11:0.64133267 12:-0.028094456 
-0 -0 -0 -0 -0 -0 -0 -0 -0 -0 -146.5896354088853 -88.68166590271885 -384.8790056481644 -215.7822292489586 1:0.11364104 2:0.015497609 3:0.056657847 4:-0.3284404 5:-0.50399474 6:-0.28232883 7:1 8:0.38638577 9:0.56362519 10:0.3284404 11:-0.10961949 12:-0.15404598 
-0 -0.3204346710086393 -0.5129920076692082 -8.269146001220928 -0.4000960965930497 -0.6367165006988169 -1.05425461644169 -0 -0 -0 -0 -24.12805837704693 -110.3181372636712 -77.98619997488011 1:0.096859541 2:-0.021893639 3:0.036230996 4:-0.11209638 5:-1 6:-0.1265014 7:1 8:0.17409895 9:0.32359674 10:0.11209638 11:0.17409895 12:-0.54990185 
-0 -0.03309472928265934 -0.7067477806603038 -0 -0.01511863074230524 -0 -0 -0 -0 -0 -0 -14.34497172706926 -22.18932430397249 -2.535199708796853 1:0.084604736 2:-0.063366953 3:-0.0074622132 4:-0.19693652 5:-1 6:-1 7:0.83551977 8:0.17127077 9:0.23094048 10:0.032456292 11:0.17127077 12:0.23094048 
-0 -0 -0 -15.26965681273836 -0 -0 -0 -0 -16.13917874056851 -0 -4.43444843953312 -0 -0 -0 1:0.026906677 2:0.13402863 3:0.07093393 4:-0.72982109 5:-0.41868018 6:-0.15303926 7:0.9153916 8:0.74210612 9:0.52120245 10:0.64521269 11:0.1607863 12:-0.32575829 
-0 -0 -0 -0 -0 -0 -0 -0 -259.7039002720663 -1.409388273115325 -15.1640075517969 -0 -467.2462335492157 -278.1859137613903 1:0.07795272 2:-0.097722622 3:-0.030199216 4:-0.32833332 5:-0.93522253 6:-0.33474989 7:0.9256168 8:0.6311559 9:0.29067775 10:0.25395013 11:0.56637843 12:-0.37457236 
-0.7349670303713125 -0 -0 -6.884139090901656 -0 -0 -0 -1.550810616721776 -0 -204.1519776353429 -0 -64.46716327519629 -41.73683857047941 -4.200232138282361 1:0.0022859019 2:0.074569011 3:0.0074852644 4:-1 5:-0.6230823 6:-0.30466826 7:0.53862685 8:1 9:0.69243575 10:0.53862685 11:0.6230823 12:-0.002895994 
-3.583958027196494 -0 -0 -0 -0 -0 -0.1974967897032001 -0 -0 -0 -0 -39.50675143707326 -0 -0 1:0.066312057 2:-0.035492843 3:-0.030807145 4:-0.78379977 5:-0.95900996 6:-0.73901383 7:0.512206 8:0.2915751 9:0.3981431 10:0.29600577 11:0.25058506 12:0.13715693 
-0 -0 -0 -0 -0 -0 -0 -0 -1052.682475866074 -0 -59.84367569462135 -337.4830937987053 -670.076996808505 -119.4536198434326 1:0.082082348 2:-0.035038206 3:0.0073905376 4:-0.49706322 5:-1 6:-0.58184497 7:1 8:0.44699515 9:0.43017238 10:0.49706322 11:0.44699515 12:0.012017356 
-2.67442404621473 -0 -0 -30.80916066066525 -0 -0 -0.424855944879646 -3.60715844021709 -0 -0 -0 -368.3030530943359 -366.7881264356705 -83.73911768063667 1:0.080711799 2:-0.022821793 3:0.0011873791 4:-0.57468656 5:-1 6:-0.49504928 7:0.6281095 8:0.45918331 9:0.1996923 10:0.20279606 11:0.45918331 12:-0.30525842 
-0 -0 -0 -0 -0 -0 -0 -0 -33.51768204858792 -81.56619271209802 -198.7291134907017 -12.14834839121586 -0.3680897931994817 -0 1:0.016991021 2:0.0066152981 3:0.084682873 4:-1 5:-0.87911264 6:-0.40451887 7:0.57295305 8:0.92790606 9:1 10:0.57295305 11:0.80701871 12:0.40451887 
-0 -0 -0 -0 -0 -0 -0.043851564604078 -6.080562280113926 -0 -0 -0 -0 -0 -0 1:0.08513402 2:0.015771436 3:-0.069477356 4:-1 5:-1 6:-1 7:0.40746585 8:0.62958554 9:0.1986708 10:0.40746585 11:0.62958554 12:0.1986708 
-0 -0.2291111383326527 -0.2050227513898347 -0 -0.2849669887158021 -0.2837728916274661 -0.07000391340078117 -0 -85.91770627090983 -121.2946018317454 -863.2881370965506 -89.8190795828253 -0 -4.399325374359141 1:0.069089257 2:-0.080097044 3:-0.079607072 4:-0.91911101 5:-1 6:-1 7:1 8:0.99114631 9:0.63272881 10:0.91911101 11:0.99114631 12:0.63272881 
-6.31778664172946 -0.393364561925415 -3.043005613568041 -0 -0.8129559332881308 -0.7498883991776929 -5.477582312702567 -2.289832460685902 -0 -0 -0 -139.3892875916985 -2.526894689055137 -0 1:0.077367087 2:0.031492372 3:0.064454406 4:-0.29161589 5:-0.45441359 6:-0.23129968 7:0.45206569 8:0.46804974 9:0.86140017 10:-0.25631842 11:-0.077536672 12:0.092699852 
-0 -0 -0 -0 -0 -0 -0 -0 -142.478960638114 -90.23329179447883 -254.9297508697447 -24.64418021253033 -0 -30.89688792443465 1:0.044873987 2:-0.031132605 3:0.052763791 4:-1 5:-1 6:-0.91923338 7:0.6054718 8:0.52295636 9:0.92339382 10:0.6054718 11:0.52295636 12:0.8426272 
-0 -0 -0 -0 -0 -0 -0 -0 -40.90114286863431 -7.910495748795503 -19.31201000528409 -0 -7.429095494119879 -0 1:0.013919748 2:0.031584347 3:0.085085061 4:-0.53255699 5:-0.46787384 6:-0.37560737 7:0.55150332 8:0.44751266 9:0.94835392 10:0.084060306 11:-0.084613502 12:0.32396129 
-0 -0 -0 -0 -0 -0 -0 -0 -0 -0 -0 -71.92871824900723 -74.98371068493889 -5.413161408791126 1:0.10235446 2:0.0024966289 3:-0.073841333 4:-0.62464756 5:-0.97461416 6:-1 7:0.85423157 8:0.37189815 9:0.63069193 10:0.47887913 11:0.34651232 12:0.63069193 
-0 -0 -0 -0 -0 -0 -0 -0 -0 -3.70797430589694 -43.6181347369095 -126.5009270259794 -58.80865421286094 -0 1:0.091583202 2:0.02050435 3:-0.089778321 4:-0.63490336 5:-0.62311544 6:-1 7:1 8:0.48721531 9:0.19944706 10:0.63490336 11:0.11033074 12:0.19944706 
-0 -0 -0 -0 -0 -0 -0 -0 -4.95667775317748 -0 -0 -0 -69.31349417737408 -35.96816168120613 1:0.014500537 2:-0.047586717 3:-0.085705107 4:-0.56566972 5:-0.49148792 6:-0.82747166 7:1 8:0.37450607 9:0.28553074 10:0.56566972 11:-0.13400601 12:0.1130024 
-0 -0.169837645221932 -0 -0 -0.06131218691102348 -0.06435857744233031 -0 -0 -32.30315903762625 -0 -0 -0 -0 -0 1:0.051609105 2:-0.069807984 3:0.012448282 4:-0.44228151 5:-1 6:-1 7:0.72153845 8:0.5300077 9:1 10:0.16381996 11:0.5300077 12:1 
-0 -0 -0 -0 -0 -0 -0 -0 -37.63213491755085 -0 -48.10442629388862 -0 -0 -0 1:0.063701841 2:-0.11169754 3:0.010122455 4:-1 5:-1 6:-0.37110787 7:0.51250172 8:0.46101625 9:1 10:0.51250172 11:0.46101625 12:0.37110787 
-0 -0 -0 -0 -0 -0 -0 -0 -0 -0 -46.19251150280098 -677.1288581875558 -520.9662652962156 -94.81860019795636 1:0.052443779 2:-0.086037092 3:0.016510737 4:-0.51107412 5:-1 6:-0.54034762 7:0.65063758 8:0.36028358 9:0.49630863 10:0.1617117 11:0.36028358 12:0.036656249 
-0 -0.161362495669129 -0 -0 -0.1262457352066529 -0.1190010526924203 -0 -0.4029839670099062 -39.92909969073017 -211.5135195276108 -616.958111201621 -173.7548482394147 -0 -0 1:0.079038075 2:-0.023531393 3:-0.069700451 4:-1 5:-1 6:-1 7:0.52372625 8:1 9:0.24251069 10:0.52372625 11:1 12:0.24251069 
-0 -0 -0 -0 -0 -0 -0 -0 -66.34434091811997 -44.98718504987183 -318.0057379276188 -13.54449009102599 -0 -0 1:0.044999127 2:-0.055717245 3:-0.077804088 4:-1 5:-1 6:-1 7:0.74027828 8:1 9:0.24209465 10:0.74027828 11:1 12:0.24209465 
-0 -0 -0 -0 -0 -0 -0 -0 -0 -28.14408845616085 -346.8842105250306 -172.4990370120777 -60.7227697514814 -0 1:0.081682419 2:-0.019969732 3:-0.08242634 4:-1 5:-1 6:-1 7:0.76657166 8:0.76886857 9:0.17904228 10:0.76657166 11:0.76886857 12:0.17904228 
-0 -0 -0 -0 -0 -0 -0 -0 -0 -0 -0 -120.8197737266982 -678.9479368265738 -49.65992808547842 1:0.064621671 2:0.013128486 3:-0.070107014 4:-0.81462069 5:-1 6:-0.48757986 7:0.6519785 8:0.34871235 9:0.28774607 10:0.4665992 11:0.34871235 12:-0.22467407 
-0.0724862970737219 -0.1484835110387934 -0 -0 -0.3095923357984241 -0.09947852290365682 -0 -0 -2.038485703309704 -0 -0 -0 -70.70528840977934 -0 1:0.015526941 2:0.09313918 3:0.056929693 4:-0.46019538 5:-0.23442536 6:-0.13863679 7:0.8934779 8:0.77160906 9:0.46838115 10:0.35367327 11:0.0060344256 12:-0.39298206 
-0 -0.08781043688784716 -0 -3.858130157587494 -0 -0 -0 -0 -0 -10.0478312102139 -0 -7.698584647983525 -39.44612791899279 -139.7774774814376 1:0.026986905 2:-0.01234859 3:0.083436408 4:-1 5:-0.94207502 6:-0.18192731 7:0.93665523 8:0.49009346 9:0.94815763 10:0.93665523 11:0.43216848 12:0.13008494 
-0 -0 -0 -0 -0 -0 -0 -0 -0 -174.0449725306004 -47.01806757822735 -5.026929348451374 -0 -41.31153148720009 1:-0.016842779 2:0.090650797 3:0.09278505 4:-1 5:-1 6:-0.42941524 7:0.61549561 8:0.87622175 9:1 10:0.61549561 11:0.87622175 12:0.42941524 
-0 -0 -0 -0 -0 -0 -0 -0 -114.3590516787215 -47.70854145223132 -0 -0 -25.79871549829255 -308.7027185893231 1:0.082800124 2:-0.13517214 3:0.028185205 4:-1 5:-1 6:-0.48557356 7:0.90919682 8:0.52652282 9:1 10:0.90919682 11:0.52652282 12:0.48557356 
-0 -0 -0 -0 -0 -0 -0 -3.161012785146485 -0 -0 -6.221513743214281 -9.49780141107281 -57.5975739531293 -93.67738491626659 1:-0.013716644 2:-0.020459105 3:0.063476478 4:-1 5:-1 6:-0.22408799 7:0.44671728 8:0.59071905 9:0.95268262 10:0.44671728 11:0.59071905 12:0.17677061 
