svm_type c_svc
kernel_type rbf
gamma 0.5
nr_class 2
total_sv 28
rho 0.806306
label 1 -1
nr_sv 9 19
SV
1.559070321685002 1:-0.045235785 2:0.043308081 3:-0.0044089326 4:-0.68797449 5:-0.38183783 6:-0.14092504 7:0.27823212 8:0.28010585 9:0.36414066 10:-0.033793395 11:-0.33805632 12:-0.4949343 
33.82987299814394 1:0.062018994 2:-0.034653789 3:-0.0065820427 4:-0.41343884 5:-1 6:-0.36771986 7:0.66539032 8:0.35425451 9:0.10044715 10:0.078829162 11:0.35425451 12:-0.53183299 
63.46546005657415 1:-0.011604442 2:-0.027541976 3:-0.0013840002 4:-0.66533424 5:-0.60441129 6:-0.47256708 7:0.28763645 8:0.51468901 9:0.46517924 10:-0.047029312 11:0.1191003 12:-0.062253675 
55.85414644487719 1:-0.074545813 2:0.08789925 3:0.031665687 4:-1 5:-0.59652889 6:-0.28288457 7:0.7948382 8:0.76498091 9:0.53370672 10:0.7948382 11:0.36150979 12:-0.18340871 
14.96325463388235 1:0.053480044 2:0.010832296 3:-0.054286309 4:-0.25656825 5:-0.20715637 6:-0.33717172 7:0.53136647 8:0.22793742 9:0.10046601 10:-0.21206528 11:-0.56490621 12:-0.56236227 
2.180250365334099 1:-0.0048588813 2:-0.036883609 3:-0.0056278283 4:-0.29725747 5:-1 6:-0.78018742 7:0.1496301 8:0.60132155 9:0.5098683 10:-0.55311243 11:0.60132155 12:0.29005573 
2.232749957057088 1:0.055278157 2:-0.10081811 3:0.0052654337 4:-0.80911422 5:-0.77343435 6:-0.21099433 7:0.35384153 8:0.16406138 9:0.18059786 10:0.16295575 11:-0.06250427 12:-0.60840782 
1.78709306681858 1:0.054615796 2:-0.10059318 3:-0.054758789 4:-0.10542667 5:-0.5425706 6:-0.6068943 7:0.44820861 8:0.18595519 9:0.1065346 10:-0.44636471 11:-0.2714742 12:-0.2865711 
23.29849434046294 1:-0.010907656 2:-0.0035476591 3:-0.016253087 4:-1 5:-1 6:-0.61555169 7:0.22947133 8:0.75846237 9:0.43687447 10:0.22947133 11:0.75846237 12:0.05242616 
-18.47520957720316 1:0.045980245 2:0.045140244 3:0.016935763 4:-1 5:-0.42643512 6:-0.2375276 7:0.33968532 8:0.42955036 9:0.39984092 10:0.33968532 11:-0.14401452 12:-0.36263148 
-4.39909220887429 1:0.076052784 2:0.015225117 3:-0.0743422 4:-0.13520519 5:-0.94095333 6:-0.9903076 7:0.34867666 8:0.33518072 9:0.13563959 10:-0.51611814 11:0.27613405 12:0.12594719 
-1.926986120325754 1:0.081894011 2:-0.022740088 3:0.007685843 4:-0.15443984 5:-0.35131518 6:-0.19812474 7:0.88718115 8:0.26172036 9:0.2319811 10:0.041620992 11:-0.38696446 12:-0.56989415 
-6.978713983313424 1:0.026906677 2:0.13402863 3:0.07093393 4:-0.72982109 5:-0.41868018 6:-0.15303926 7:0.9153916 8:0.74210612 9:0.52120245 10:0.64521269 11:0.1607863 12:-0.32575829 
-22.91792255623177 1:0.0022859019 2:0.074569011 3:0.0074852644 4:-1 5:-0.6230823 6:-0.30466826 7:0.53862685 8:1 9:0.69243575 10:0.53862685 11:0.6230823 12:-0.002895994 
-7.510153886736142 1:0.071699102 2:-0.052070207 3:0.0032528781 4:-0.55168177 5:-1 6:-0.37184462 7:0.63914793 8:0.59719425 9:0.25352898 10:0.19082969 11:0.59719425 12:-0.3746264 
-4.516021729629467 1:0.080711799 2:-0.022821793 3:0.0011873791 4:-0.57468656 5:-1 6:-0.49504928 7:0.6281095 8:0.45918331 9:0.1996923 10:0.20279606 11:0.45918331 12:-0.30525842 
-1.007835639113232 1:0.055776513 2:0.049111705 3:-0.060372301 4:-0.93732569 5:-0.6063768 6:-0.90692285 7:0.41442032 8:0.88985535 9:0.12989782 10:0.35174601 11:0.49623215 12:0.036820678 
-13.79540694676012 1:0.020592427 2:0.013084029 3:0.045473449 4:-1 5:-1 6:-0.23925602 7:1 8:0.51601464 9:0.5397154 10:1 11:0.51601464 12:-0.22102859 
-31.248717934923 1:0.036525835 2:0.025532269 3:-0.061935139 4:-0.42413311 5:-0.46770049 6:-0.61275512 7:0.47498381 8:0.33686325 9:0.19238731 10:-0.10088307 11:-0.19543626 12:-0.19485757 
-0.3042792943452474 1:0.061713683 2:0.040231721 3:-0.10813124 4:-1 5:-0.68417604 6:-1 7:1 8:1 9:0.41119292 10:1 11:0.68417604 12:0.41119292 
-22.82590079919302 1:0.056359934 2:0.0086203259 3:0.052447332 4:-0.63283588 5:-0.71671774 6:-0.53124665 7:0.38497601 8:0.65949126 9:0.54648631 10:0.017811893 11:0.376209 12:0.077732967 
-6.708674411452032 1:0.016880517 2:0.0038209073 3:0.076567586 4:-0.29424676 5:-0.45805397 6:-0.11314746 7:0.62510643 8:0.26998261 9:0.53554731 10:-0.080646806 11:-0.27196341 12:-0.35130524 
-4.213473174937956 1:-0.059193229 2:-0.023794189 3:0.048318497 4:-1 5:-0.70696925 6:-0.5905661 7:0.40869971 8:0.51373303 9:0.82662785 10:0.40869971 11:0.22070228 12:0.41719394 
-19.31488224662517 1:0.0036212509 2:-0.17913186 3:-0.065277792 4:-0.81092167 5:-0.92371758 6:-0.46588794 7:0.51994055 8:0.44256194 9:0.33781923 10:0.33086222 11:0.36627951 12:-0.19629282 
-5.14735984050155 1:0.052247465 2:0.038848543 3:-0.080456955 4:-0.83332738 5:-0.98313644 6:-1 7:0.36316938 8:0.81969888 9:0.20643645 10:0.19649676 11:0.80283532 12:0.20643645 
-14.11683343974381 1:0.025422766 2:-0.050004706 3:0.074363652 4:-0.46134511 5:-0.96396068 6:-0.23908649 7:0.65911397 8:0.40682343 9:0.38175626 10:0.12045908 11:0.37078411 12:-0.37915726 
-5.29821766243808 1:-0.035975653 2:-1.7166262e-05 3:0.085619987 4:-0.68896871 5:-1 6:-0.28000897 7:0.42598645 8:0.58858275 9:0.62909607 10:0.11495516 11:0.58858275 12:-0.090894954 
-8.46471073248807 1:0.043588167 2:0.046011909 3:-0.046101418 4:-1 5:-0.23396573 6:-0.37046545 7:0.46123294 8:1 9:0.1552523 10:0.46123294 11:0.23396573 12:-0.47428225 
