svm_type c_svc
kernel_type rbf
gamma 0.5
nr_class 15
total_sv 1865
rho -0.657786 1.63103 3.43357 -0.363677 -0.459422 2.64454 1.7736 1.03078 0.551945 0.459439 1.19685 1.27751 0.662769 0.715168 0.210793 0.818018 1.21798 0.285939 0.317471 0.757462 0.810085 0.796764 0.79587 0.824069 0.862945 0.834484 0.846691 1.18744 8.10044 -15.2503 -4.15262 -2.13516 0.63054 0.584547 0.567814 0.44946 0.710906 0.727221 0.695572 -1.76875 -0.992253 -4.28321 -2.29854 0.373743 0.562943 0.508212 -0.273957 1.39959 0.343346 0.692109 -8.25625 -5.4937 0.243554 0.726479 0.707002 0.705007 0.758394 0.821547 0.776071 0.782785 -2.60293 0.435882 0.745961 0.72825 0.725842 0.777889 0.835619 0.790544 0.798162 -3.81223 0.664283 0.630696 0.601933 0.246308 1.24829 0.815455 0.823351 0.259033 0.496919 0.431884 0.886556 0.62137 0.577999 0.618964 0.811317 0.871255 0.90378 1.68597 1.16336 2.90448 1.95923 -0.850981 0.529314 1.52 2.13662 -4.43001 1.27889 -1.45275 1.08581 1.39423 0.953192 3.97501 -2.53583 0.239033 1.80903
label 1 2 3 4 5 6 7 8 -1 -2 -3 -4 -5 -6 -7
nr_sv 114 17 60 108 66 42 108 138 168 162 180 174 168 180 180
SV
0 0 0 0.02726070374387336 0.09131281102872076 0 0 0 0 0 0 0 0 0 1:0.30571854 2:0.25637524 3:0.36005758 4:1.3822523 5:2.0382903 6:1.4637868 7:-0.67007541 8:-0.32981701 9:-0.53653745 10:1.3560885 11:1.8542367 12:1.4636247 
0 0 0 0 0 0 344.430498868389 0 0 0 0 0 0 0 1:0.30388638 2:0.26327813 3:0.3622959 4:1.4342461 5:2.1021603 6:1.4633647 7:-0.655547 8:-0.13686121 9:-0.44212346 10:1.3893496 11:1.9826495 12:1.5106206 
0.09476176884275799 3.69238332062682 6.563794272448045 0.7634676141662378 0.5687375218403771 30.67925602487011 113.8013863664966 0 0 0.0480753812159995 0 0 0.06916152516943487 0.06239627887382129 1:0.3200927 2:0.28086555 3:0.30409968 4:1.6432982 5:1.6839899 6:1.4124467 7:-0.7840496 8:-0.43314486 9:-0.26629889 10:1.4296243 11:1.6254225 12:1.5730739 
0 0 0 0 0 0 103.2082780317153 0 0 0 1.830728667989396 0 0 0 1:0.32437965 2:0.26854463 3:0.29863132 4:1.7453055 5:1.7875319 6:1.5357691 7:-0.72840674 8:-0.33786767 9:-0.35298496 10:1.5084494 11:1.7248321 12:1.5913921 
0 0 0 0 0 0 94.21001802747846 0 0 0 0 0 0 0 1:0.33735765 2:0.23343045 3:0.31691783 4:1.5353816 5:2.0200527 6:1.6183712 7:-0.75014454 8:-0.13587719 9:-0.63684184 10:1.3926185 11:1.9420878 12:1.4907647 
0.06071525246718 0.9683986401477396 0 0.1963266967596366 0.126913966247137 0 0 0.008485771005943025 0 0 0 0 0 0.03030041194665603 1:0.33407785 2:0.23662049 3:0.31781029 4:1.4186328 5:1.9637542 6:1.5228289 7:-0.78894475 8:-0.14091968 9:-0.65041987 10:1.314844 11:1.9114173 12:1.4362045 
0 0 0 0 0 0.8172856704944672 0 0 0 0 5.034709842301512 0 0 0 1:0.3311592 2:0.21232052 3:0.31656549 4:2.0919172 5:2.4345419 6:1.9560808 7:-0.57103649 8:-0.28157934 9:-0.094461411 10:1.7604404 11:2.0764813 12:1.9308097 
0 0.2075026229948059 0.4988006206873136 0 0 4.560992550973317 9.206136231293367 0 0.1833985064831101 0 6.012819972675945 1.340146379487006 0.1320107757057475 0 1:0.30288096 2:0.23537193 3:0.31878099 4:2.4328848 5:2.0561201 6:1.7375505 7:-0.49257494 8:-0.060499763 9:-0.032335201 10:1.9701549 11:1.9978102 12:1.8526077 
0 0 0 0 0 0 0 0.6058740251820441 0 0.779474886501599 0 0 0.8082895135999391 1.537440659876139 1:0.29097566 2:0.22402793 3:0.33390799 4:2.3306685 5:2.2088226 6:1.9451342 7:-0.4247271 8:0.029378024 9:-0.069641519 10:1.9529707 11:2.1191003 12:1.9377463 
0.1317124538889764 0.9093297289372866 2.35026636517044 0.1956922844651039 0.1654998037102272 1.882207154804881 0 2.66762939370749 0.7955182019493009 0.4877446284424839 0.6268781373842787 1.772061443246993 2.415938136752414 2.366379724025279 1:0.31931129 2:0.18478715 3:0.31608123 4:1.5945149 5:3 6:2.5603748 7:-0.7007398 8:0.2026431 9:0.019736607 10:1.4468876 11:2.6013216 12:2.2900557 
0.0226238614427583 0.5581372399953926 1.27668305490074 0 0 0 3.642985385484015 0.1434749113236029 0.4583377824637154 1.24696295968943 0.2776628748488467 1.399457523379408 2.22903924294672 1.149012179742725 1:0.31341806 2:0.22739995 3:0.33207404 4:1.6819148 5:2.9359108 6:2.1396399 7:-0.67944099 8:0.41415264 9:-0.21904014 10:1.5012369 11:2.6750317 12:1.9602999 
0 0 0 0 0 0 0 0.2730486284686642 0.285511111470236 0 0 0.4765032776402094 0 0 1:0.32406253 2:0.21783986 3:0.32947473 4:1.5017096 5:2.1392168 6:1.3493981 7:-0.76158372 8:-0.09848929 9:-0.58538951 10:1.3700629 11:2.0203637 12:1.3820043 
0 3.407858058048579 28.35276686573593 0 0 68.20581524291548 0 0 0 0 0 0 0 0 1:0.34728422 2:0.19337249 3:0.32050626 4:1.6057675 5:2.1720108 6:1.4684163 7:-0.79975476 8:-0.51064737 9:-0.51467881 10:1.4030064 11:1.8306817 12:1.4768688 
0 0 0 0 0 0 0 0 0 0 0.9712038675988068 0 0 0 1:0.34828931 2:0.17067894 3:0.31768963 4:1.5450536 5:2.2648458 6:1.5122035 7:-0.78031846 8:-0.44491238 9:-0.45340662 10:1.3823676 11:1.9099667 12:1.5293984 
0 1.479346769567581 0 0 0 0 0 0 0 0 0 0 0 0 1:0.34203622 2:0.17378681 3:0.31672216 4:1.4911259 5:2.222084 6:1.5622868 7:-0.80059398 8:-0.51437188 9:-0.49416314 10:1.345266 11:1.8538561 12:1.5340618 
0 0 0 0 0 0 25.54039170174409 0 0 0 0 0 0 0 1:0.35215798 2:0.14556189 3:0.31830907 4:1.8283971 5:1.8457373 6:1.9762304 7:-0.71382327 8:-0.10498488 9:-0.10309331 10:1.5572869 11:1.8703762 12:1.9365686 
0 0 0 0 0 0 0 0 0 0 0.6967650861362681 0 0 0 1:0.30766943 2:0.16085608 3:0.31351978 4:1.9836387 5:1.9232103 6:1.8666772 7:-0.71295651 8:-0.083479068 9:-0.10386829 10:1.6353411 11:1.9198656 12:1.8814045 
0 0 0 0 0 0 0 0 0 0 0.5106990574303407 0 0 0 1:0.30998743 2:0.22822961 3:0.30575442 4:1.5930771 5:2.1852467 6:1.9296753 7:-0.78300031 8:-0.1573677 9:-0.41101192 10:1.4050384 11:2.0139395 12:1.7593317 
0 0 0 0 0 0 84.79188575899732 0 0 0 0 0 0 0 1:0.31661222 2:0.22825616 3:0.30287457 4:1.5520846 5:2.0873387 6:1.976883 7:-0.74075347 8:-0.14629869 9:-0.36431401 10:1.4056655 11:1.97052 12:1.8062845 
0 0 0 0.08092718374297411 0.145725406680973 0 0 0 0 0 0 0 0 0 1:0.30571854 2:0.36005758 3:0.25637524 4:1.3822523 5:1.4637868 6:2.0382903 7:-0.67007541 8:-0.53653745 9:-0.32981701 10:1.3560885 11:1.4636247 12:1.8542367 
0 0 0 0 0 0 345.2952472555182 0 0 0 0 0 0 0 1:0.30388638 2:0.3622959 3:0.26327813 4:1.4342461 5:1.4633647 6:2.1021603 7:-0.655547 8:-0.44212346 9:-0.13686121 10:1.3893496 11:1.5106206 12:1.9826495 
0.1199364362355902 3.600817982999395 6.200189148610384 0.7135299017479428 0.5136460206532704 29.91593810234173 116.3018649742482 0 0 0.0428785909589503 0 0 0.04911211127019655 0.04342536854361788 1:0.3200927 2:0.30409968 3:0.28086555 4:1.6432982 5:1.4124467 6:1.6839899 7:-0.7840496 8:-0.26629889 9:-0.43314486 10:1.4296243 11:1.5730739 12:1.6254225 
0 0 0 0 0 0 93.96022800580295 0 0 0 1.664174273368886 0 0 0 1:0.32437965 2:0.29863132 3:0.26854463 4:1.7453055 5:1.5357691 6:1.7875319 7:-0.72840674 8:-0.35298496 9:-0.33786767 10:1.5084494 11:1.5913921 12:1.7248321 
0 0 0 0 0 0 95.9598718469542 0 0 0 0 0 0 0 1:0.33735765 2:0.31691783 3:0.23343045 4:1.5353816 5:1.6183712 6:2.0200527 7:-0.75014454 8:-0.63684184 9:-0.13587719 10:1.3926185 11:1.4907647 12:1.9420878 
0.04665472993987998 1.036156173384707 0 0.1886634413946135 0.1181005345471402 0 0 0 0 0 0 0 0 0.03475968874549665 1:0.33407785 2:0.31781029 3:0.23662049 4:1.4186328 5:1.5228289 6:1.9637542 7:-0.78894475 8:-0.65041987 9:-0.14091968 10:1.314844 11:1.4362045 12:1.9114173 
0 0 0 0 0 0.7273566917274119 0 0 0 0 4.957327098048235 0 0 0 1:0.3311592 2:0.31656549 3:0.21232052 4:2.0919172 5:1.9560808 6:2.4345419 7:-0.57103649 8:-0.094461411 9:-0.28157934 10:1.7604404 11:1.9308097 12:2.0764813 
0 0.2200279526897734 0.4460833299941905 0 0 4.608794181897869 8.667100878301165 0 0.1635321737283561 0 6.097939037160224 1.312178532909134 0.1504131808619511 0 1:0.30288096 2:0.31878099 3:0.23537193 4:2.4328848 5:1.7375505 6:2.0561201 7:-0.49257494 8:-0.032335201 9:-0.060499763 10:1.9701549 11:1.8526077 12:1.9978102 
0 0 0 0 0 0 0 0.6503555953097079 0 0.8621334778950878 0 0 0.8008414643171828 1.562007297963874 1:0.29097566 2:0.33390799 3:0.22402793 4:2.3306685 5:1.9451342 6:2.2088226 7:-0.4247271 8:-0.069641519 9:0.029378024 10:1.9529707 11:1.9377463 12:2.1191003 
0.1179908908285832 0.9043307480286578 2.330603065663372 0.1934290583697098 0.1635029779490717 1.888160978510488 0 2.666922561003762 0.8077262280869935 0.4700523195783865 0.591146962725666 1.77805056053691 2.417103408176226 2.356783510843176 1:0.31931129 2:0.31608123 3:0.18478715 4:1.5945149 5:2.5603748 6:3 7:-0.7007398 8:0.019736607 9:0.2026431 10:1.4468876 11:2.2900557 12:2.6013216 
0.03360149644142352 0.5613309807909026 1.285089678738098 0 0 0 3.667345144171195 0.1436603183412241 0.4497597954610496 1.26259346434186 0.308067783143263 1.395684770003938 2.230139429749722 1.154361086209057 1:0.31341806 2:0.33207404 3:0.22739995 4:1.6819148 5:2.1396399 6:2.9359108 7:-0.67944099 8:-0.21904014 9:0.41415264 10:1.5012369 11:1.9602999 12:2.6750317 
0 0 0 0 0 0 0 0.2520651550644114 0.2955619333861275 0 0 0.4899541156495307 0 0 1:0.32406253 2:0.32947473 3:0.21783986 4:1.5017096 5:1.3493981 6:2.1392168 7:-0.76158372 8:-0.58538951 9:-0.09848929 10:1.3700629 11:1.3820043 12:2.0203637 
0 3.251657344178221 28.59734342198478 0 0 69.01659992215397 0 0 0 0 0 0 0 0 1:0.34728422 2:0.32050626 3:0.19337249 4:1.6057675 5:1.4684163 6:2.1720108 7:-0.79975476 8:-0.51467881 9:-0.51064737 10:1.4030064 11:1.4768688 12:1.8306817 
0 0 0 0 0 0 0 0 0 0 1.070865114554318 0 0 0 1:0.34828931 2:0.31768963 3:0.17067894 4:1.5450536 5:1.5122035 6:2.2648458 7:-0.78031846 8:-0.45340662 9:-0.44491238 10:1.3823676 11:1.5293984 12:1.9099667 
0 1.65080686582671 0 0 0 0 0 0 0 0 0 0 0 0 1:0.34203622 2:0.31672216 3:0.17378681 4:1.4911259 5:1.5622868 6:2.222084 7:-0.80059398 8:-0.49416314 9:-0.51437188 10:1.345266 11:1.5340618 12:1.8538561 
0 0 0 0 0 0 25.57246011844255 0 0 0 0 0 0 0 1:0.35215798 2:0.31830907 3:0.14556189 4:1.8283971 5:1.9762304 6:1.8457373 7:-0.71382327 8:-0.10309331 9:-0.10498488 10:1.5572869 11:1.9365686 12:1.8703762 
0 0 0 0 0 0 0 0 0 0 0.6877494728791976 0 0 0 1:0.30766943 2:0.31351978 3:0.16085608 4:1.9836387 5:1.8666772 6:1.9232103 7:-0.71295651 8:-0.10386829 9:-0.083479068 10:1.6353411 11:1.8814045 12:1.9198656 
0 0 0 0 0 0 0 0 0 0 0.4451090119356622 0 0 0 1:0.30998743 2:0.30575442 3:0.22822961 4:1.5930771 5:1.9296753 6:2.1852467 7:-0.78300031 8:-0.41101192 9:-0.1573677 10:1.4050384 11:1.7593317 12:2.0139395 
0 0 0 0 0 0 85.30346947768761 0 0 0 0 0 0 0 1:0.31661222 2:0.30287457 3:0.22825616 4:1.5520846 5:1.976883 6:2.0873387 7:-0.74075347 8:-0.36431401 9:-0.14629869 10:1.4056655 11:1.8062845 12:1.97052 
0 0 0 0.08652473129993846 0.03938515167498925 0 0 0 0 0 0 0 0 0 1:0.25637524 2:0.36005758 3:0.30571854 4:2.0382903 5:1.4637868 6:1.3822523 7:-0.32981701 8:-0.53653745 9:-0.67007541 10:1.8542367 11:1.4636247 12:1.3560885 
0 0 0 0 0 0 344.1171618845566 0 0 0 0 0 0 0 1:0.26327813 2:0.3622959 3:0.30388638 4:2.1021603 5:1.4633647 6:1.4342461 7:-0.13686121 8:-0.44212346 9:-0.655547 10:1.9826495 11:1.5106206 12:1.3893496 
0.09800068819622501 3.80804265160556 6.560319022063323 0.7690201229238205 0.5376107290733805 30.68306329564876 114.3918580406547 0 0 0.05223654276083405 0 0 0.06183317777703469 0.09344550246330591 1:0.28086555 2:0.30409968 3:0.3200927 4:1.6839899 5:1.4124467 6:1.6432982 7:-0.43314486 8:-0.26629889 9:-0.7840496 10:1.6254225 11:1.5730739 12:1.4296243 
0 0 0 0 0 0 102.6905791040549 0 0 0 1.752679438137419 0 0 0 1:0.26854463 2:0.29863132 3:0.32437965 4:1.7875319 5:1.5357691 6:1.7453055 7:-0.33786767 8:-0.35298496 9:-0.72840674 10:1.7248321 11:1.5913921 12:1.5084494 
0 0 0 0 0 0 93.66067802084103 0 0 0 0 0 0 0 1:0.23343045 2:0.31691783 3:0.33735765 4:2.0200527 5:1.6183712 6:1.5353816 7:-0.13587719 8:-0.63684184 9:-0.75014454 10:1.9420878 11:1.4907647 12:1.3926185 
0.06023791970279822 1.021052830514365 0 0.1500530223294824 0.2050419844070225 0 0 0.02362973710034808 0 0 0 0 0 0.009147825143158754 1:0.23662049 2:0.31781029 3:0.33407785 4:1.9637542 5:1.5228289 6:1.4186328 7:-0.14091968 8:-0.65041987 9:-0.78894475 10:1.9114173 11:1.4362045 12:1.314844 
0 0 0 0 0 0.8288108980891472 0 0 0 0 5.005663919752994 0 0 0 1:0.21232052 2:0.31656549 3:0.3311592 4:2.4345419 5:1.9560808 6:2.0919172 7:-0.28157934 8:-0.094461411 9:-0.57103649 10:2.0764813 11:1.9308097 12:1.7604404 
0 0.2196146182067317 0.5008277282165594 0 0 4.556048499496076 9.184205120423362 0 0.1843982044276666 0 6.060215832408608 1.340629499053553 0.1600778932098368 0 1:0.23537193 2:0.31878099 3:0.30288096 4:2.0561201 5:1.7375505 6:2.4328848 7:-0.060499763 8:-0.032335201 9:-0.49257494 10:1.9978102 11:1.8526077 12:1.9701549 
0 0 0 0 0 0 0 0.6010920124079517 0 0.7732986160394365 0 0 0.7938832442272255 1.526406726563692 1:0.22402793 2:0.33390799 3:0.29097566 4:2.2088226 5:1.9451342 6:2.3306685 7:0.029378024 8:-0.069641519 9:-0.4247271 10:2.1191003 11:1.9377463 12:1.9529707 
0.1306036801224967 0.9065296604722961 2.347651800283376 0.195118754707342 0.1635943533740773 1.880650261527091 0 2.66189601564944 0.7993752393763045 0.487237234935441 0.6166089771564378 1.765129560407611 2.413260596240248 2.34912742267182 1:0.18478715 2:0.31608123 3:0.31931129 4:3 5:2.5603748 6:1.5945149 7:0.2026431 8:0.019736607 9:-0.7007398 10:2.6013216 11:2.2900557 12:1.4468876 
0.02331186549349083 0.5560981713172304 1.276442150083219 0 0 0 3.620039575334942 0.143011390464064 0.4581454459755195 1.247913555390897 0.293145879993166 1.401509858404383 2.226984680537439 1.16210875507575 1:0.22739995 2:0.33207404 3:0.31341806 4:2.9359108 5:2.1396399 6:1.6819148 7:0.41415264 8:-0.21904014 9:-0.67944099 10:2.6750317 11:1.9602999 12:1.5012369 
0 0 0 0 0 0 0 0.2661978845445544 0.2847665854208923 0 0 0.4705395108396321 0 0 1:0.21783986 2:0.32947473 3:0.32406253 4:2.1392168 5:1.3493981 6:1.5017096 7:-0.09848929 8:-0.58538951 9:-0.76158372 10:2.0203637 11:1.3820043 12:1.3700629 
0 3.003260786147789 28.35729383569869 0 0 68.20915060927837 0 0 0 0 0 0 0 0 1:0.19337249 2:0.32050626 3:0.34728422 4:2.1720108 5:1.4684163 6:1.6057675 7:-0.51064737 8:-0.51467881 9:-0.79975476 10:1.8306817 11:1.4768688 12:1.4030064 
0 0 0 0 0 0 0 0 0 0 1.05141383953762 0 0 0 1:0.17067894 2:0.31768963 3:0.34828931 4:2.2648458 5:1.5122035 6:1.5450536 7:-0.44491238 8:-0.45340662 9:-0.78031846 10:1.9099667 11:1.5293984 12:1.3823676 
0 1.805761984537732 0 0 0 0 0 0 0 0 0 0 0 0 1:0.17378681 2:0.31672216 3:0.34203622 4:2.222084 5:1.5622868 6:1.4911259 7:-0.51437188 8:-0.49416314 9:-0.80059398 10:1.8538561 11:1.5340618 12:1.345266 
0 0 0 0 0 0 25.48447857843573 0 0 0 0 0 0 0 1:0.14556189 2:0.31830907 3:0.35215798 4:1.8457373 5:1.9762304 6:1.8283971 7:-0.10498488 8:-0.10309331 9:-0.71382327 10:1.8703762 11:1.9365686 12:1.5572869 
0 0 0 0 0 0 0 0 0 0 0.7116901701476334 0 0 0 1:0.16085608 2:0.31351978 3:0.30766943 4:1.9232103 5:1.8666772 6:1.9836387 7:-0.083479068 8:-0.10386829 9:-0.71295651 10:1.9198656 11:1.8814045 12:1.6353411 
0 0 0 0 0 0 0 0 0 0 0.4498376466147975 0 0 0 1:0.22822961 2:0.30575442 3:0.30998743 4:2.1852467 5:1.9296753 6:1.5930771 7:-0.1573677 8:-0.41101192 9:-0.78300031 10:2.0139395 11:1.7593317 12:1.4050384 
0 0 0 0 0 0 85.11387841297481 0 0 0 0 0 0 0 1:0.22825616 2:0.30287457 3:0.31661222 4:2.0873387 5:1.976883 6:1.5520846 7:-0.14629869 8:-0.36431401 9:-0.74075347 10:1.97052 11:1.8062845 12:1.4056655 
0 0 0 0.0999869589050536 0.1579712894587319 0 0 0 0 0 0 0 0 0 1:0.25637524 2:0.30571854 3:0.36005758 4:2.0382903 5:1.3822523 6:1.4637868 7:-0.32981701 8:-0.67007541 9:-0.53653745 10:1.8542367 11:1.3560885 12:1.4636247 
0 0 0 0 0 0 345.3646644630287 0 0 0 0 0 0 0 1:0.26327813 2:0.30388638 3:0.3622959 4:2.1021603 5:1.4342461 6:1.4633647 7:-0.13686121 8:-0.655547 9:-0.44212346 10:1.9826495 11:1.3893496 12:1.5106206 
0.1256497139240548 3.662039913607464 6.203684866069902 0.7089205690862942 0.4836110433475218 29.90711769290687 117.5658411392369 0 0 0.04212033695360554 0 0 0.04208825460033776 0.07176064118713212 1:0.28086555 2:0.3200927 3:0.30409968 4:1.6839899 5:1.6432982 6:1.4124467 7:-0.43314486 8:-0.7840496 9:-0.26629889 10:1.6254225 11:1.4296243 12:1.5730739 
0 0 0 0 0 0 90.99788015597268 0 0 0 1.765449896616567 0 0 0 1:0.26854463 2:0.32437965 3:0.29863132 4:1.7875319 5:1.7453055 6:1.5357691 7:-0.33786767 8:-0.72840674 9:-0.35298496 10:1.7248321 11:1.5084494 12:1.5913921 
0 0 0 0 0 0 96.27309259224462 0 0 0 0 0 0 0 1:0.23343045 2:0.33735765 3:0.31691783 4:2.0200527 5:1.5353816 6:1.6183712 7:-0.13587719 8:-0.75014454 9:-0.63684184 10:1.9420878 11:1.3926185 12:1.4907647 
0.03999078102833125 0.7981614622861287 0 0.1699637302953487 0.1149923259354776 0 0 0.001394832117330047 0 0 0 0 0 0.02033272789039563 1:0.23662049 2:0.33407785 3:0.31781029 4:1.9637542 5:1.4186328 6:1.5228289 7:-0.14091968 8:-0.78894475 9:-0.65041987 10:1.9114173 11:1.314844 12:1.4362045 
0 0 0 0 0 0.7226490223627348 0 0 0 0 5.032083870149135 0 0 0 1:0.21232052 2:0.3311592 3:0.31656549 4:2.4345419 5:2.0919172 6:1.9560808 7:-0.28157934 8:-0.57103649 9:-0.094461411 10:2.0764813 11:1.7604404 12:1.9308097 
0 0.2246164304892495 0.4471303742379252 0 0 4.612133890618012 8.649369831135221 0 0.1622130834204431 0 5.995233926606749 1.312695097685453 0.1807236987624472 0 1:0.23537193 2:0.30288096 3:0.31878099 4:2.0561201 5:2.4328848 6:1.7375505 7:-0.060499763 8:-0.49257494 9:-0.032335201 10:1.9978102 11:1.9701549 12:1.8526077 
0 0 0 0 0 0 0 0.648661041534938 0 0.8675177542090127 0 0 0.7842313708587351 1.564223146888032 1:0.22402793 2:0.29097566 3:0.33390799 4:2.2088226 5:2.3306685 6:1.9451342 7:0.029378024 8:-0.4247271 9:-0.069641519 10:2.1191003 11:1.9529707 12:1.9377463 
0.1168292390711727 0.8976991036929056 2.331472734841046 0.1934366875553438 0.1640883132983619 1.887813783957015 0 2.665189163236741 0.8096722732171714 0.4706603235043093 0.6103557726108135 1.782056209311639 2.409895226163397 2.370714220846306 1:0.18478715 2:0.31931129 3:0.31608123 4:3 5:1.5945149 6:2.5603748 7:0.2026431 8:-0.7007398 9:0.019736607 10:2.6013216 11:1.4468876 12:2.2900557 
0.03456354627528717 0.564479678099966 1.285051986622029 0 0 0 3.660909560610062 0.142345990902667 0.4488152938802972 1.264387429171739 0.2957865161275734 1.388222087075189 2.230328634453953 1.145696971570293 1:0.22739995 2:0.31341806 3:0.33207404 4:2.9359108 5:1.6819148 6:2.1396399 7:0.41415264 8:-0.67944099 9:-0.21904014 10:2.6750317 11:1.5012369 12:1.9602999 
0 0 0 0 0 0 0 0.251829265187453 0.2979593071970029 0 0 0.4935785654981941 0 0 1:0.21783986 2:0.32406253 3:0.32947473 4:2.1392168 5:1.5017096 6:1.3493981 7:-0.09848929 8:-0.76158372 9:-0.58538951 10:2.0203637 11:1.3700629 12:1.3820043 
0 3.019592271121896 28.60324216713703 0 0 69.02627670280663 0 0 0 0 0 0 0 0 1:0.19337249 2:0.34728422 3:0.32050626 4:2.1720108 5:1.6057675 6:1.4684163 7:-0.51064737 8:-0.79975476 9:-0.51467881 10:1.8306817 11:1.4030064 12:1.4768688 
0 0 0 0 0 0 0 0 0 0 1.016540942978164 0 0 0 1:0.17067894 2:0.34828931 3:0.31768963 4:2.2648458 5:1.5450536 6:1.5122035 7:-0.44491238 8:-0.78031846 9:-0.45340662 10:1.9099667 11:1.3823676 12:1.5293984 
0 1.93220912450395 0 0 0 0 0 0 0 0 0 0 0 0 1:0.17378681 2:0.34203622 3:0.31672216 4:2.222084 5:1.4911259 6:1.5622868 7:-0.51437188 8:-0.80059398 9:-0.49416314 10:1.8538561 11:1.345266 12:1.5340618 
0 0 0 0 0 0 25.783149417442 0 0 0 0 0 0 0 1:0.14556189 2:0.35215798 3:0.31830907 4:1.8457373 5:1.8283971 6:1.9762304 7:-0.10498488 8:-0.71382327 9:-0.10309331 10:1.8703762 11:1.5572869 12:1.9365686 
0 0 0 0 0 0 0 0 0 0 0.7817976576265997 0 0 0 1:0.16085608 2:0.30766943 3:0.31351978 4:1.9232103 5:1.9836387 6:1.8666772 7:-0.083479068 8:-0.71295651 9:-0.10386829 10:1.9198656 11:1.6353411 12:1.8814045 
0 0 0 0 0 0 0 0 0 0 0.4366115643630855 0 0 0 1:0.22822961 2:0.30998743 3:0.30575442 4:2.1852467 5:1.5930771 6:1.9296753 7:-0.1573677 8:-0.78300031 9:-0.41101192 10:2.0139395 11:1.4050384 12:1.7593317 
0 0 0 0 0 0 84.72400233930961 0 0 0 0 0 0 0 1:0.22825616 2:0.31661222 3:0.30287457 4:2.0873387 5:1.5520846 6:1.976883 7:-0.14629869 8:-0.74075347 9:-0.36431401 10:1.97052 11:1.4056655 12:1.8062845 
0 0 0 0.08343483465754216 0.04600683460639359 0 0 0 0 0 0 0 0 0 1:0.36005758 2:0.30571854 3:0.25637524 4:1.4637868 5:1.3822523 6:2.0382903 7:-0.53653745 8:-0.67007541 9:-0.32981701 10:1.4636247 11:1.3560885 12:1.8542367 
0 0 0 0 0 0 344.3131896995536 0 0 0 0 0 0 0 1:0.3622959 2:0.30388638 3:0.26327813 4:1.4633647 5:1.4342461 6:2.1021603 7:-0.44212346 8:-0.655547 9:-0.13686121 10:1.5106206 11:1.3893496 12:1.9826495 
0.09723014543650219 3.79103671249549 6.559171978494518 0.7729536531392849 0.580063015398631 30.67706830094458 113.5616382740889 0 0 0.04969607456125172 0 0 0.07310125232006644 0.06725330704364142 1:0.30409968 2:0.3200927 3:0.28086555 4:1.4124467 5:1.6432982 6:1.6839899 7:-0.26629889 8:-0.7840496 9:-0.43314486 10:1.5730739 11:1.4296243 12:1.6254225 
0 0 0 0 0 0 105.1684571228419 0 0 0 1.730231318563581 0 0 0 1:0.29863132 2:0.32437965 3:0.26854463 4:1.5357691 5:1.7453055 6:1.7875319 7:-0.35298496 8:-0.72840674 9:-0.33786767 10:1.5913921 11:1.5084494 12:1.7248321 
0 0 0 0 0 0 93.05291852587007 0 0 0 0 0 0 0 1:0.31691783 2:0.33735765 3:0.23343045 4:1.6183712 5:1.5353816 6:2.0200527 7:-0.63684184 8:-0.75014454 9:-0.13587719 10:1.4907647 11:1.3926185 12:1.9420878 
0.05514072289951327 0.7779240334495995 0 0.1529078880800764 0.1929575660844906 0 0 0.02514093776349919 0 0 0 0 0 0.004326395505398538 1:0.31781029 2:0.33407785 3:0.23662049 4:1.5228289 5:1.4186328 6:1.9637542 7:-0.65041987 8:-0.78894475 9:-0.14091968 10:1.4362045 11:1.314844 12:1.9114173 
0 0 0 0 0 0.8256332412405389 0 0 0 0 4.916668877794828 0 0 0 1:0.31656549 2:0.3311592 3:0.21232052 4:1.9560808 5:2.0919172 6:2.4345419 7:-0.094461411 8:-0.57103649 9:-0.28157934 10:1.9308097 11:1.7604404 12:2.0764813 
0 0.2090434002614711 0.4985113021944996 0 0 4.558338932749734 9.196683561188518 0 0.1845851703288343 0 6.120664347060831 1.341934094870207 0.08076640299209326 0 1:0.31878099 2:0.30288096 3:0.23537193 4:1.7375505 5:2.4328848 6:2.0561201 7:-0.032335201 8:-0.49257494 9:-0.060499763 10:1.8526077 11:1.9701549 12:1.9978102 
0 0 0 0 0 0 0 0.604431616371963 0 0.7805872305124856 0 0 0.8802058669021459 1.532096211687688 1:0.33390799 2:0.29097566 3:0.22402793 4:1.9451342 5:2.3306685 6:2.2088226 7:-0.069641519 8:-0.4247271 9:0.029378024 10:1.9377463 11:1.9529707 12:2.1191003 
0.133027900206538 0.9102226386662267 2.350398356971642 0.1951740586244694 0.16443891400584 1.88149971334173 0 2.679450971296581 0.7932856294024619 0.4865341568797588 0.6120672262711109 1.778914188503879 2.432475142996285 2.354946507552867 1:0.31608123 2:0.31931129 3:0.18478715 4:2.5603748 5:1.5945149 6:3 7:0.019736607 8:-0.7007398 9:0.2026431 10:2.2900557 11:1.4468876 12:2.6013216 
0.02151812413510285 0.5569505933865507 1.274383758761564 0 0 0 3.635825234764079 0.130822729135712 0.460136593337373 1.24908148581563 0.2906762203956427 1.389599915659831 2.216140057617368 1.154963947327461 1:0.33207404 2:0.31341806 3:0.22739995 4:2.1396399 5:1.6819148 6:2.9359108 7:-0.21904014 8:-0.67944099 9:0.41415264 10:1.9602999 11:1.5012369 12:2.6750317 
0 0 0 0 0 0 0 0.2695872515385985 0.286910500583992 0 0 0.4749872788529416 0 0 1:0.32947473 2:0.32406253 3:0.21783986 4:1.3493981 5:1.5017096 6:2.1392168 7:-0.58538951 8:-0.76158372 9:-0.09848929 10:1.3820043 11:1.3700629 12:2.0203637 
0 3.074549855119722 28.36250161055783 0 0 68.22652655556803 0 0 0 0 0 0 0 0 1:0.32050626 2:0.34728422 3:0.19337249 4:1.4684163 5:1.6057675 6:2.1720108 7:-0.51467881 8:-0.79975476 9:-0.51064737 10:1.4768688 11:1.4030064 12:1.8306817 
0 0 0 0 0 0 0 0 0 0 1.024288531116854 0 0 0 1:0.31768963 2:0.34828931 3:0.17067894 4:1.5122035 5:1.5450536 6:2.2648458 7:-0.45340662 8:-0.78031846 9:-0.44491238 10:1.5293984 11:1.3823676 12:1.9099667 
0 1.826033598976967 0 0 0 0 0 0 0 0 0 0 0 0 1:0.31672216 2:0.34203622 3:0.17378681 4:1.5622868 5:1.4911259 6:2.222084 7:-0.49416314 8:-0.80059398 9:-0.51437188 10:1.5340618 11:1.345266 12:1.8538561 
0 0 0 0 0 0 25.34763973699988 0 0 0 0 0 0 0 1:0.31830907 2:0.35215798 3:0.14556189 4:1.9762304 5:1.8283971 6:1.8457373 7:-0.10309331 8:-0.71382327 9:-0.10498488 10:1.9365686 11:1.5572869 12:1.8703762 
0 0 0 0 0 0 0 0 0 0 0.6028663241243468 0 0 0 1:0.31351978 2:0.30766943 3:0.16085608 4:1.8666772 5:1.9836387 6:1.9232103 7:-0.10386829 8:-0.71295651 9:-0.083479068 10:1.8814045 11:1.6353411 12:1.9198656 
0 0 0 0 0 0 0 0 0 0 0.513913267726313 0 0 0 1:0.30575442 2:0.30998743 3:0.22822961 4:1.9296753 5:1.5930771 6:2.1852467 7:-0.41101192 8:-0.78300031 9:-0.1573677 10:1.7593317 11:1.4050384 12:2.0139395 
0 0 0 0 0 0 85.66601410604528 0 0 0 0 0 0 0 1:0.30287457 2:0.31661222 3:0.22825616 4:1.976883 5:1.5520846 6:2.0873387 7:-0.36431401 8:-0.74075347 9:-0.14629869 10:1.8062845 11:1.4056655 12:1.97052 
0 0 0 0.1533857986593942 0.08617828390882716 0 0 0 0 0 0 0 0 0 1:0.36005758 2:0.25637524 3:0.30571854 4:1.4637868 5:2.0382903 6:1.3822523 7:-0.53653745 8:-0.32981701 9:-0.67007541 10:1.4636247 11:1.8542367 12:1.3560885 
0 0 0 0 0 0 345.1800736212804 0 0 0 0 0 0 0 1:0.3622959 2:0.26327813 3:0.30388638 4:1.4633647 5:2.1021603 6:1.4342461 7:-0.44212346 8:-0.13686121 9:-0.655547 10:1.5106206 11:1.9826495 12:1.3893496 
0.1176939712091753 3.544434139220512 6.196729249553687 0.7092327369945712 0.51008715254201 29.91569068190954 117.2168154739213 0 0 0.03997673268983681 0 0 0.05448689089172398 0.04843209105005226 1:0.30409968 2:0.28086555 3:0.3200927 4:1.4124467 5:1.6839899 6:1.6432982 7:-0.26629889 8:-0.43314486 9:-0.7840496 10:1.5730739 11:1.6254225 12:1.4296243 
0 0 0 0 0 0 92.24792177260434 0 0 0 1.681701980272108 0 0 0 1:0.29863132 2:0.26854463 3:0.32437965 4:1.5357691 5:1.7875319 6:1.7453055 7:-0.35298496 8:-0.33786767 9:-0.72840674 10:1.5913921 11:1.7248321 12:1.5084494 
0 0 0 0 0 0 95.46392547511155 0 0 0 0 0 0 0 1:0.31691783 2:0.23343045 3:0.33735765 4:1.6183712 5:2.0200527 6:1.5353816 7:-0.63684184 8:-0.13587719 9:-0.75014454 10:1.4907647 11:1.9420878 12:1.3926185 
0.04323775354545534 0.8362507309635557 0 0.1319036032756547 0.2004549180327156 0 0 0.003872575723281438 0 0 0 0 0 0.008922365025148402 1:0.31781029 2:0.23662049 3:0.33407785 4:1.5228289 5:1.9637542 6:1.4186328 7:-0.65041987 8:-0.14091968 9:-0.78894475 10:1.4362045 11:1.9114173 12:1.314844 
0 0 0 0 0 0.7181827557557711 0 0 0 0 4.961828162951555 0 0 0 1:0.31656549 2:0.21232052 3:0.3311592 4:1.9560808 5:2.4345419 6:2.0919172 7:-0.094461411 8:-0.28157934 9:-0.57103649 10:1.9308097 11:2.0764813 12:1.7604404 
0 0.2118216245566287 0.4451542288758135 0 0 4.615363253337283 8.682346258114659 0 0.1624676295370878 0 6.041939098264806 1.314427868817082 0.1004604173957159 0 1:0.31878099 2:0.23537193 3:0.30288096 4:1.7375505 5:2.0561201 6:2.4328848 7:-0.032335201 8:-0.060499763 9:-0.49257494 10:1.8526077 11:1.9978102 12:1.9701549 
0 0 0 0 0 0 0 0.6552616527209544 0 0.8690972476357795 0 0 0.869712260588642 1.564737642573934 1:0.33390799 2:0.22402793 3:0.29097566 4:1.9451342 5:2.2088226 6:2.3306685 7:-0.069641519 8:0.029378024 9:-0.4247271 10:1.9377463 11:2.1191003 12:1.9529707 
0.1187105743102902 0.9072126977992592 2.333969579307334 0.1934074964607609 0.1644204051713757 1.889580672687031 0 2.683297933577161 0.8026417677708971 0.4688855059679466 0.5982864378206678 1.793142126479432 2.430447298868721 2.371282608626256 1:0.31608123 2:0.18478715 3:0.31931129 4:2.5603748 5:3 6:1.5945149 7:0.019736607 8:0.2026431 9:-0.7007398 10:2.2900557 11:2.6013216 12:1.4468876 
0.03342470117294753 0.5595768889484806 1.283430034508666 0 0 0 3.650118805801438 0.1280576518969268 0.453289453699501 1.265182498760824 0.3132606952245055 1.38250177224931 2.218711570392231 1.149542565287585 1:0.33207404 2:0.22739995 3:0.31341806 4:2.1396399 5:2.9359108 6:1.6819148 7:-0.21904014 8:0.41415264 9:-0.67944099 10:1.9602999 11:2.6750317 12:1.5012369 
0 0 0 0 0 0 0 0.2584881085890697 0.297265365764175 0 0 0.4877875211652457 0 0 1:0.32947473 2:0.21783986 3:0.32406253 4:1.3493981 5:2.1392168 6:1.5017096 7:-0.58538951 8:-0.09848929 9:-0.76158372 10:1.3820043 11:2.0203637 12:1.3700629 
0 3.445776255099849 28.60559559293872 0 0 68.98714670028544 0 0 0 0 0 0 0 0 1:0.32050626 2:0.19337249 3:0.34728422 4:1.4684163 5:2.1720108 6:1.6057675 7:-0.51467881 8:-0.51064737 9:-0.79975476 10:1.4768688 11:1.8306817 12:1.4030064 
0 0 0 0 0 0 0 0 0 0 1.082518191975056 0 0 0 1:0.31768963 2:0.17067894 3:0.34828931 4:1.5122035 5:2.2648458 6:1.5450536 7:-0.45340662 8:-0.44491238 9:-0.78031846 10:1.5293984 11:1.9099667 12:1.3823676 
0 1.548030049017822 0 0 0 0 0 0 0 0 0 0 0 0 1:0.31672216 2:0.17378681 3:0.34203622 4:1.5622868 5:2.222084 6:1.4911259 7:-0.49416314 8:-0.51437188 9:-0.80059398 10:1.5340618 11:1.8538561 12:1.345266 
0 0 0 0 0 0 25.55989818867189 0 0 0 0 0 0 0 1:0.31830907 2:0.14556189 3:0.35215798 4:1.9762304 5:1.8457373 6:1.8283971 7:-0.10309331 8:-0.10498488 9:-0.71382327 10:1.9365686 11:1.8703762 12:1.5572869 
0 0 0 0 0 0 0 0 0 0 0.6939246356947162 0 0 0 1:0.31351978 2:0.16085608 3:0.30766943 4:1.8666772 5:1.9232103 6:1.9836387 7:-0.10386829 8:-0.083479068 9:-0.71295651 10:1.8814045 11:1.9198656 12:1.6353411 
0 0 0 0 0 0 0 0 0 0 0.4375891364557001 0 0 0 1:0.30575442 2:0.22822961 3:0.30998743 4:1.9296753 5:2.1852467 6:1.5930771 7:-0.41101192 8:-0.1573677 9:-0.78300031 10:1.7593317 11:2.0139395 12:1.4050384 
0 0 0 0 0 0 85.42930675555992 0 0 0 0 0 0 0 1:0.30287457 2:0.22825616 3:0.31661222 4:1.976883 5:2.0873387 6:1.5520846 7:-0.36431401 8:-0.14629869 9:-0.74075347 10:1.8062845 11:1.97052 12:1.4056655 
-0 0 0 0 0 0 0 0.0009378716536217736 0 0.001214504918521122 0 0 0 0 1:0.35192002 2:0.33864258 3:0.34109811 4:0.9953273 5:1.0039637 6:1.0012374 7:-0.99292526 8:-0.99728535 9:-0.99679823 10:1.001201 11:1.0033392 12:1.0022196 
-0 58.35204656028797 0 0 16.01921768720596 0 0 0 0 0 0 0 0 0 1:0.35077411 2:0.34213718 3:0.33979527 4:0.99868147 5:1.0076052 6:1.006386 7:-0.98983547 8:-0.99128306 9:-0.994202 10:1.004423 11:1.0081611 12:1.006092 
-0 0 0 5.900927665010422 0 0 0 0 0 0 0 0 0 0 1:0.35044773 2:0.34453114 3:0.3422072 4:0.99924249 5:1.0041145 6:1.0049446 7:-0.99189208 8:-0.98824803 9:-0.99036582 10:1.0036752 11:1.0079332 12:1.0072894 
-0 0 0 0 0 0 0 0.09960601841083956 0 0.1090529466884513 0 0 0 0 1:0.35192002 2:0.34109811 3:0.33864258 4:0.9953273 5:1.0012374 6:1.0039637 7:-0.99292526 8:-0.99679823 9:-0.99728535 10:1.001201 11:1.0022196 12:1.0033392 
-0.5545446570476895 0 0 0 0 0.506980514497247 0.8313603816894553 0 0 0 0 0 0 0 1:0.35077411 2:0.33979527 3:0.34213718 4:0.99868147 5:1.006386 6:1.0076052 7:-0.98983547 8:-0.994202 9:-0.99128306 10:1.004423 11:1.006092 12:1.0081611 
-0 0 0.8192000923903815 0 0 0 0 0 0 0 0 0.4997399847472729 0 0 1:0.35044773 2:0.3422072 3:0.34453114 4:0.99924249 5:1.0049446 6:1.0041145 7:-0.99189208 8:-0.99036582 9:-0.98824803 10:1.0036752 11:1.0072894 12:1.0079332 
-0 0 0 0 0 0 0 0.2175334727298471 0.2332397556153386 0.2067873917548849 0.2582493746212819 0 0.2300177587447238 0.2284298787078302 1:0.35306801 2:0.34206457 3:0.33813424 4:0.99689479 5:1.0048716 6:1.0099023 7:-0.99148409 8:-0.99356054 9:-0.99058236 10:1.0027053 11:1.0056555 12:1.00966 
-0 25.73720546041042 0 0 8.391503110920899 0.9108007675399795 0 0 0 0 0 0 0 0 1:0.34213718 2:0.33979527 3:0.35077411 4:1.0076052 5:1.006386 6:0.99868147 7:-0.99128306 8:-0.994202 9:-0.98983547 10:1.0081611 11:1.006092 12:1.004423 
-0 0 0.003576597226778407 1.419638948364613 0 0 0 0 0 0 0 0 0 0 1:0.34453114 2:0.3422072 3:0.35044773 4:1.0041145 5:1.0049446 6:0.99924249 7:-0.98824803 8:-0.99036582 9:-0.99189208 10:1.0079332 11:1.0072894 12:1.0036752 
-0.007270394923400466 23.29367681424884 0 0 0 1.498373671083596 0.613980058145827 0 0 0 0 0 0 0 1:0.34213718 2:0.35077411 3:0.33979527 4:1.0076052 5:0.99868147 6:1.006386 7:-0.99128306 8:-0.98983547 9:-0.994202 10:1.0081611 11:1.004423 12:1.006092 
-0 0 1.178939258908113 4.336898127664929 0 0 0 0 0 0 0 0 0 0 1:0.34453114 2:0.35044773 3:0.3422072 4:1.0041145 5:0.99924249 6:1.0049446 7:-0.98824803 8:-0.99189208 9:-0.99036582 10:1.0079332 11:1.0036752 12:1.0072894 
-0 0 0 0 0 0 0 0.06781349776035722 0 0.07106620346948649 0 0 0 0 1:0.33813424 2:0.35306801 3:0.34206457 4:1.0099023 5:0.99689479 6:1.0048716 7:-0.99058236 8:-0.99148409 9:-0.99356054 10:1.00966 11:1.0027053 12:1.0056555 
-0 0 0 3.477997492103071 12.69523153635048 0 0.05798116442229009 0 0 0 0 0 0 0 1:0.33979527 2:0.35077411 3:0.34213718 4:1.006386 5:0.99868147 6:1.0076052 7:-0.994202 8:-0.98983547 9:-0.99128306 10:1.006092 11:1.004423 12:1.0081611 
-0.2404313777012571 0 0 0 0 0 0 0.6588061763297846 0.5656969332997229 0.6494186180518528 0.7828365925159295 0.3381789434401682 0.6052793495107399 0.6095670109246795 1:0.34206457 2:0.35306801 3:0.33813424 4:1.0048716 5:0.99689479 6:1.0099023 7:-0.99356054 8:-0.99148409 9:-0.99058236 10:1.0056555 11:1.0027053 12:1.00966 
-1.074921787144184 56.86885925616885 0 0.6354723518007094 0.10109323320288 0 0.7401145648405147 0 0 0 0 0 0 0 1:0.33979527 2:0.34213718 3:0.35077411 4:1.006386 5:1.0076052 6:0.99868147 7:-0.994202 8:-0.99128306 9:-0.98983547 10:1.006092 11:1.0081611 12:1.004423 
-0 0 0.7319203407022652 0.07606962229840125 0 0 0 0 0 0 0 0 0 0 1:0.3422072 2:0.34453114 3:0.35044773 4:1.0049446 5:1.0041145 6:0.99924249 7:-0.99036582 8:-0.98824803 9:-0.99189208 10:1.0072894 11:1.0079332 12:1.0036752 
-0 0 0 0 0 0 0 0.7668231067665712 0.9991437020630153 0.7597735688556758 0.7999468814587516 1.049145491942553 1.003123004748351 1.011688015274443 1:0.34206457 2:0.33813424 3:0.35306801 4:1.0048716 5:1.0099023 6:0.99689479 7:-0.99356054 8:-0.99058236 9:-0.99148409 10:1.0056555 11:1.00966 12:1.0027053 
-0 -0 0 1368.455317029571 0 0 0 0 0 0 0 0 0 0 1:0.54732377 2:0.11593588 3:0.40556318 4:1.0257132 5:1.3245624 6:1.0906278 7:-0.54420725 8:-0.97978611 9:-0.812878 10:1.240753 11:1.1723881 12:1.1388749 
-4.567456301858242 -0 23.91624211773313 26.6060327190336 0 46.4763212769441 12.89803177304062 0 0 0 0 0 0 0 1:0.57539901 2:0.10487855 3:0.39776588 4:1.2591833 5:1.4702931 6:1.9185451 7:-0.62105 8:-0.8269562 9:-0.67663881 10:1.3190667 11:1.3216685 12:1.6209531 
-0 -41.1556304819133 0 636.3433812241831 110.3299930144132 0.1774869373155737 0 0.03881740583193914 0.05291748887830362 0.06532164855374187 0 0 0.2883338911219967 0.3320101327815017 1:0.35091361 2:0.32840085 3:0.33974684 4:1.0456155 5:1.0504667 6:1.0375072 7:-0.92426415 8:-0.98306858 9:-0.96906461 10:1.0606757 11:1.033699 12:1.0342213 
-0 -0 0 0 32.35382470009496 0 0 0 0 0 0 0 0 0 1:0.58748688 2:0.13457773 3:0.43889005 4:1.0630924 5:1.2913304 6:1.0717421 7:-0.71231307 8:-0.89127378 9:-0.81823508 10:1.1753897 11:1.2000283 12:1.1267535 
-6.615262042422631 -0 15.56953420414474 0 0 0 4.527239472829939 0.6391664749499321 0.578694751983039 0.6136668898219476 2.11240820625497 1.040101274955737 0.7966419469579229 0.7502484160694071 1:0.66486891 2:-0.23697594 3:0.3248537 4:1.4389119 5:1.9971397 6:1.8586826 7:-0.49247806 8:-0.7346469 9:-0.1139227 10:1.4732169 11:1.6312464 12:1.87238 
-0 -0 11.24586060328714 0 0 0 0 0 0 0 0 0.04951641430615081 0 0 1:0.61124581 2:0.17438142 3:0.35409546 4:1.0758781 5:1.4146039 6:1.1230481 7:-0.28020272 8:-0.78144167 9:-0.76497683 10:1.3978377 11:1.3165811 12:1.1790357 
-0 -0 6.084962931563495 0 0 0 0 0 0 0 0 0 0 0 1:0.61541484 2:0.15834497 3:0.33672781 4:1.1058593 5:1.6446136 6:1.2389282 7:-0.45513504 8:-0.80909587 9:-0.77275216 10:1.3253621 11:1.4177589 12:1.233088 
-0 -0 0 965.4270743996927 23.24643932184813 3.075757970750079 0 0 0 0 0 0 0 0 1:0.54728062 2:0.14327435 3:0.31296609 4:1.2389674 5:1.4755467 6:1.1201797 7:-0.50513223 8:-0.91205763 9:-0.91212647 10:1.3669176 11:1.2817445 12:1.1040266 
-0 -0 0 3291.059808412891 0.571599003731581 0 0 0 0 0 0 0 0 0 1:0.57115488 2:0.12028712 3:0.30065519 4:1.0994993 5:1.3808028 6:1.1313369 7:-0.5293561 8:-0.92618223 9:-0.92140129 10:1.2850716 11:1.2273103 12:1.1049678 
-0 -0 2.356426881845341 769.6727034478241 0 3.603244905259663 3.530439323049979 0 0 0 0 0 0 0 1:0.56512994 2:0.12322833 3:0.30301561 4:1.1783647 5:1.5543126 6:1.1910923 7:-0.33609337 8:-0.82469957 9:-0.73561665 10:1.4211357 11:1.3648065 12:1.2277378 
-0 -0 0 1367.024881434963 0 0 0 0 0 0 0 0 0 0 1:0.54732377 2:0.40556318 3:0.11593588 4:1.0257132 5:1.0906278 6:1.3245624 7:-0.54420725 8:-0.812878 9:-0.97978611 10:1.240753 11:1.1388749 12:1.1723881 
-4.571917334727615 -0 23.84927448467681 26.39875095603552 0 46.57328016435849 12.75864422660231 0 0 0 0 0 0 0 1:0.57539901 2:0.39776588 3:0.10487855 4:1.2591833 5:1.9185451 6:1.4702931 7:-0.62105 8:-0.67663881 9:-0.8269562 10:1.3190667 11:1.6209531 12:1.3216685 
-0 -12.9377223879033 0 592.5961254650836 28.64462991977268 0 0 0.3726989123854834 0.3387048996251172 0.2155170405886084 0.1489681899553222 0.4151231330031364 0.1121161208625048 0 1:0.35091361 2:0.33974684 3:0.32840085 4:1.0456155 5:1.0375072 6:1.0504667 7:-0.92426415 8:-0.96906461 9:-0.98306858 10:1.0606757 11:1.0342213 12:1.033699 
-0 -0 0 0 31.48117473654223 0 0 0 0 0 0 0 0 0 1:0.58748688 2:0.43889005 3:0.13457773 4:1.0630924 5:1.0717421 6:1.2913304 7:-0.71231307 8:-0.81823508 9:-0.89127378 10:1.1753897 11:1.1267535 12:1.2000283 
-6.609976147857277 -0 15.58379061403675 0 0 0 4.537681669201934 0.6379084428334007 0.5755999454775628 0.6120165823382916 2.107540987419595 1.044118673176102 0.7950952437811476 0.747863811791846 1:0.66486891 2:0.3248537 3:-0.23697594 4:1.4389119 5:1.8586826 6:1.9971397 7:-0.49247806 8:-0.1139227 9:-0.7346469 10:1.4732169 11:1.87238 12:1.6312464 
-0 -0 10.87120369152853 0 0 0 0 0 0 0 0 0.06089287330928764 0 0 1:0.61124581 2:0.35409546 3:0.17438142 4:1.0758781 5:1.1230481 6:1.4146039 7:-0.28020272 8:-0.76497683 9:-0.78144167 10:1.3978377 11:1.1790357 12:1.3165811 
-0 -0 5.465575840094221 0 0 0 0 0 0 0 0 0 0 0 1:0.61541484 2:0.33672781 3:0.15834497 4:1.1058593 5:1.2389282 6:1.6446136 7:-0.45513504 8:-0.77275216 9:-0.80909587 10:1.3253621 11:1.233088 12:1.4177589 
-0 -0 0 964.7785559017764 23.28037042287656 2.951136526842705 0 0 0 0 0 0 0 0 1:0.54728062 2:0.31296609 3:0.14327435 4:1.2389674 5:1.1201797 6:1.4755467 7:-0.50513223 8:-0.91212647 9:-0.91205763 10:1.3669176 11:1.1040266 12:1.2817445 
-0 -0 0 3297.713393864014 0.641005708861848 0 0 0 0 0 0 0 0 0 1:0.57115488 2:0.30065519 3:0.12028712 4:1.0994993 5:1.1313369 6:1.3808028 7:-0.5293561 8:-0.92140129 9:-0.92618223 10:1.2850716 11:1.1049678 12:1.2273103 
-0 -0 3.187072229509964 769.4398461390498 0 3.756793055780482 3.469853879376198 0 0 0 0 0 0 0 1:0.56512994 2:0.30301561 3:0.12322833 4:1.1783647 5:1.1910923 6:1.5543126 7:-0.33609337 8:-0.73561665 9:-0.82469957 10:1.4211357 11:1.2277378 12:1.3648065 
-0 -0 0 1369.559334666755 0 0 0 0 0 0 0 0 0 0 1:0.11593588 2:0.40556318 3:0.54732377 4:1.3245624 5:1.0906278 6:1.0257132 7:-0.97978611 8:-0.812878 9:-0.54420725 10:1.1723881 11:1.1388749 12:1.240753 
-4.572843918682512 -0 23.8960578273343 26.57566697579035 0 46.51807683842073 12.89966295734743 0 0 0 0 0 0 0 1:0.10487855 2:0.39776588 3:0.57539901 4:1.4702931 5:1.9185451 6:1.2591833 7:-0.8269562 8:-0.67663881 9:-0.62105 10:1.3216685 11:1.6209531 12:1.3190667 
-0 -12.72235741056324 0 642.5959740458056 115.1522135501793 0.05941109177623893 0 0.0006854575223846561 0 0 0 0.2181972972970616 0.2417724005638617 0.007907368850069039 1:0.32840085 2:0.33974684 3:0.35091361 4:1.0504667 5:1.0375072 6:1.0456155 7:-0.98306858 8:-0.96906461 9:-0.92426415 10:1.033699 11:1.0342213 12:1.0606757 
-0 -0 0 0 33.24513770071441 0 0 0 0 0 0 0 0 0 1:0.13457773 2:0.43889005 3:0.58748688 4:1.2913304 5:1.0717421 6:1.0630924 7:-0.89127378 8:-0.81823508 9:-0.71231307 10:1.2000283 11:1.1267535 12:1.1753897 
-6.611437228066485 -0 15.56140169059502 0 0 0 4.526845201184777 0.6381788026359875 0.5774938677799966 0.6148628744706196 2.112815265323678 1.040672384062422 0.7967874809113743 0.7514868640465239 1:-0.23697594 2:0.3248537 3:0.66486891 4:1.9971397 5:1.8586826 6:1.4389119 7:-0.7346469 8:-0.1139227 9:-0.49247806 10:1.6312464 11:1.87238 12:1.4732169 
-0 -0 11.30281169698406 0 0 0 0 0 0 0 0 0.04256785906002476 0 0 1:0.17438142 2:0.35409546 3:0.61124581 4:1.4146039 5:1.1230481 6:1.0758781 7:-0.78144167 8:-0.76497683 9:-0.28020272 10:1.3165811 11:1.1790357 12:1.3978377 
-0 -0 6.127775805424447 0 0 0 0 0 0 0 0 0 0 0 1:0.15834497 2:0.33672781 3:0.61541484 4:1.6446136 5:1.2389282 6:1.1058593 7:-0.80909587 8:-0.77275216 9:-0.45513504 10:1.4177589 11:1.233088 12:1.3253621 
-0 -0 0 965.3094684339301 23.39296398786914 3.077557090647228 0 0 0 0 0 0 0 0 1:0.14327435 2:0.31296609 3:0.54728062 4:1.4755467 5:1.1201797 6:1.2389674 7:-0.91205763 8:-0.91212647 9:-0.50513223 10:1.2817445 11:1.1040266 12:1.3669176 
-0 -0 0 3292.180132155881 0.252819972632668 0 0 0 0 0 0 0 0 0 1:0.12028712 2:0.30065519 3:0.57115488 4:1.3808028 5:1.1313369 6:1.0994993 7:-0.92618223 8:-0.92140129 9:-0.5293561 10:1.2273103 11:1.1049678 12:1.2850716 
-0 -0 2.29635204343709 769.6988792828697 0 3.570566366837277 3.528643964828824 0 0 0 0 0 0 0 1:0.12322833 2:0.30301561 3:0.56512994 4:1.5543126 5:1.1910923 6:1.1783647 7:-0.82469957 8:-0.73561665 9:-0.33609337 10:1.3648065 11:1.2277378 12:1.4211357 
-0 -0 0 1366.314530332047 0 0 0 0 0 0 0 0 0 0 1:0.11593588 2:0.54732377 3:0.40556318 4:1.3245624 5:1.0257132 6:1.0906278 7:-0.97978611 8:-0.54420725 9:-0.812878 10:1.1723881 11:1.240753 12:1.1388749 
-4.552509581872599 -0 23.83193260431213 26.32709390508106 0 46.53320117498841 12.7593333929357 0 0 0 0 0 0 0 1:0.10487855 2:0.57539901 3:0.39776588 4:1.4702931 5:1.2591833 6:1.9185451 7:-0.8269562 8:-0.62105 9:-0.67663881 10:1.3216685 11:1.3190667 12:1.6209531 
-0 -39.84050763395381 0 582.738569058249 39.94919839477068 0.1643356152990061 0 0.4153716775436731 0.436806927228147 0.09373487815723189 0.1974372674932162 0.2923658848949982 0.1426170092244589 0 1:0.32840085 2:0.35091361 3:0.33974684 4:1.0504667 5:1.0456155 6:1.0375072 7:-0.98306858 8:-0.92426415 9:-0.96906461 10:1.033699 11:1.0606757 12:1.0342213 
-0 -0 0 0 32.23919993345323 0 0 0 0 0 0 0 0 0 1:0.13457773 2:0.58748688 3:0.43889005 4:1.2913304 5:1.0630924 6:1.0717421 7:-0.89127378 8:-0.71231307 9:-0.81823508 10:1.2000283 11:1.1753897 12:1.1267535 
-6.6186719728565 -0 15.58059005301066 0 0 0 4.53828343304082 0.6379261049921023 0.5762623602537167 0.6122628711784203 2.107701122742526 1.044347714281568 0.7958365961480267 0.7494685842029741 1:-0.23697594 2:0.66486891 3:0.3248537 4:1.9971397 5:1.4389119 6:1.8586826 7:-0.7346469 8:-0.49247806 9:-0.1139227 10:1.6312464 11:1.4732169 12:1.87238 
-0 -0 10.91483501720316 0 0 0 0 0 0 0 0 0.060827341756084 0 0 1:0.17438142 2:0.61124581 3:0.35409546 4:1.4146039 5:1.0758781 6:1.1230481 7:-0.78144167 8:-0.28020272 9:-0.76497683 10:1.3165811 11:1.3978377 12:1.1790357 
-0 -0 5.49203287124742 0 0 0 0 0 0 0 0 0 0 0 1:0.15834497 2:0.61541484 3:0.33672781 4:1.6446136 5:1.1058593 6:1.2389282 7:-0.80909587 8:-0.45513504 9:-0.77275216 10:1.4177589 11:1.3253621 12:1.233088 
-0 -0 0 965.106348362859 23.3661157877976 2.940293248023299 0 0 0 0 0 0 0 0 1:0.14327435 2:0.54728062 3:0.31296609 4:1.4755467 5:1.2389674 6:1.1201797 7:-0.91205763 8:-0.50513223 9:-0.91212647 10:1.2817445 11:1.3669176 12:1.1040266 
-0 -0 0 3295.771999498423 0.445635723861656 0 0 0 0 0 0 0 0 0 1:0.12028712 2:0.57115488 3:0.30065519 4:1.3808028 5:1.0994993 6:1.1313369 7:-0.92618223 8:-0.5293561 9:-0.92140129 10:1.2273103 11:1.2850716 12:1.1049678 
-0 -0 3.147646358975745 769.4268694542528 0 3.789234892635702 3.468535174221925 0 0 0 0 0 0 0 1:0.12322833 2:0.56512994 3:0.30301561 4:1.5543126 5:1.1783647 6:1.1910923 7:-0.82469957 8:-0.33609337 9:-0.73561665 10:1.3648065 11:1.4211357 12:1.2277378 
-0 -0 0 1369.827088915232 0 0 0 0 0 0 0 0 0 0 1:0.40556318 2:0.54732377 3:0.11593588 4:1.0906278 5:1.0257132 6:1.3245624 7:-0.812878 8:-0.54420725 9:-0.97978611 10:1.1388749 11:1.240753 12:1.1723881 
-4.550838674127544 -0 23.91921076918873 26.58827756771264 0 46.46933792002521 12.8976657335613 0 0 0 0 0 0 0 1:0.39776588 2:0.57539901 3:0.10487855 4:1.9185451 5:1.2591833 6:1.4702931 7:-0.67663881 8:-0.62105 9:-0.8269562 10:1.6209531 11:1.3190667 12:1.3216685 
-0 -22.23311813166468 0 645.1976734711461 95.14992647743571 0.0008001822810716793 0 0 0 0.3138780891007107 0 0 0.2781889724196094 0.50656308251856 1:0.33974684 2:0.35091361 3:0.32840085 4:1.0375072 5:1.0456155 6:1.0504667 7:-0.96906461 8:-0.92426415 9:-0.98306858 10:1.0342213 11:1.0606757 12:1.033699 
-0 -0 0 0 33.72119605817075 0 0 0 0 0 0 0 0 0 1:0.43889005 2:0.58748688 3:0.13457773 4:1.0717421 5:1.0630924 6:1.2913304 7:-0.81823508 8:-0.71231307 9:-0.89127378 10:1.1267535 11:1.1753897 12:1.2000283 
-6.621867167033511 -0 15.55893071311549 0 0 0 4.526826079899428 0.6391225065311297 0.5782298542607727 0.6152386185512369 2.114475264674516 1.040394046910109 0.797258778938934 0.7514218370855635 1:0.3248537 2:0.66486891 3:-0.23697594 4:1.8586826 5:1.4389119 6:1.9971397 7:-0.1139227 8:-0.49247806 9:-0.7346469 10:1.87238 11:1.4732169 12:1.6312464 
-0 -0 11.15842643543886 0 0 0 0 0 0 0 0 0.04833843640248765 0 0 1:0.35409546 2:0.61124581 3:0.17438142 4:1.1230481 5:1.0758781 6:1.4146039 7:-0.76497683 8:-0.28020272 9:-0.78144167 10:1.1790357 11:1.3978377 12:1.3165811 
-0 -0 6.139141499136785 0 0 0 0 0 0 0 0 0 0 0 1:0.33672781 2:0.61541484 3:0.15834497 4:1.2389282 5:1.1058593 6:1.6446136 7:-0.77275216 8:-0.45513504 9:-0.80909587 10:1.233088 11:1.3253621 12:1.4177589 
-0 -0 0 965.7435789648569 23.27201439110296 3.101602868757629 0 0 0 0 0 0 0 0 1:0.31296609 2:0.54728062 3:0.14327435 4:1.1201797 5:1.2389674 6:1.4755467 7:-0.91212647 8:-0.50513223 9:-0.91205763 10:1.1040266 11:1.3669176 12:1.2817445 
-0 -0 0 3292.306577287516 0.2207089677535484 0 0 0 0 0 0 0 0 0 1:0.30065519 2:0.57115488 3:0.12028712 4:1.1313369 5:1.0994993 6:1.3808028 7:-0.92140129 8:-0.5293561 9:-0.92618223 10:1.1049678 11:1.2850716 12:1.2273103 
-0 -0 2.438472341670143 769.8035355798112 0 3.58626089919611 3.530389903369306 0 0 0 0 0 0 0 1:0.30301561 2:0.56512994 3:0.12322833 4:1.1910923 5:1.1783647 6:1.5543126 7:-0.73561665 8:-0.33609337 9:-0.82469957 10:1.2277378 11:1.4211357 12:1.3648065 
-0 -0 0 1367.542314656072 0 0 0 0 0 0 0 0 0 0 1:0.40556318 2:0.11593588 3:0.54732377 4:1.0906278 5:1.3245624 6:1.0257132 7:-0.812878 8:-0.97978611 9:-0.54420725 10:1.1388749 11:1.1723881 12:1.240753 
-4.553763001744526 -0 23.85263944825028 26.35693300728456 0 46.52474288347059 12.75783874410922 0 0 0 0 0 0 0 1:0.39776588 2:0.10487855 3:0.57539901 4:1.9185451 5:1.4702931 6:1.2591833 7:-0.67663881 8:-0.8269562 9:-0.62105 10:1.6209531 11:1.3216685 12:1.3190667 
-0 -35.36245204511774 0 587.2278806337735 18.06558288748758 0.005761760904750874 0 0.3808191029395791 0.374216077090005 0.4752176316881301 0.2036984882939897 0.1140599913122736 0.1586934277560126 0.3795240906387593 1:0.33974684 2:0.32840085 3:0.35091361 4:1.0375072 5:1.0504667 6:1.0456155 7:-0.96906461 8:-0.98306858 9:-0.92426415 10:1.0342213 11:1.033699 12:1.0606757 
-0 -0 0 0 32.54113894391922 0 0 0 0 0 0 0 0 0 1:0.43889005 2:0.13457773 3:0.58748688 4:1.0717421 5:1.2913304 6:1.0630924 7:-0.81823508 8:-0.89127378 9:-0.71231307 10:1.1267535 11:1.2000283 12:1.1753897 
-6.619562961532531 -0 15.57966558441533 0 0 0 4.535809078629886 0.6381946531836568 0.5762138075343887 0.6127047067261596 2.108861364882147 1.043160227875592 0.7956542374578043 0.7491569679099831 1:0.3248537 2:-0.23697594 3:0.66486891 4:1.8586826 5:1.9971397 6:1.4389119 7:-0.1139227 8:-0.7346469 9:-0.49247806 10:1.87238 11:1.6312464 12:1.4732169 
-0 -0 10.7497473445151 0 0 0 0 0 0 0 0 0.07052241749189332 0 0 1:0.35409546 2:0.17438142 3:0.61124581 4:1.1230481 5:1.4146039 6:1.0758781 7:-0.76497683 8:-0.78144167 9:-0.28020272 10:1.1790357 11:1.3165811 12:1.3978377 
-0 -0 5.494589499209114 0 0 0 0 0 0 0 0 0 0 0 1:0.33672781 2:0.15834497 3:0.61541484 4:1.2389282 5:1.6446136 6:1.1058593 7:-0.77275216 8:-0.80909587 9:-0.45513504 10:1.233088 11:1.4177589 12:1.3253621 
-0 -0 0 965.0245040579873 23.11193564857255 2.961967472894662 0 0 0 0 0 0 0 0 1:0.31296609 2:0.14327435 3:0.54728062 4:1.1201797 5:1.4755467 6:1.2389674 7:-0.91212647 8:-0.91205763 9:-0.50513223 10:1.1040266 11:1.2817445 12:1.3669176 
-0 -0 0 3297.773760542352 0.6075050562284393 0 0 0 0 0 0 0 0 0 1:0.30065519 2:0.12028712 3:0.57115488 4:1.1313369 5:1.3808028 6:1.0994993 7:-0.92140129 8:-0.92618223 9:-0.5293561 10:1.1049678 11:1.2273103 12:1.2850716 
-0 -0 3.330395099362519 769.7943097985178 0 3.785015194835735 3.472432784904211 0 0 0 0 0 0 0 1:0.30301561 2:0.12322833 3:0.56512994 4:1.1910923 5:1.5543126 6:1.1783647 7:-0.73561665 8:-0.82469957 9:-0.33609337 10:1.2277378 11:1.3648065 12:1.4211357 
-0 -0.07308670841442413 -20.18327789645226 5.722459255068206 2.351728921237693 6.606900633379628 0.7764493896362221 0 0.09306983908759373 0 0 0 0 0 1:0.46504094 2:-0.1767583 3:0.43080733 4:1.2595295 5:1.9207477 6:1.2993795 7:-0.49581508 8:-0.82914094 9:-0.7212932 10:1.3818572 11:1.5458034 12:1.2890431 
-2.821888393417565 -0 -0.862302245936696 0 0 15.35165089186384 0 0 0 0 0 0 0 0 1:0.53615663 2:0.29076536 3:0.34550961 4:1.8510195 5:2.4851861 6:1.3813836 7:-0.23049155 8:-0.45307011 9:-0.6785467 10:1.810264 11:2.016058 12:1.3514184 
-0 -0.03213032216400587 -0 0 0 0 0 3.119616559449952 1.851406043746434 1.740865147125795 1.811833947710422 6.030835131460339 9.126360580983864 8.344493200405713 1:0.60024073 2:0.19415381 3:0.31207292 4:1.8268777 5:3 6:1.7354397 7:0.33078064 8:-0.29149098 9:-0.79910571 10:2.0788292 11:2.3542545 12:1.468167 
-0 -0.08310556496835195 -0.08262149638655059 0 0 0 0 15.89844958983642 2.618310537514294 6.712331333592497 2.148349586211814 10.93887000179328 14.92675998662645 6.872106717381172 1:0.02658204 2:0.70895419 3:0.47273761 4:3 5:2.1930578 6:1.5657691 7:0.58967639 8:0.52996181 9:0.067413439 10:2.7948382 11:2.3615098 12:1.8165913 
-0 -0 -5.3999940208821 0 0 0 7.106588866554411 0 0 0 0 0 0 0 1:0.56437173 2:0.38522417 3:0.11168479 4:1.5131365 5:1.4143127 6:1.6743434 7:0.062732941 8:-0.54412516 9:-0.79906798 10:1.7879347 11:1.4350938 12:1.4376377 
-1.926906754821716 -0 -0 0 0 51.93720367624413 0 0 0 0 1.723162320615917 0 0 0 1:0.46533417 2:0.30426075 3:0.26372388 4:1.4823594 5:2.4231159 6:1.471737 7:-0.066954567 8:-0.67575982 9:-0.54313756 10:1.7077024 11:1.8736781 12:1.4642997 
-0 -0 -0 0 0 0 0 0 0.2643700084743991 0.1754561848980089 0 0.498924451862132 0.09951979591709305 0.286512084381625 1:0.67994065 2:0.29052259 3:0.33298733 4:1.1647622 5:1.3847073 6:1.1681196 7:0.034007536 8:-0.69974609 9:-0.61790775 10:1.5993849 11:1.3424806 12:1.2751059 
-0 -0.01917171793213598 -0 0 0 0 0 0.2155260437898317 0 0 0 0 0.04658891458886001 0 1:0.75817937 2:0.23477472 3:0.33379728 4:1.0498772 5:1.286163 6:1.188934 7:-0.21914721 8:-0.61133007 9:-0.59765516 10:1.415365 11:1.3374164 12:1.2956394 
-15.46036584042277 -0 -1.48941239917477 0 0 74.07251332843035 42.82269924757892 0 0 0 0 0 0 0 1:0.58096295 2:0.1848227 3:0.36779584 4:1.5590849 5:1.7856964 6:1.3847512 7:-0.47091514 8:-0.59196973 9:-0.50195276 10:1.5440849 11:1.5968634 12:1.4413992 
-0 -0 -0 0 0 0 0 0 0 0.2468410211050839 0.7925550607138122 0.1104815521541633 0 0 1:0.60860644 2:0.2959942 3:0.46257044 4:1.6184936 5:1.9734007 6:1.1490111 7:0.052296146 8:-0.66951915 9:-0.42692969 10:1.8353949 11:1.6519408 12:1.3610407 
-0 -0 -0 0 0 0.379544893124238 0.3195314687859355 0 0 0 1.938986715277974 0.5377702310052219 0 0 1:0.57192494 2:-0.083778244 3:0.36183983 4:2.6182284 5:2.5468687 6:1.4219887 7:-0.29231695 8:-0.67187725 9:-0.63880428 10:2.1629557 11:1.9374957 12:1.3915922 
-1.323857765884478 -0 -0.73563133569187 0 0 0 8.067576774893233 0 0 0.3025604870054924 5.053012756810617 0.1672860951773447 2.23686910688647 0 1:0.59293724 2:0.24864016 3:0.17997382 4:1.5976149 5:2.972845 6:1.9910877 7:-0.19555098 8:-0.14238297 9:-0.56319997 10:1.701032 11:2.415231 12:1.7139439 
-0.1460125443436696 -0 -0 0 0 3.92766983389724 0 0 0 0 0 0 0 0 1:0.32458843 2:-0.084939028 3:0.20571749 4:1.5196066 5:2.7051898 6:1.8503974 7:-0.51052449 8:-0.7170726 9:-0.63082551 10:1.5045411 11:1.9940586 12:1.609786 
-0 -0 -0 0 0 0.817774423327542 2.921577796611823 0 0 0 0 0.2344075911132796 0 0 1:0.65754991 2:0.21607041 3:0.28604037 4:1.4430585 5:1.5913997 6:1.2966936 7:-0.16688166 8:-0.074301622 9:-0.61295957 10:1.6380884 11:1.758549 12:1.341867 
-0 -0.1687300254218785 -19.81707755907794 3.974179479222995 2.191673117933946 0 0 0 0 0 0 0 0 0 1:0.75877497 2:0.31042528 3:0.37650098 4:1.2470502 5:1.511403 6:1.2091912 7:-0.47744643 8:-0.54371319 9:-0.76001948 10:1.3848019 11:1.4838449 12:1.2245859 
-2.803662786036003 -0 -3.800014826139704 0 0 1.638969875502968 0 0 0 0.004826630517428735 0 0 0 0 1:0.5691426 2:-0.082833387 3:0.10970007 4:1.2108533 5:2.0851412 6:2.2137886 7:-0.10358277 8:-0.62808961 9:-0.78693081 10:1.5536353 11:1.7285258 12:1.7134289 
-13.16632434646278 -0 -6.672322923209062 0 0 72.00067170198277 7.434302234186585 0 0 0 0 0 0 0 1:0.18135995 2:0.26311985 3:0.32997033 4:1.5142735 5:2.3562685 6:1.7790683 7:-0.91406036 8:-0.61439482 9:-0.75004257 10:1.3001066 11:1.8709368 12:1.5145129 
-1.239343100836509 -0 -0 0 0 0 0 0 0 0 0 0 0 0 1:0.56759586 2:-0.11256233 3:0.51051882 4:1.3951232 5:2.0473862 6:1.2666833 7:-0.54426027 8:-0.5886215 9:-0.60558753 10:1.4254315 11:1.7293824 12:1.3305479 
-0 -0.03355510562522281 -20.14983146344834 5.742121462759192 2.350962983157984 6.607974779975641 0.7410721506610624 0 0.07070533732003602 0 0 0 0 0 1:0.46504094 2:0.43080733 3:-0.1767583 4:1.2595295 5:1.2993795 6:1.9207477 7:-0.49581508 8:-0.7212932 9:-0.82914094 10:1.3818572 11:1.2890431 12:1.5458034 
-2.849300475001181 -0 -0.8470685815335436 0 0 15.03907886347906 0 0 0 0 0 0 0 0 1:0.53615663 2:0.34550961 3:0.29076536 4:1.8510195 5:1.3813836 6:2.4851861 7:-0.23049155 8:-0.6785467 9:-0.45307011 10:1.810264 11:1.3514184 12:2.016058 
-0 -0.03353149110385676 -0 0 0 0 0 3.11988546887151 1.850755001276415 1.742014056206325 1.804314096295296 6.031050852907532 9.12258101513368 8.335690449964865 1:0.60024073 2:0.31207292 3:0.19415381 4:1.8268777 5:1.7354397 6:3 7:0.33078064 8:-0.79910571 9:-0.29149098 10:2.0788292 11:1.468167 12:2.3542545 
-0 -0.08519027638561551 -0.0838937749499749 0 0 0 0 15.88899049315454 2.616919651669865 6.713403120892403 2.147482942623831 10.93403495344023 14.9330723922528 6.877429952789874 1:0.02658204 2:0.47273761 3:0.70895419 4:3 5:1.5657691 6:2.1930578 7:0.58967639 8:0.067413439 9:0.52996181 10:2.7948382 11:1.8165913 12:2.3615098 
-0 -0 -5.346387688664684 0 0 0 7.053036871562728 0 0 0 0 0 0 0 1:0.56437173 2:0.11168479 3:0.38522417 4:1.5131365 5:1.6743434 6:1.4143127 7:0.062732941 8:-0.79906798 9:-0.54412516 10:1.7879347 11:1.4376377 12:1.4350938 
-1.901544835428659 -0 -0 0 0 52.10262956349781 0 0 0 0 1.746899887310964 0 0 0 1:0.46533417 2:0.26372388 3:0.30426075 4:1.4823594 5:1.471737 6:2.4231159 7:-0.066954567 8:-0.54313756 9:-0.67575982 10:1.7077024 11:1.4642997 12:1.8736781 
-0 -0 -0 0 0 0 0 0 0.2911815078500039 0.2125043479926594 0 0.5219635655023763 0.06618313922934919 0.2910510239448574 1:0.67994065 2:0.33298733 3:0.29052259 4:1.1647622 5:1.1681196 6:1.3847073 7:0.034007536 8:-0.61790775 9:-0.69974609 10:1.5993849 11:1.2751059 12:1.3424806 
-0 -0.2449109742026156 -0 0 0 0 0 0.1798914252066671 0 0 0 0 0.1545505209197046 0.007496463197837416 1:0.75817937 2:0.33379728 3:0.23477472 4:1.0498772 5:1.188934 6:1.286163 7:-0.21914721 8:-0.59765516 9:-0.61133007 10:1.415365 11:1.2956394 12:1.3374164 
-15.72899064734957 -0 -1.795824890906917 0 0 74.74463356153213 42.30230520626708 0 0 0 0 0 0 0 1:0.58096295 2:0.36779584 3:0.1848227 4:1.5590849 5:1.3847512 6:1.7856964 7:-0.47091514 8:-0.50195276 9:-0.59196973 10:1.5440849 11:1.4413992 12:1.5968634 
-0 -0 -0 0 0 0 0 0 0 0.2339136020804959 0.7668683762784225 0.09718506685171134 0 0 1:0.60860644 2:0.46257044 3:0.2959942 4:1.6184936 5:1.1490111 6:1.9734007 7:0.052296146 8:-0.42692969 9:-0.66951915 10:1.8353949 11:1.3610407 12:1.6519408 
-0 -0 -0 0 0 0.3928861749860275 0.3292122084224201 0 0 0 1.942277058083724 0.5413813539417047 0 0 1:0.57192494 2:0.36183983 3:-0.083778244 4:2.6182284 5:1.4219887 6:2.5468687 7:-0.29231695 8:-0.63880428 9:-0.67187725 10:2.1629557 11:1.3915922 12:1.9374957 
-1.327178745928603 -0 -0.7285415002080473 0 0 0 8.070587703405673 0 0 0.3076323103656359 5.057709388418416 0.1648657455845144 2.242053958959239 0 1:0.59293724 2:0.17997382 3:0.24864016 4:1.5976149 5:1.9910877 6:2.972845 7:-0.19555098 8:-0.56319997 9:-0.14238297 10:1.701032 11:1.7139439 12:2.415231 
-0.07790622715260748 -0 -0 0 0 3.794756211764915 0 0 0 0 0 0 0 0 1:0.32458843 2:0.20571749 3:-0.084939028 4:1.5196066 5:1.8503974 6:2.7051898 7:-0.51052449 8:-0.63082551 9:-0.7170726 10:1.5045411 11:1.609786 12:1.9940586 
-0 -0 -0 0 0 0.8540985255142111 2.870080788665103 0 0 0 0 0.2323713426835248 0 0 1:0.65754991 2:0.28604037 3:0.21607041 4:1.4430585 5:1.2966936 6:1.5913997 7:-0.16688166 8:-0.61295957 9:-0.074301622 10:1.6380884 11:1.341867 12:1.758549 
-0 -0.1342491842404747 -19.62392428380509 4.074053242685856 2.175754530703573 0 0 0 0 0 0 0 0 0 1:0.75877497 2:0.37650098 3:0.31042528 4:1.2470502 5:1.2091912 6:1.511403 7:-0.47744643 8:-0.76001948 9:-0.54371319 10:1.3848019 11:1.2245859 12:1.4838449 
-2.845711806682102 -0 -3.819879283549582 0 0 1.663410146874059 0 0 0 0.01778307515663446 0 0 0 0 1:0.5691426 2:0.10970007 3:-0.082833387 4:1.2108533 5:2.2137886 6:2.0851412 7:-0.10358277 8:-0.78693081 9:-0.62808961 10:1.5536353 11:1.7134289 12:1.7285258 
-13.22272121404279 -0 -6.664128250725231 0 0 72.60426759004881 7.391908051382398 0 0 0 0 0 0 0 1:0.18135995 2:0.32997033 3:0.26311985 4:1.5142735 5:1.7790683 6:2.3562685 7:-0.91406036 8:-0.75004257 9:-0.61439482 10:1.3001066 11:1.5145129 12:1.8709368 
-1.064224749426529 -0 -0 0 0 0 0 0 0 0 0 0 0 0 1:0.56759586 2:0.51051882 3:-0.11256233 4:1.3951232 5:1.2666833 6:2.0473862 7:-0.54426027 8:-0.60558753 9:-0.5886215 10:1.4254315 11:1.3305479 12:1.7293824 
-0 -0.0735807260100762 -20.2174338934346 5.737571818728896 2.369649364516579 6.656569074889289 0.7711658802643583 0 0.09671404534199064 0 0 0 0 0 1:-0.1767583 2:0.43080733 3:0.46504094 4:1.9207477 5:1.2993795 6:1.2595295 7:-0.82914094 8:-0.7212932 9:-0.49581508 10:1.5458034 11:1.2890431 12:1.3818572 
-2.819613370932526 -0 -0.8745221862942768 0 0 15.40230115817325 0 0 0 0 0 0 0 0 1:0.29076536 2:0.34550961 3:0.53615663 4:2.4851861 5:1.3813836 6:1.8510195 7:-0.45307011 8:-0.6785467 9:-0.23049155 10:2.016058 11:1.3514184 12:1.810264 
-0 -0.03188838194295921 -0 0 0 0 0 3.119245367573524 1.852079449873201 1.740628051111346 1.808341865919211 6.022728889421916 9.128203672197671 8.344095373694772 1:0.19415381 2:0.31207292 3:0.60024073 4:3 5:1.7354397 6:1.8268777 7:-0.29149098 8:-0.79910571 9:0.33078064 10:2.3542545 11:1.468167 12:2.0788292 
-0 -0.08380343384984614 -0.08265624238238079 0 0 0 0 15.90206683244323 2.619159400321528 6.709039167904519 2.147029460931915 10.93578567144587 14.92639734302432 6.873150563001411 1:0.70895419 2:0.47273761 3:0.02658204 4:2.1930578 5:1.5657691 6:3 7:0.52996181 8:0.067413439 9:0.58967639 10:2.3615098 11:1.8165913 12:2.7948382 
-0 -0 -5.408939338374763 0 0 0 7.090374824434914 0 0 0 0 0 0 0 1:0.38522417 2:0.11168479 3:0.56437173 4:1.4143127 5:1.6743434 6:1.5131365 7:-0.54412516 8:-0.79906798 9:0.062732941 10:1.4350938 11:1.4376377 12:1.7879347 
-1.927219948736142 -0 -0 0 0 51.89262171164448 0 0 0 0 1.720293913233488 0 0 0 1:0.30426075 2:0.26372388 3:0.46533417 4:2.4231159 5:1.471737 6:1.4823594 7:-0.67575982 8:-0.54313756 9:-0.066954567 10:1.8736781 11:1.4642997 12:1.7077024 
-0 -0 -0 0 0 0 0 0 0.2642100932981632 0.1784456832778603 0 0.4919269446428852 0.09075315209306444 0.2831835825753124 1:0.29052259 2:0.33298733 3:0.67994065 4:1.3847073 5:1.1681196 6:1.1647622 7:-0.69974609 8:-0.61790775 9:0.034007536 10:1.3424806 11:1.2751059 12:1.5993849 
-0 -0.0174847338175174 -0 0 0 0 0 0.2101518065325067 0 0 0 0 0.07203931283340082 0.0072546020049849 1:0.23477472 2:0.33379728 3:0.75817937 4:1.286163 5:1.188934 6:1.0498772 7:-0.61133007 8:-0.59765516 9:-0.21914721 10:1.3374164 11:1.2956394 12:1.415365 
-15.44163274441338 -0 -1.439498433638937 0 0 73.92050963492513 42.78891588163916 0 0 0 0 0 0 0 1:0.1848227 2:0.36779584 3:0.58096295 4:1.7856964 5:1.3847512 6:1.5590849 7:-0.59196973 8:-0.50195276 9:-0.47091514 10:1.5968634 11:1.4413992 12:1.5440849 
-0 -0 -0 0 0 0 0 0 0 0.2470864707031275 0.7909325991389231 0.1148525526842768 0 0 1:0.2959942 2:0.46257044 3:0.60860644 4:1.9734007 5:1.1490111 6:1.6184936 7:-0.66951915 8:-0.42692969 9:0.052296146 10:1.6519408 11:1.3610407 12:1.8353949 
-0 -0 -0 0 0 0.4068161131431713 0.3249544551223439 0 0 0 1.939161092977377 0.5386597117510222 0 0 1:-0.083778244 2:0.36183983 3:0.57192494 4:2.5468687 5:1.4219887 6:2.6182284 7:-0.67187725 8:-0.63880428 9:-0.29231695 10:1.9374957 11:1.3915922 12:2.1629557 
-1.324247098777862 -0 -0.731100564423984 0 0 0 8.067584926570138 0 0 0.3038110424077186 5.061920503806593 0.1741305673709594 2.237124751827784 0 1:0.24864016 2:0.17997382 3:0.59293724 4:2.972845 5:1.9910877 6:1.5976149 7:-0.14238297 8:-0.56319997 9:-0.19555098 10:2.415231 11:1.7139439 12:1.701032 
-0.143713614562404 -0 -0 0 0 3.881252556386367 0 0 0 0 0 0 0 0 1:-0.084939028 2:0.20571749 3:0.32458843 4:2.7051898 5:1.8503974 6:1.5196066 7:-0.7170726 8:-0.63082551 9:-0.51052449 10:1.9940586 11:1.609786 12:1.5045411 
-0 -0 -0 0 0 0.8476007722414009 2.914080676680081 0 0 0 0 0.2295017798480294 0 0 1:0.21607041 2:0.28604037 3:0.65754991 4:1.5913997 5:1.2966936 6:1.4430585 7:-0.074301622 8:-0.61295957 9:-0.16688166 10:1.758549 11:1.341867 12:1.6380884 
-0 -0.1744734812143201 -19.88002203056055 3.973409308931131 2.192009380009262 0 0 0 0 0 0 0 0 0 1:0.31042528 2:0.37650098 3:0.75877497 4:1.511403 5:1.2091912 6:1.2470502 7:-0.54371319 8:-0.76001948 9:-0.47744643 10:1.4838449 11:1.2245859 12:1.3848019 
-2.810119414472154 -0 -3.806026988612156 0 0 1.663478863322824 0 0 0 0.005498617481922008 0 0 0 0 1:-0.082833387 2:0.10970007 3:0.5691426 4:2.0851412 5:2.2137886 6:1.2108533 7:-0.62808961 8:-0.78693081 9:-0.10358277 10:1.7285258 11:1.7134289 12:1.5536353 
-13.17018191861309 -0 -6.681050144702742 0 0 72.14709364336279 7.43146999070012 0 0 0 0 0 0 0 1:0.26311985 2:0.32997033 3:0.18135995 4:2.3562685 5:1.7790683 6:1.5142735 7:-0.61439482 8:-0.75004257 9:-0.91406036 10:1.8709368 11:1.5145129 12:1.3001066 
-1.271096222829818 -0 -0 0 0 0 0 0 0 0 0 0 0 0 1:-0.11256233 2:0.51051882 3:0.56759586 4:2.0473862 5:1.2666833 6:1.3951232 7:-0.5886215 8:-0.60558753 9:-0.54426027 10:1.7293824 11:1.3305479 12:1.4254315 
-0 -0.03427949190415644 -20.15719209246499 5.728691351932998 2.356680251468023 6.608061588345072 0.7462869411711445 0 0.0706807087131904 0 0 0 0 0 1:-0.1767583 2:0.46504094 3:0.43080733 4:1.9207477 5:1.2595295 6:1.2993795 7:-0.82914094 8:-0.49581508 9:-0.7212932 10:1.5458034 11:1.3818572 12:1.2890431 
-2.845266084485394 -0 -0.8587782475410491 0 0 15.04743345379757 0 0 0 0 0 0 0 0 1:0.29076536 2:0.53615663 3:0.34550961 4:2.4851861 5:1.8510195 6:1.3813836 7:-0.45307011 8:-0.23049155 9:-0.6785467 10:2.016058 11:1.810264 12:1.3514184 
-0 -0.03403359132521211 -0 0 0 0 0 3.119391420278209 1.851235631808139 1.742706009830083 1.808102634148398 6.033482376222525 9.124939876794651 8.336306114314366 1:0.19415381 2:0.60024073 3:0.31207292 4:3 5:1.8268777 6:1.7354397 7:-0.29149098 8:0.33078064 9:-0.79910571 10:2.3542545 11:2.0788292 12:1.468167 
-0 -0.08469822395859027 -0.08310949137468601 0 0 0 0 15.89171429005173 2.61740971783501 6.71144798362665 2.148989867835828 10.93445609908775 14.92569091756083 6.875467496369861 1:0.70895419 2:0.02658204 3:0.47273761 4:2.1930578 5:3 6:1.5657691 7:0.52996181 8:0.58967639 9:0.067413439 10:2.3615098 11:2.7948382 12:1.8165913 
-0 -0 -5.34620772087861 0 0 0 7.077477347672827 0 0 0 0 0 0 0 1:0.38522417 2:0.56437173 3:0.11168479 4:1.4143127 5:1.5131365 6:1.6743434 7:-0.54412516 8:0.062732941 9:-0.79906798 10:1.4350938 11:1.7879347 12:1.4376377 
-1.901995364902129 -0 -0 0 0 52.08301773990782 0 0 0 0 1.743798382222016 0 0 0 1:0.30426075 2:0.46533417 3:0.26372388 4:2.4231159 5:1.4823594 6:1.471737 7:-0.67575982 8:-0.066954567 9:-0.54313756 10:1.8736781 11:1.7077024 12:1.4642997 
-0 -0 -0 0 0 0 0 0 0.2929381358777451 0.2098453392717818 0 0.5246090350278747 0.06503056454654246 0.2944458623709795 1:0.29052259 2:0.67994065 3:0.33298733 4:1.3847073 5:1.1647622 6:1.1681196 7:-0.69974609 8:0.034007536 9:-0.61790775 10:1.3424806 11:1.5993849 12:1.2751059 
-0 -0.2423907967453951 -0 0 0 0 0 0.1726895113030083 0 0 0 0 0.1555704582859584 0 1:0.23477472 2:0.75817937 3:0.33379728 4:1.286163 5:1.0498772 6:1.188934 7:-0.61133007 8:-0.21914721 9:-0.59765516 10:1.3374164 11:1.415365 12:1.2956394 
-15.75095197849899 -0 -1.733918831941382 0 0 74.81943725137248 42.34297704268637 0 0 0 0 0 0 0 1:0.1848227 2:0.58096295 3:0.36779584 4:1.7856964 5:1.5590849 6:1.3847512 7:-0.59196973 8:-0.47091514 9:-0.50195276 10:1.5968634 11:1.5440849 12:1.4413992 
-0 -0 -0 0 0 0 0 0 0 0.2346885127455609 0.7683690400479872 0.09453702930837865 0 0 1:0.2959942 2:0.60860644 3:0.46257044 4:1.9734007 5:1.6184936 6:1.1490111 7:-0.66951915 8:0.052296146 9:-0.42692969 10:1.6519408 11:1.8353949 12:1.3610407 
-0 -0 -0 0 0 0.4291302799626515 0.3227425705140852 0 0 0 1.944295135349928 0.5402941872361164 0 0 1:-0.083778244 2:0.57192494 3:0.36183983 4:2.5468687 5:2.6182284 6:1.4219887 7:-0.67187725 8:-0.29231695 9:-0.63880428 10:1.9374957 11:2.1629557 12:1.3915922 
-1.330642405937746 -0 -0.7247513176296585 0 0 0 8.071256718192521 0 0 0.3069919822883695 5.048158960057749 0.1641274672138725 2.241350221114133 0 1:0.24864016 2:0.59293724 3:0.17997382 4:2.972845 5:1.5976149 6:1.9910877 7:-0.14238297 8:-0.19555098 9:-0.56319997 10:2.415231 11:1.701032 12:1.7139439 
-0.07454567826415817 -0 -0 0 0 3.870720947474907 0 0 0 0 0 0 0 0 1:-0.084939028 2:0.32458843 3:0.20571749 4:2.7051898 5:1.5196066 6:1.8503974 7:-0.7170726 8:-0.51052449 9:-0.63082551 10:1.9940586 11:1.5045411 12:1.609786 
-0 -0 -0 0 0 0.8815454609284782 2.873443802766722 0 0 0 0 0.2370440524273048 0 0 1:0.21607041 2:0.65754991 3:0.28604037 4:1.5913997 5:1.4430585 6:1.2966936 7:-0.074301622 8:-0.16688166 9:-0.61295957 10:1.758549 11:1.6380884 12:1.341867 
-0 -0.1388364253848434 -19.68062674602847 4.077441080266129 2.171249889251597 0 0 0 0 0 0 0 0 0 1:0.31042528 2:0.75877497 3:0.37650098 4:1.511403 5:1.2470502 6:1.2091912 7:-0.54371319 8:-0.47744643 9:-0.76001948 10:1.4838449 11:1.3848019 12:1.2245859 
-2.844325150246199 -0 -3.826654571474817 0 0 1.665906956510856 0 0 0 0.01949986727128609 0 0 0 0 1:-0.082833387 2:0.5691426 3:0.10970007 4:2.0851412 5:1.2108533 6:2.2137886 7:-0.62808961 8:-0.10358277 9:-0.78693081 10:1.7285258 11:1.5536353 12:1.7134289 
-13.22252090103789 -0 -6.656789429917904 0 0 72.65965530163335 7.3975378267701 0 0 0 0 0 0 0 1:0.26311985 2:0.18135995 3:0.32997033 4:2.3562685 5:1.5142735 6:1.7790683 7:-0.61439482 8:-0.91406036 9:-0.75004257 10:1.8709368 11:1.3001066 12:1.5145129 
-1.037597241585908 -0 -0 0 0 0 0 0 0 0 0 0 0 0 1:-0.11256233 2:0.56759586 3:0.51051882 4:2.0473862 5:1.3951232 6:1.2666833 7:-0.5886215 8:-0.54426027 9:-0.60558753 10:1.7293824 11:1.4254315 12:1.3305479 
-0 -0.07541902820480909 -20.22898399540513 5.74919688132298 2.372722119364805 6.69051517681806 0.7747073013152652 0 0.0976803910485471 0 0 0 0 0 1:0.43080733 2:0.46504094 3:-0.1767583 4:1.2993795 5:1.2595295 6:1.9207477 7:-0.7212932 8:-0.49581508 9:-0.82914094 10:1.2890431 11:1.3818572 12:1.5458034 
-2.82016405794238 -0 -0.8634125625745714 0 0 15.31266184869523 0 0 0 0 0 0 0 0 1:0.34550961 2:0.53615663 3:0.29076536 4:1.3813836 5:1.8510195 6:2.4851861 7:-0.6785467 8:-0.23049155 9:-0.45307011 10:1.3514184 11:1.810264 12:2.016058 
-0 -0.03184552770833752 -0 0 0 0 0 3.119580517117064 1.852477092121769 1.740264722498892 1.812950866227519 6.023157160598587 9.130426934457526 8.344806242923825 1:0.31207292 2:0.60024073 3:0.19415381 4:1.7354397 5:1.8268777 6:3 7:-0.79910571 8:0.33078064 9:-0.29149098 10:1.468167 11:2.0788292 12:2.3542545 
-0 -0.08379465919775263 -0.08262666290579299 0 0 0 0 15.89358078646565 2.617937685269337 6.710176413239672 2.14862551283746 10.93689264184737 14.93610424294474 6.874134800942989 1:0.47273761 2:0.02658204 3:0.70895419 4:1.5657691 5:3 6:2.1930578 7:0.067413439 8:0.58967639 9:0.52996181 10:1.8165913 11:2.7948382 12:2.3615098 
-0 -0 -5.413098857350126 0 0 0 7.088338255309213 0 0 0 0 0 0 0 1:0.11168479 2:0.56437173 3:0.38522417 4:1.6743434 5:1.5131365 6:1.4143127 7:-0.79906798 8:0.062732941 9:-0.54412516 10:1.4376377 11:1.7879347 12:1.4350938 
-1.928310284523616 -0 -0 0 0 51.96762192842351 0 0 0 0 1.71957850916393 0 0 0 1:0.26372388 2:0.46533417 3:0.30426075 4:1.471737 5:1.4823594 6:2.4231159 7:-0.54313756 8:-0.066954567 9:-0.67575982 10:1.4642997 11:1.7077024 12:1.8736781 
-0 -0 -0 0 0 0 0 0 0.2618205858161096 0.1774760205251039 0 0.4984082762820645 0.1068827167461227 0.2877183868519055 1:0.33298733 2:0.67994065 3:0.29052259 4:1.1681196 5:1.1647622 6:1.3847073 7:-0.61790775 8:0.034007536 9:-0.69974609 10:1.2751059 11:1.5993849 12:1.3424806 
-0 -0.01295942333365119 -0 0 0 0 0 0.225173660383055 0 0 0 0 0.03409140365137431 0 1:0.33379728 2:0.75817937 3:0.23477472 4:1.188934 5:1.0498772 6:1.286163 7:-0.59765516 8:-0.21914721 9:-0.61133007 10:1.2956394 11:1.415365 12:1.3374164 
-15.44499375478414 -0 -1.480106780333668 0 0 73.8690275702585 42.81191713443062 0 0 0 0 0 0 0 1:0.36779584 2:0.58096295 3:0.1848227 4:1.3847512 5:1.5590849 6:1.7856964 7:-0.50195276 8:-0.47091514 9:-0.59196973 10:1.4413992 11:1.5440849 12:1.5968634 
-0 -0 -0 0 0 0 0 0 0 0.2470219211934023 0.7905973691875019 0.1076057371788746 0 0 1:0.46257044 2:0.60860644 3:0.2959942 4:1.1490111 5:1.6184936 6:1.9734007 7:-0.42692969 8:0.052296146 9:-0.66951915 10:1.3610407 11:1.8353949 12:1.6519408 
-0 -0 -0 0 0 0.414556636282228 0.3254199782163376 0 0 0 1.937095365100924 0.5424787254214568 0 0 1:0.36183983 2:0.57192494 3:-0.083778244 4:1.4219887 5:2.6182284 6:2.5468687 7:-0.63880428 8:-0.29231695 9:-0.67187725 10:1.3915922 11:2.1629557 12:1.9374957 
-1.325546269706765 -0 -0.7325238270871003 0 0 0 8.071268114780761 0 0 0.3034513355746137 5.051132204141683 0.173919296363958 2.236363224691095 0 1:0.17997382 2:0.59293724 3:0.24864016 4:1.9910877 5:1.5976149 6:2.972845 7:-0.56319997 8:-0.19555098 9:-0.14238297 10:1.7139439 11:1.701032 12:2.415231 
-0.1391229368853574 -0 -0 0 0 3.916585497718355 0 0 0 0 0 0 0 0 1:0.20571749 2:0.32458843 3:-0.084939028 4:1.8503974 5:1.5196066 6:2.7051898 7:-0.63082551 8:-0.51052449 9:-0.7170726 10:1.609786 11:1.5045411 12:1.9940586 
-0 -0 -0 0 0 0.8609691048188339 2.916196919049031 0 0 0 0 0.2301983380494038 0 0 1:0.28604037 2:0.65754991 3:0.21607041 4:1.2966936 5:1.4430585 6:1.5913997 7:-0.61295957 8:-0.16688166 9:-0.074301622 10:1.341867 11:1.6380884 12:1.758549 
-0 -0.1773486416642364 -19.83768292626393 3.958349630589098 2.193983465717817 0 0 0 0 0 0 0 0 0 1:0.37650098 2:0.75877497 3:0.31042528 4:1.2091912 5:1.2470502 6:1.511403 7:-0.76001948 8:-0.47744643 9:-0.54371319 10:1.2245859 11:1.3848019 12:1.4838449 
-2.805192376018895 -0 -3.79459189995193 0 0 1.647095325502389 0 0 0 0.002761978812326526 0 0 0 0 1:0.10970007 2:0.5691426 3:-0.082833387 4:2.2137886 5:1.2108533 6:2.0851412 7:-0.78693081 8:-0.10358277 9:-0.62808961 10:1.7134289 11:1.5536353 12:1.7285258 
-13.17009803288337 -0 -6.672691420023908 0 0 71.97246010574673 7.43357905436002 0 0 0 0 0 0 0 1:0.32997033 2:0.18135995 3:0.26311985 4:1.7790683 5:1.5142735 6:2.3562685 7:-0.75004257 8:-0.91406036 9:-0.61439482 10:1.5145129 11:1.3001066 12:1.8709368 
-1.250145166017561 -0 -0 0 0 0 0 0 0 0 0 0 0 0 1:0.51051882 2:0.56759586 3:-0.11256233 4:1.2666833 5:1.3951232 6:2.0473862 7:-0.60558753 8:-0.54426027 9:-0.5886215 10:1.3305479 11:1.4254315 12:1.7293824 
-0 -0.03639889036193744 -20.20098832292507 5.763773949368061 2.373836957462637 6.70613318688095 0.7400906302005645 0 0.07460520296007525 0 0 0 0 0 1:0.43080733 2:-0.1767583 3:0.46504094 4:1.2993795 5:1.9207477 6:1.2595295 7:-0.7212932 8:-0.82914094 9:-0.49581508 10:1.2890431 11:1.5458034 12:1.3818572 
-2.849627144728546 -0 -0.849649851867796 0 0 15.14211485291568 0 0 0 0 0 0 0 0 1:0.34550961 2:0.29076536 3:0.53615663 4:1.3813836 5:2.4851861 6:1.8510195 7:-0.6785467 8:-0.45307011 9:-0.23049155 10:1.3514184 11:2.016058 12:1.810264 
-0 -0.03363551603482694 -0 0 0 0 0 3.118942130016581 1.851889627910627 1.743534717397741 1.80560790117937 6.029819553137557 9.124685677082711 8.336374471546248 1:0.31207292 2:0.19415381 3:0.60024073 4:1.7354397 5:3 6:1.8268777 7:-0.79910571 8:-0.29149098 9:0.33078064 10:1.468167 11:2.3542545 12:2.0788292 
-0 -0.08492050205768575 -0.08293238734155883 0 0 0 0 15.89425754039582 2.616473521328034 6.712394217427375 2.14913308659878 10.94240694582701 14.92586141109624 6.874584454581273 1:0.47273761 2:0.70895419 3:0.02658204 4:1.5657691 5:2.1930578 6:3 7:0.067413439 8:0.52996181 9:0.58967639 10:1.8165913 11:2.3615098 12:2.7948382 
-0 -0 -5.348973086387968 0 0 0 7.07833852715374 0 0 0 0 0 0 0 1:0.11168479 2:0.38522417 3:0.56437173 4:1.6743434 5:1.4143127 6:1.5131365 7:-0.79906798 8:-0.54412516 9:0.062732941 10:1.4376377 11:1.4350938 12:1.7879347 
-1.894341292544896 -0 -0 0 0 52.07780025026491 0 0 0 0 1.744708949462594 0 0 0 1:0.26372388 2:0.30426075 3:0.46533417 4:1.471737 5:2.4231159 6:1.4823594 7:-0.54313756 8:-0.67575982 9:-0.066954567 10:1.4642997 11:1.8736781 12:1.7077024 
-0 -0 -0 0 0 0 0 0 0.2906178433974579 0.2091865560142449 0 0.528397376618157 0.08157979393413639 0.2946384385766564 1:0.33298733 2:0.29052259 3:0.67994065 4:1.1681196 5:1.3847073 6:1.1647622 7:-0.61790775 8:-0.69974609 9:0.034007536 10:1.2751059 11:1.3424806 12:1.5993849 
-0 -0.2388222747944122 -0 0 0 0 0 0.1878142317363239 0 0 0 0 0.1196256533964748 0 1:0.33379728 2:0.23477472 3:0.75817937 4:1.188934 5:1.286163 6:1.0498772 7:-0.59765516 8:-0.61133007 9:-0.21914721 10:1.2956394 11:1.3374164 12:1.415365 
-15.73908958816291 -0 -1.799589285036157 0 0 74.50188747521385 42.32075500324734 0 0 0 0 0 0 0 1:0.36779584 2:0.1848227 3:0.58096295 4:1.3847512 5:1.7856964 6:1.5590849 7:-0.50195276 8:-0.59196973 9:-0.47091514 10:1.4413992 11:1.5968634 12:1.5440849 
-0 -0 -0 0 0 0 0 0 0 0.2340740310509571 0.7670457192079048 0.0971691553556874 0 0 1:0.46257044 2:0.2959942 3:0.60860644 4:1.1490111 5:1.9734007 6:1.6184936 7:-0.42692969 8:-0.66951915 9:0.052296146 10:1.3610407 11:1.6519408 12:1.8353949 
-0 -0 -0 0 0 0.4098453161282804 0.3222579680933969 0 0 0 1.945983547159492 0.5417193037096407 0 0 1:0.36183983 2:-0.083778244 3:0.57192494 4:1.4219887 5:2.5468687 6:2.6182284 7:-0.63880428 8:-0.67187725 9:-0.29231695 10:1.3915922 11:1.9374957 12:2.1629557 
-1.331210672568107 -0 -0.7261928125733953 0 0 0 8.066967643255492 0 0 0.3073828842790811 5.04899595941844 0.1679318113211567 2.240491261455985 0 1:0.17997382 2:0.24864016 3:0.59293724 4:1.9910877 5:2.972845 6:1.5976149 7:-0.56319997 8:-0.14238297 9:-0.19555098 10:1.7139439 11:2.415231 12:1.701032 
-0.07311560575572443 -0 -0 0 0 3.73494459189571 0 0 0 0 0 0 0 0 1:0.20571749 2:-0.084939028 3:0.32458843 4:1.8503974 5:2.7051898 6:1.5196066 7:-0.63082551 8:-0.7170726 9:-0.51052449 10:1.609786 11:1.9940586 12:1.5045411 
-0 -0 -0 0 0 0.9053575453946717 2.87366218439903 0 0 0 0 0.2365372375101543 0 0 1:0.28604037 2:0.21607041 3:0.65754991 4:1.2966936 5:1.5913997 6:1.4430585 7:-0.61295957 8:-0.074301622 9:-0.16688166 10:1.341867 11:1.758549 12:1.6380884 
-0 -0.135361169258391 -19.62609185762046 4.063744557799948 2.170744963921076 0 0 0 0 0 0 0 0 0 1:0.37650098 2:0.31042528 3:0.75877497 4:1.2091912 5:1.511403 6:1.2470502 7:-0.76001948 8:-0.54371319 9:-0.47744643 10:1.2245859 11:1.4838449 12:1.3848019 
-2.84208043344741 -0 -3.813453947955949 0 0 1.658174152253345 0 0 0 0.01675580594620764 0 0 0 0 1:0.10970007 2:-0.082833387 3:0.5691426 4:2.2137886 5:2.0851412 6:1.2108533 7:-0.78693081 8:-0.62808961 9:-0.10358277 10:1.7134289 11:1.7285258 12:1.5536353 
-13.222777953661 -0 -6.657595125223638 0 0 72.58749107969483 7.394290891816198 0 0 0 0 0 0 0 1:0.32997033 2:0.26311985 3:0.18135995 4:1.7790683 5:2.3562685 6:1.5142735 7:-0.75004257 8:-0.61439482 9:-0.91406036 10:1.5145129 11:1.8709368 12:1.3001066 
-1.067157240186652 -0 -0 0 0 0 0 0 0 0 0 0 0 0 1:0.51051882 2:-0.11256233 3:0.56759586 4:1.2666833 5:2.0473862 6:1.3951232 7:-0.60558753 8:-0.5886215 9:-0.54426027 10:1.3305479 11:1.7293824 12:1.4254315 
-0 -0 -1343.480021297548 -0 0 0 0 0 0 0 0 0 0 0 1:0.16755649 2:0.55255424 3:0.26774972 4:1.3440069 5:1.1248857 6:1.2739289 7:-0.9573884 8:-0.38672737 9:-0.78750287 10:1.1933092 11:1.3690791 12:1.243213 
-0.07940549796069238 -0 -7.124254624728903 -3.007744011399057 0 2.130369592015543 0.8127583759858409 0 0 0 0 0 0 0 1:0.2460743 2:0.52758404 3:0.2791911 4:1.3143841 5:1.3361943 6:1.3386416 7:-0.84954444 8:-0.39383989 9:-0.84095333 10:1.2324198 11:1.4711772 12:1.2488442 
-0 -2.59631363305194 -2566.510037351682 -0 0 0 0 0.1055213483366268 0.08288857610174487 0.08811210369263231 0 0 0.08315498470073865 0.07361818824415865 1:0.11578577 2:0.55049354 3:0.36225285 4:1.2827168 5:1.0691235 6:1.0352002 7:-0.99618726 8:-0.73142459 9:-0.90552227 10:1.1432648 11:1.1688495 12:1.064839 
-0 -0 -1211.075902514321 -0 0 0 0 0 0 0 0 0 0 0 1:0.1206202 2:0.53226792 3:0.36712533 4:1.4186144 5:1.0785538 6:1.1146656 7:-0.98214304 8:-0.52311646 9:-0.79372314 10:1.2182357 11:1.2777187 12:1.1604712 
-0 -0 -0 -0 94.22458660387031 0 0 0 0 0 0 0 0 0 1:0.12004401 2:0.51232246 3:0.36066095 4:1.3482224 5:1.1287127 6:1.0631837 7:-0.91785574 8:-0.70933703 9:-0.93019227 10:1.2151833 11:1.2096878 12:1.0664957 
-0 -0 -1159.214402138032 -0 0 0 0 0 0 0 0.007586373372015082 0.1279348966039654 0 0 1:0.13839008 2:0.54535703 3:0.26721726 4:1.3793829 5:1.1289013 6:1.1304757 7:-0.88912473 8:-0.35766036 9:-0.87306624 10:1.2451291 11:1.3856205 12:1.1287048 
-0 -0 -0 -0 0 29.58006747011674 0 0 0 0 0 0 0 0 1:0.10084674 2:0.51081656 3:0.36071428 4:1.5024703 5:1.196714 6:1.3080654 7:-0.81584435 8:-0.61788276 9:-0.71766199 10:1.343313 11:1.2894156 12:1.2952017 
-0.9989973189059422 -0 -303.8879159955538 -7.106954308166061 0 0 2.383233387109281 0.3706143283201493 0.376133463712772 0.3770053031523551 0.5280532893169562 0.4090708885006747 0.4109682963016345 0.4188990069869639 1:0.085179586 2:0.52439775 3:0.36096552 4:1.8749063 5:1.1568145 6:1.1733722 7:-0.88104297 8:-0.63365064 9:-0.73725074 10:1.4969317 11:1.2615819 12:1.2180607 
-0 -0 -0 -0 23.53118238760173 0 0 0 0 0 0 0 0 0 1:0.099171115 2:0.4923768 3:0.37122235 4:1.4780042 5:1.1799243 6:1.1706062 7:-0.84742445 8:-0.74441476 9:-0.87820051 10:1.3152899 11:1.2177548 12:1.1462028 
-0 -0 -381.3646548443372 -0 0 0 0 0 0 0 0 0 0 0 1:0.14507423 2:0.53938922 3:0.39939388 4:1.3595244 5:1.3805392 6:1.1736714 7:-0.76003783 8:-0.57292348 9:-0.89944374 10:1.2997433 11:1.4038079 12:1.1371138 
-0 -0 -63.83691146375908 -0 4.730105608647842 9.59282748412007 0 0 0 0 0 0 0 0 1:0.15124712 2:0.54347313 3:0.38150925 4:1.4918045 5:1.4456976 6:1.200957 7:-0.75684102 8:-0.66343502 9:-0.84531517 10:1.3674818 11:1.3911313 12:1.1778209 
-0 -0 -1346.641128432459 -0 0 0 0 0 0 0 0 0 0 0 1:0.16755649 2:0.26774972 3:0.55255424 4:1.3440069 5:1.2739289 6:1.1248857 7:-0.9573884 8:-0.78750287 9:-0.38672737 10:1.1933092 11:1.243213 12:1.3690791 
-0.2931422612112105 -0 -6.80259428409842 -2.142439988510295 0 1.423231865663799 1.000099856671707 0 0 0 0 0 0 0 1:0.2460743 2:0.2791911 3:0.52758404 4:1.3143841 5:1.3386416 6:1.3361943 7:-0.84954444 8:-0.84095333 9:-0.39383989 10:1.2324198 11:1.2488442 12:1.4711772 
-0 -2.666519762497571 -2566.575432262622 -0 0 0 0 0.02370604679671202 0.04683601809203562 0.03993271414860224 0 0 0.02253894603592685 0.03712696235850687 1:0.11578577 2:0.36225285 3:0.55049354 4:1.2827168 5:1.0352002 6:1.0691235 7:-0.99618726 8:-0.90552227 9:-0.73142459 10:1.1432648 11:1.064839 12:1.1688495 
-0 -0 -1209.793391375673 -0 0 0 0 0 0 0 0 0 0 0 1:0.1206202 2:0.36712533 3:0.53226792 4:1.4186144 5:1.1146656 6:1.0785538 7:-0.98214304 8:-0.79372314 9:-0.52311646 10:1.2182357 11:1.1604712 12:1.2777187 
-0 -0 -0 -0 93.49807016101163 0 0 0 0 0 0 0 0 0 1:0.12004401 2:0.36066095 3:0.51232246 4:1.3482224 5:1.0631837 6:1.1287127 7:-0.91785574 8:-0.93019227 9:-0.70933703 10:1.2151833 11:1.0664957 12:1.2096878 
-0 -0 -1159.485229423764 -0 0 0 0 0 0 0 0.0133147167258772 0.08070708787759801 0 0 1:0.13839008 2:0.26721726 3:0.54535703 4:1.3793829 5:1.1304757 6:1.1289013 7:-0.88912473 8:-0.87306624 9:-0.35766036 10:1.2451291 11:1.1287048 12:1.3856205 
-0 -0 -0 -0 0 28.62626461264945 0 0 0 0 0 0 0 0 1:0.10084674 2:0.36071428 3:0.51081656 4:1.5024703 5:1.3080654 6:1.196714 7:-0.81584435 8:-0.71766199 9:-0.61788276 10:1.343313 11:1.2952017 12:1.2894156 
-0.9893196048826877 -0 -303.1710811176399 -6.919954612893811 0 0 2.320607450436957 0.4196647789285365 0.4032838595354693 0.4039425915144789 0.5264863233064711 0.4734721554826813 0.4470281175893222 0.4403949719402021 1:0.085179586 2:0.36096552 3:0.52439775 4:1.8749063 5:1.1733722 6:1.1568145 7:-0.88104297 8:-0.73725074 9:-0.63365064 10:1.4969317 11:1.2180607 12:1.2615819 
-0 -0 -0 -0 28.59030918868636 0 0 0 0 0 0 0 0 0 1:0.099171115 2:0.37122235 3:0.4923768 4:1.4780042 5:1.1706062 6:1.1799243 7:-0.84742445 8:-0.87820051 9:-0.74441476 10:1.3152899 11:1.1462028 12:1.2177548 
-0 -0 -381.5760699996338 -0 0 0 0 0 0 0 0 0 0 0 1:0.14507423 2:0.39939388 3:0.53938922 4:1.3595244 5:1.1736714 6:1.3805392 7:-0.76003783 8:-0.89944374 9:-0.57292348 10:1.2997433 11:1.1371138 12:1.4038079 
-0 -0 -63.24788191212022 -0 4.424971022317047 9.66611846964965 0 0 0 0 0 0 0 0 1:0.15124712 2:0.38150925 3:0.54347313 4:1.4918045 5:1.200957 6:1.4456976 7:-0.75684102 8:-0.84531517 9:-0.66343502 10:1.3674818 11:1.1778209 12:1.3911313 
-0 -0 -1343.068937467852 -0 0 0 0 0 0 0 0 0 0 0 1:0.55255424 2:0.26774972 3:0.16755649 4:1.1248857 5:1.2739289 6:1.3440069 7:-0.38672737 8:-0.78750287 9:-0.9573884 10:1.3690791 11:1.243213 12:1.1933092 
-0.1420165393250966 -0 -8.406391331563473 -3.256008434952013 0 0.4905789762710825 0.7740697313189483 0 0 0 0 0 0 0 1:0.52758404 2:0.2791911 3:0.2460743 4:1.3361943 5:1.3386416 6:1.3143841 7:-0.39383989 8:-0.84095333 9:-0.84954444 10:1.4711772 11:1.2488442 12:1.2324198 
-0 -2.662862804961763 -2567.818042584727 -0 0 0 0 0.08707789737599384 0.07155450642544591 0.07490753769501961 0 0 0.06447478201593473 0.05773081153149318 1:0.55049354 2:0.36225285 3:0.11578577 4:1.0691235 5:1.0352002 6:1.2827168 7:-0.73142459 8:-0.90552227 9:-0.99618726 10:1.1688495 11:1.064839 12:1.1432648 
-0 -0 -1212.205330945878 -0 0 0 0 0 0 0 0 0 0 0 1:0.53226792 2:0.36712533 3:0.1206202 4:1.0785538 5:1.1146656 6:1.4186144 7:-0.52311646 8:-0.79372314 9:-0.98214304 10:1.2777187 11:1.1604712 12:1.2182357 
-0 -0 -0 -0 96.08275254288314 0 0 0 0 0 0 0 0 0 1:0.51232246 2:0.36066095 3:0.12004401 4:1.1287127 5:1.0631837 6:1.3482224 7:-0.70933703 8:-0.93019227 9:-0.91785574 10:1.2096878 11:1.0664957 12:1.2151833 
-0 -0 -1159.6564260859 -0 0 0 0 0 0 0 0.005915073449659437 0.1281488109542647 0 0 1:0.54535703 2:0.26721726 3:0.13839008 4:1.1289013 5:1.1304757 6:1.3793829 7:-0.35766036 8:-0.87306624 9:-0.88912473 10:1.3856205 11:1.1287048 12:1.2451291 
-0 -0 -0 -0 0 29.67704477075723 0 0 0 0 0 0 0 0 1:0.51081656 2:0.36071428 3:0.10084674 4:1.196714 5:1.3080654 6:1.5024703 7:-0.61788276 8:-0.71766199 9:-0.81584435 10:1.2894156 11:1.2952017 12:1.343313 
-1.004066355688081 -0 -303.9341612983533 -7.114397058745282 0 0 2.379250899102441 0.3823682123797328 0.3883419414960063 0.3850052271460882 0.5369853606977224 0.4134322102460132 0.4275541963331597 0.4353765339403287 1:0.52439775 2:0.36096552 3:0.085179586 4:1.1568145 5:1.1733722 6:1.8749063 7:-0.63365064 8:-0.73725074 9:-0.88104297 10:1.2615819 11:1.2180607 12:1.4969317 
-0 -0 -0 -0 22.85603089287289 0 0 0 0 0 0 0 0 0 1:0.4923768 2:0.37122235 3:0.099171115 4:1.1799243 5:1.1706062 6:1.4780042 7:-0.74441476 8:-0.87820051 9:-0.84742445 10:1.2177548 11:1.1462028 12:1.3152899 
-0 -0 -381.409276909595 -0 0 0 0 0 0 0 0 0 0 0 1:0.53938922 2:0.39939388 3:0.14507423 4:1.3805392 5:1.1736714 6:1.3595244 7:-0.57292348 8:-0.89944374 9:-0.76003783 10:1.4038079 11:1.1371138 12:1.2997433 
-0 -0 -63.73700161324945 -0 4.888985080601123 9.545423453695623 0 0 0 0 0 0 0 0 1:0.54347313 2:0.38150925 3:0.15124712 4:1.4456976 5:1.200957 6:1.4918045 7:-0.66343502 8:-0.84531517 9:-0.75684102 10:1.3911313 11:1.1778209 12:1.3674818 
-0 -0 -1346.590655478576 -0 0 0 0 0 0 0 0 0 0 0 1:0.55255424 2:0.16755649 3:0.26774972 4:1.1248857 5:1.3440069 6:1.2739289 7:-0.38672737 8:-0.9573884 9:-0.78750287 10:1.3690791 11:1.1933092 12:1.243213 
-0.2417176515453408 -0 -7.172510085256008 -2.224189275341044 0 3.031141512032216 1.030642437015689 0 0 0 0 0 0 0 1:0.52758404 2:0.2460743 3:0.2791911 4:1.3361943 5:1.3143841 6:1.3386416 7:-0.39383989 8:-0.84954444 9:-0.84095333 10:1.4711772 11:1.2324198 12:1.2488442 
-0 -2.584871071308869 -2565.927124749829 -0 0 0 0 0.03961573458919306 0.05588208902094796 0.05125417002028569 0 0 0.02868851638118235 0.04304381979135477 1:0.55049354 2:0.11578577 3:0.36225285 4:1.0691235 5:1.2827168 6:1.0352002 7:-0.73142459 8:-0.99618726 9:-0.90552227 10:1.1688495 11:1.1432648 12:1.064839 
-0 -0 -1207.848024492292 -0 0 0 0 0 0 0 0 0 0 0 1:0.53226792 2:0.1206202 3:0.36712533 4:1.0785538 5:1.4186144 6:1.1146656 7:-0.52311646 8:-0.98214304 9:-0.79372314 10:1.2777187 11:1.2182357 12:1.1604712 
-0 -0 -0 -0 92.6785655938787 0 0 0 0 0 0 0 0 0 1:0.51232246 2:0.12004401 3:0.36066095 4:1.1287127 5:1.3482224 6:1.0631837 7:-0.70933703 8:-0.91785574 9:-0.93019227 10:1.2096878 11:1.2151833 12:1.0664957 
-0 -0 -1159.726776385138 -0 0 0 0 0 0 0 0.02226032457185534 0.08226987100536266 0 0 1:0.54535703 2:0.13839008 3:0.26721726 4:1.1289013 5:1.3793829 6:1.1304757 7:-0.35766036 8:-0.88912473 9:-0.87306624 10:1.3856205 11:1.2451291 12:1.1287048 
-0 -0 -0 -0 0 28.50286224566673 0 0 0 0 0 0 0 0 1:0.51081656 2:0.10084674 3:0.36071428 4:1.196714 5:1.5024703 6:1.3080654 7:-0.61788276 8:-0.81584435 9:-0.71766199 10:1.2894156 11:1.343313 12:1.2952017 
-1.00362412643098 -0 -303.1191684468917 -6.891499000949227 0 0 2.328525914938573 0.4111428915132632 0.3971375736085211 0.3977110425051277 0.5028191560557918 0.4691905767326424 0.4481407109922937 0.436648859433789 1:0.52439775 2:0.085179586 3:0.36096552 4:1.1568145 5:1.8749063 6:1.1733722 7:-0.63365064 8:-0.88104297 9:-0.73725074 10:1.2615819 11:1.4969317 12:1.2180607 
-0 -0 -0 -0 28.45569824477087 0 0 0 0 0 0 0 0 0 1:0.4923768 2:0.099171115 3:0.37122235 4:1.1799243 5:1.4780042 6:1.1706062 7:-0.74441476 8:-0.84742445 9:-0.87820051 10:1.2177548 11:1.3152899 12:1.1462028 
-0 -0 -381.2524465423953 -0 0 0 0 0 0 0 0 0 0 0 1:0.53938922 2:0.14507423 3:0.39939388 4:1.3805392 5:1.3595244 6:1.1736714 7:-0.57292348 8:-0.76003783 9:-0.89944374 10:1.4038079 11:1.2997433 12:1.1371138 
-0 -0 -63.44854728800514 -0 4.309546579591253 9.722776339833134 0 0 0 0 0 0 0 0 1:0.54347313 2:0.15124712 3:0.38150925 4:1.4456976 5:1.4918045 6:1.200957 7:-0.66343502 8:-0.75684102 9:-0.84531517 10:1.3911313 11:1.3674818 12:1.1778209 
-0 -0 -1343.446058047563 -0 0 0 0 0 0 0 0 0 0 0 1:0.26774972 2:0.16755649 3:0.55255424 4:1.2739289 5:1.3440069 6:1.1248857 7:-0.78750287 8:-0.9573884 9:-0.38672737 10:1.243213 11:1.1933092 12:1.3690791 
-0.09868875716604031 -0 -8.397480083679739 -3.336419674067677 0 2.053931682049021 0.8068706109027999 0 0 0 0 0 0 0 1:0.2791911 2:0.2460743 3:0.52758404 4:1.3386416 5:1.3143841 6:1.3361943 7:-0.84095333 8:-0.84954444 9:-0.39383989 10:1.2488442 11:1.2324198 12:1.4711772 
-0 -2.612137617658612 -2567.199835946288 -0 0 0 0 0.09794743515561326 0.07781741436785508 0.08162185271952505 0 0 0.08620454957391814 0.06983227547489819 1:0.36225285 2:0.11578577 3:0.55049354 4:1.0352002 5:1.2827168 6:1.0691235 7:-0.90552227 8:-0.99618726 9:-0.73142459 10:1.064839 11:1.1432648 12:1.1688495 
-0 -0 -1213.275887778175 -0 0 0 0 0 0 0 0 0 0 0 1:0.36712533 2:0.1206202 3:0.53226792 4:1.1146656 5:1.4186144 6:1.0785538 7:-0.79372314 8:-0.98214304 9:-0.52311646 10:1.1604712 11:1.2182357 12:1.2777187 
-0 -0 -0 -0 96.06159597589807 0 0 0 0 0 0 0 0 0 1:0.36066095 2:0.12004401 3:0.51232246 4:1.0631837 5:1.3482224 6:1.1287127 7:-0.93019227 8:-0.91785574 9:-0.70933703 10:1.0664957 11:1.2151833 12:1.2096878 
-0 -0 -1159.958147190444 -0 0 0 0 0 0 0 0.005956006304445253 0.1291497074221027 0 0 1:0.26721726 2:0.13839008 3:0.54535703 4:1.1304757 5:1.3793829 6:1.1289013 7:-0.87306624 8:-0.88912473 9:-0.35766036 10:1.1287048 11:1.2451291 12:1.3856205 
-0 -0 -0 -0 0 29.11361063286965 0 0 0 0 0 0 0 0 1:0.36071428 2:0.10084674 3:0.51081656 4:1.3080654 5:1.5024703 6:1.196714 7:-0.71766199 8:-0.81584435 9:-0.61788276 10:1.2952017 11:1.343313 12:1.2894156 
-0.9832561329324526 -0 -303.9938860955994 -7.157584264112408 0 0 2.374751535129489 0.3758546028227224 0.3804245569212933 0.3815503514202804 0.549220127843746 0.4122105998523052 0.4056883239510656 0.420255469639194 1:0.36096552 2:0.085179586 3:0.52439775 4:1.1733722 5:1.8749063 6:1.1568145 7:-0.73725074 8:-0.88104297 9:-0.63365064 10:1.2180607 11:1.4969317 12:1.2615819 
-0 -0 -0 -0 23.39719655685075 0 0 0 0 0 0 0 0 0 1:0.37122235 2:0.099171115 3:0.4923768 4:1.1706062 5:1.4780042 6:1.1799243 7:-0.87820051 8:-0.84742445 9:-0.74441476 10:1.1462028 11:1.3152899 12:1.2177548 
-0 -0 -381.5150282227796 -0 0 0 0 0 0 0 0 0 0 0 1:0.39939388 2:0.14507423 3:0.53938922 4:1.1736714 5:1.3595244 6:1.3805392 7:-0.89944374 8:-0.76003783 9:-0.57292348 10:1.1371138 11:1.2997433 12:1.4038079 
-0 -0 -63.95542696036119 -0 4.64729926300553 9.766988356997224 0 0 0 0 0 0 0 0 1:0.38150925 2:0.15124712 3:0.54347313 4:1.200957 5:1.4918045 6:1.4456976 7:-0.84531517 8:-0.75684102 9:-0.66343502 10:1.1778209 11:1.3674818 12:1.3911313 
-0 -0 -1345.847690085291 -0 0 0 0 0 0 0 0 0 0 0 1:0.26774972 2:0.55255424 3:0.16755649 4:1.2739289 5:1.1248857 6:1.3440069 7:-0.78750287 8:-0.38672737 9:-0.9573884 10:1.243213 11:1.3690791 12:1.1933092 
-0.3059919504385701 -0 -8.596133345279137 -2.466829659427104 0 1.428521084181415 0.9942376490309962 0 0 0 0 0 0 0 1:0.2791911 2:0.52758404 3:0.2460743 4:1.3386416 5:1.3361943 6:1.3143841 7:-0.84095333 8:-0.39383989 9:-0.84954444 10:1.2488442 11:1.4711772 12:1.2324198 
-0 -2.724299317763391 -2566.862067318237 -0 0 0 0 0.0349182735752405 0.05347967465392655 0.04627100031921568 0 0 0.03982334016055403 0.04690201397831124 1:0.36225285 2:0.55049354 3:0.11578577 4:1.0352002 5:1.0691235 6:1.2827168 7:-0.90552227 8:-0.73142459 9:-0.99618726 10:1.064839 11:1.1688495 12:1.1432648 
-0 -0 -1209.888128965088 -0 0 0 0 0 0 0 0 0 0 0 1:0.36712533 2:0.53226792 3:0.1206202 4:1.1146656 5:1.0785538 6:1.4186144 7:-0.79372314 8:-0.52311646 9:-0.98214304 10:1.1604712 11:1.2777187 12:1.2182357 
-0 -0 -0 -0 95.7681873185374 0 0 0 0 0 0 0 0 0 1:0.36066095 2:0.51232246 3:0.12004401 4:1.0631837 5:1.1287127 6:1.3482224 7:-0.93019227 8:-0.70933703 9:-0.91785574 10:1.0664957 11:1.2096878 12:1.2151833 
-0 -0 -1160.341450337956 -0 0 0 0 0 0 0 0.01992733033821698 0.08387732320324504 0 0 1:0.26721726 2:0.54535703 3:0.13839008 4:1.1304757 5:1.1289013 6:1.3793829 7:-0.87306624 8:-0.35766036 9:-0.88912473 10:1.1287048 11:1.3856205 12:1.2451291 
-0 -0 -0 -0 0 29.08573098943643 0 0 0 0 0 0 0 0 1:0.36071428 2:0.51081656 3:0.10084674 4:1.3080654 5:1.196714 6:1.5024703 7:-0.71766199 8:-0.61788276 9:-0.81584435 10:1.2952017 11:1.2894156 12:1.343313 
-0.984495334897374 -0 -303.1061806396775 -6.940971730111517 0 0 2.324650838490025 0.4108516750521327 0.3924895771470892 0.3992348046602944 0.5171637218555361 0.4684707545175401 0.4306479879987155 0.4262745655927837 1:0.36096552 2:0.52439775 3:0.085179586 4:1.1733722 5:1.1568145 6:1.8749063 7:-0.73725074 8:-0.63365064 9:-0.88104297 10:1.2180607 11:1.2615819 12:1.4969317 
-0 -0 -0 -0 26.72410760788019 0 0 0 0 0 0 0 0 0 1:0.37122235 2:0.4923768 3:0.099171115 4:1.1706062 5:1.1799243 6:1.4780042 7:-0.87820051 8:-0.74441476 9:-0.84742445 10:1.1462028 11:1.2177548 12:1.3152899 
-0 -0 -381.0912417625397 -0 0 0 0 0 0 0 0 0 0 0 1:0.39939388 2:0.53938922 3:0.14507423 4:1.1736714 5:1.3805392 6:1.3595244 7:-0.89944374 8:-0.57292348 9:-0.76003783 10:1.1371138 11:1.4038079 12:1.2997433 
-0 -0 -63.72479812591262 -0 4.628373976628908 9.465634650976273 0 0 0 0 0 0 0 0 1:0.38150925 2:0.54347313 3:0.15124712 4:1.200957 5:1.4456976 6:1.4918045 7:-0.84531517 8:-0.66343502 9:-0.75684102 10:1.1778209 11:1.3911313 12:1.3674818 
-0 -0 -120.7346120222379 -0 -0 0 0 0 0 0 0 0 0 0 1:0.34968852 2:0.32721539 3:0.3407959 4:1.0451909 5:1.1524415 6:1.0523074 7:-0.9277271 8:-0.84311768 9:-0.93209914 10:1.0587319 11:1.1546619 12:1.0601041 
-0 -0 -0 -0 -57.03623481034738 0 0 0 0 0 0 0 0 0 1:0.38992765 2:0.23096052 3:0.33363823 4:1.1316245 5:1.3173704 6:1.1143061 7:-0.87629772 8:-0.83445927 9:-0.93729918 10:1.1276634 11:1.2414555 12:1.0885035 
-0 -3.852883733881938 -0 -0 -0 0 0 0.02905061924315081 0 0.01905900639556312 0 0 0 0.02708066654449683 1:0.3702999 2:0.2723545 3:0.3212322 4:1.0456433 5:1.1561649 6:1.0778773 7:-0.90654964 8:-0.91341029 9:-0.96510669 10:1.0695468 11:1.1213773 12:1.0563853 
-0.9667022210264772 -0 -18.5442940715667 -4.548417835482141 -28.42182682836316 0 2.196755666505188 0.4103373863808411 0.3884149086076389 0.419895367106432 0.4769012323440409 0.5121458952765472 0.445162619510476 0.426940118590106 1:0.37237233 2:0.244361 3:0.37173932 4:1.128602 5:1.7946139 6:1.0885889 7:-0.67945731 8:-0.78687472 9:-0.7859376 10:1.2245724 11:1.5038696 12:1.1513256 
-0 -0 -0 -0 -0 13.52971918609782 0 0 0 0 0 0 0 0 1:0.35520581 2:0.29628452 3:0.34479369 4:1.2094257 5:1.5709544 6:1.1446814 7:-0.73463364 8:-0.73398 9:-0.81805153 10:1.2373961 11:1.4184872 12:1.1633149 
-0 -0 -0 -0 -15.04710087119593 0 0 0 0 0 0 0 0 0 1:0.40540846 2:0.23508248 3:0.34543055 4:1.1108625 5:1.2236717 6:1.0995707 7:-0.83674802 8:-0.91229931 9:-0.87596223 10:1.1370573 11:1.1556862 12:1.1118042 
-0 -0 -0 -0 -22.51017744777917 0 0 0 0 0 0 0 0 0 1:0.36803122 2:0.29554255 3:0.33703859 4:1.1288524 5:1.2653154 6:1.1052164 7:-0.67000811 8:-0.85043058 9:-0.89850102 10:1.2294221 11:1.2074424 12:1.1033577 
-0 -0 -64.46283767089101 -0 -0 0 0 0 0 0 0 0 0 0 1:0.34968852 2:0.3407959 3:0.32721539 4:1.0451909 5:1.0523074 6:1.1524415 7:-0.9277271 8:-0.93209914 9:-0.84311768 10:1.0587319 11:1.0601041 12:1.1546619 
-0 -0 -0 -0 -50.46261079511018 0 0 0 0 0 0 0 0 0 1:0.38992765 2:0.33363823 3:0.23096052 4:1.1316245 5:1.1143061 6:1.3173704 7:-0.87629772 8:-0.93729918 9:-0.83445927 10:1.1276634 11:1.0885035 12:1.2414555 
-0 -8.871607974940016 -0 -0 -0 0 0 0 0.05704973985893592 0 0 0 0.02261398118287561 0.004521372693390723 1:0.3702999 2:0.3212322 3:0.2723545 4:1.0456433 5:1.0778773 6:1.1561649 7:-0.90654964 8:-0.96510669 9:-0.91341029 10:1.0695468 11:1.0563853 12:1.1213773 
-0.9746407262425151 -0 -18.53246564504804 -4.507397216959793 -26.59438576133167 0 2.236049276302138 0.3919920571378376 0.3805102792592112 0.3931967035608668 0.4945673563654106 0.4729113328179771 0.4126943555679675 0.4293137607518475 1:0.37237233 2:0.37173932 3:0.244361 4:1.128602 5:1.0885889 6:1.7946139 7:-0.67945731 8:-0.7859376 9:-0.78687472 10:1.2245724 11:1.1513256 12:1.5038696 
-0 -0 -0 -0 -0 12.62457150877149 0 0 0 0 0 0 0 0 1:0.35520581 2:0.34479369 3:0.29628452 4:1.2094257 5:1.1446814 6:1.5709544 7:-0.73463364 8:-0.81805153 9:-0.73398 10:1.2373961 11:1.1633149 12:1.4184872 
-0 -0 -0 -0 -19.7220179621583 0 0 0 0 0 0 0 0 0 1:0.40540846 2:0.34543055 3:0.23508248 4:1.1108625 5:1.0995707 6:1.2236717 7:-0.83674802 8:-0.87596223 9:-0.91229931 10:1.1370573 11:1.1118042 12:1.1556862 
-0 -0 -0 -0 -25.02084666225129 0 0 0 0 0 0 0 0 0 1:0.36803122 2:0.33703859 3:0.29554255 4:1.1288524 5:1.1052164 6:1.2653154 7:-0.67000811 8:-0.89850102 9:-0.85043058 10:1.2294221 11:1.1033577 12:1.2074424 
-0 -0 -119.1099489301744 -0 -0 0 0 0 0 0 0 0 0 0 1:0.32721539 2:0.3407959 3:0.34968852 4:1.1524415 5:1.0523074 6:1.0451909 7:-0.84311768 8:-0.93209914 9:-0.9277271 10:1.1546619 11:1.0601041 12:1.0587319 
-0 -0 -0 -0 -63.03311178348736 0 0 0 0 0 0 0 0 0 1:0.23096052 2:0.33363823 3:0.38992765 4:1.3173704 5:1.1143061 6:1.1316245 7:-0.83445927 8:-0.93729918 9:-0.87629772 10:1.2414555 11:1.0885035 12:1.1276634 
-0 -3.253527795415687 -3.79280148257676 -0 -0 0 0 0.02719832216780327 0 0.02961098583987886 0 0 0.03024835674885008 0.03596048791887777 1:0.2723545 2:0.3212322 3:0.3702999 4:1.1561649 5:1.0778773 6:1.0456433 7:-0.91341029 8:-0.96510669 9:-0.90654964 10:1.1213773 11:1.0563853 12:1.0695468 
-0.9382542582280152 -0 -18.5082384762242 -4.578080139741327 -28.08247901396838 0 2.20497838095028 0.3945328262954765 0.3933104664023897 0.389141916418928 0.4757650028120401 0.5057250835865833 0.4197793956637272 0.4088186667989548 1:0.244361 2:0.37173932 3:0.37237233 4:1.7946139 5:1.0885889 6:1.128602 7:-0.78687472 8:-0.7859376 9:-0.67945731 10:1.5038696 11:1.1513256 12:1.2245724 
-0 -0 -0 -0 -0 13.56105409947149 0 0 0 0 0 0 0 0 1:0.29628452 2:0.34479369 3:0.35520581 4:1.5709544 5:1.1446814 6:1.2094257 7:-0.73398 8:-0.81805153 9:-0.73463364 10:1.4184872 11:1.1633149 12:1.2373961 
-0 -0 -0 -0 -14.80224236335461 0 0 0 0 0 0 0 0 0 1:0.23508248 2:0.34543055 3:0.40540846 4:1.2236717 5:1.0995707 6:1.1108625 7:-0.91229931 8:-0.87596223 9:-0.83674802 10:1.1556862 11:1.1118042 12:1.1370573 
-0 -0 -0 -0 -23.40516745797132 0 0 0 0 0 0 0 0 0 1:0.29554255 2:0.33703859 3:0.36803122 4:1.2653154 5:1.1052164 6:1.1288524 7:-0.85043058 8:-0.89850102 9:-0.67000811 10:1.2074424 11:1.1033577 12:1.2294221 
-0 -0 -89.69788523132765 -0 -0 0 0 0 0 0 0 0 0 0 1:0.32721539 2:0.34968852 3:0.3407959 4:1.1524415 5:1.0451909 6:1.0523074 7:-0.84311768 8:-0.9277271 9:-0.93209914 10:1.1546619 11:1.0587319 12:1.0601041 
-0 -0 -0 -0 -48.56115009402455 0 0 0 0 0 0 0 0 0 1:0.23096052 2:0.38992765 3:0.33363823 4:1.3173704 5:1.1316245 6:1.1143061 7:-0.83445927 8:-0.87629772 9:-0.93729918 10:1.2414555 11:1.1276634 12:1.0885035 
-0 -8.867024933051619 -0 -0 -0 0 0 0.003515043806995003 0.0729962412975515 0 0 0 0.001526473823127957 0 1:0.2723545 2:0.3702999 3:0.3212322 4:1.1561649 5:1.0456433 6:1.0778773 7:-0.91341029 8:-0.90654964 9:-0.96510669 10:1.1213773 11:1.0695468 12:1.0563853 
-0.9614703764676701 -0 -18.62682555563912 -4.514259184300457 -26.72752579150182 0 2.232003203738752 0.383868561264317 0.3747205980682637 0.3798353559530688 0.4937251084713276 0.4820540430338093 0.4081662401651642 0.4254928830102848 1:0.244361 2:0.37237233 3:0.37173932 4:1.7946139 5:1.128602 6:1.0885889 7:-0.78687472 8:-0.67945731 9:-0.7859376 10:1.5038696 11:1.2245724 12:1.1513256 
-0 -0 -0 -0 -0 12.66374444032635 0 0 0 0 0 0 0 0 1:0.29628452 2:0.35520581 3:0.34479369 4:1.5709544 5:1.2094257 6:1.1446814 7:-0.73398 8:-0.73463364 9:-0.81805153 10:1.4184872 11:1.2373961 12:1.1633149 
-0 -0 -0 -0 -16.61308576169796 0 0 0 0 0 0 0 0 0 1:0.23508248 2:0.40540846 3:0.34543055 4:1.2236717 5:1.1108625 6:1.0995707 7:-0.91229931 8:-0.83674802 9:-0.87596223 10:1.1556862 11:1.1370573 12:1.1118042 
-0 -0 -0 -0 -26.03171250577083 0 0 0 0 0 0 0 0 0 1:0.29554255 2:0.36803122 3:0.33703859 4:1.2653154 5:1.1288524 6:1.1052164 7:-0.85043058 8:-0.67000811 9:-0.89850102 10:1.2074424 11:1.2294221 12:1.1033577 
-0 -0 -144.7681339882775 -0 -0 0 0 0 0 0 0 0 0 0 1:0.3407959 2:0.34968852 3:0.32721539 4:1.0523074 5:1.0451909 6:1.1524415 7:-0.93209914 8:-0.9277271 9:-0.84311768 10:1.0601041 11:1.0587319 12:1.1546619 
-0 -0 -0 -0 -57.27927564125379 0 0 0 0 0 0 0 0 0 1:0.33363823 2:0.38992765 3:0.23096052 4:1.1143061 5:1.1316245 6:1.3173704 7:-0.93729918 8:-0.87629772 9:-0.83445927 10:1.0885035 11:1.1276634 12:1.2414555 
-0 -3.739881440026275 -0.8065579512130172 -0 -0 0 0 0.09322451156254914 0 0.09749665732253893 0 0 0.04562562538524907 0.05993219792045957 1:0.3212322 2:0.3702999 3:0.2723545 4:1.0778773 5:1.0456433 6:1.1561649 7:-0.96510669 8:-0.90654964 9:-0.91341029 10:1.0563853 11:1.0695468 12:1.1213773 
-0.9278928796042718 -0 -18.57716455766221 -4.581438174604942 -28.17367188600527 0 2.201126821803921 0.3833719962057802 0.3911326329405482 0.3755869312019063 0.4749972092667065 0.5152044166124579 0.4170336471380297 0.4051653486716972 1:0.37173932 2:0.37237233 3:0.244361 4:1.0885889 5:1.128602 6:1.7946139 7:-0.7859376 8:-0.67945731 9:-0.78687472 10:1.1513256 11:1.2245724 12:1.5038696 
